episode,reward,avg_reward_100,epsilon
0.0,-348.8163236272942,-348.8163236272942,0.997
1.0,-136.9808869945955,-242.89860531094484,0.994009
2.0,-141.4245167806133,-209.07390913416768,0.991026973
3.0,3.3218638680455115,-155.97496588361437,0.988053892081
4.0,-433.3830039963581,-211.45657350616312,0.985089730404757
5.0,-348.5999739778397,-234.3138069181092,0.9821344612135428
6.0,-124.47572468302093,-218.62265231309658,0.9791880578299021
7.0,-85.21331870756894,-201.94648561240564,0.9762504936564125
8.0,-101.06129251051784,-190.7370197121959,0.9733217421754432
9.0,-69.5309496954035,-178.61641271051664,0.9704017769489168
10.0,-348.150330015813,-194.02858701099814,0.9674905716180701
11.0,-364.2578298298562,-208.214357245903,0.9645880999032158
12.0,-236.3658368687204,-210.37985567842742,0.9616943356035061
13.0,-136.05178440702045,-205.0707077304698,0.9588092525966956
14.0,-97.25286021620215,-197.8828512295186,0.9559328248389055
15.0,-387.2879862372919,-209.72067216750443,0.9530650263643888
16.0,-106.10726399689402,-203.62576580452733,0.9502058312852957
17.0,-23.223255609466477,-193.60340412702396,0.9473552137914398
18.0,-282.8901161120016,-198.30270475781225,0.9445131481500655
19.0,-155.86866406844422,-196.18100272334385,0.9416796087056153
20.0,-108.71099137606613,-192.01576408775918,0.9388545698794984
21.0,-101.81786641120058,-187.9158596479156,0.93603800616986
22.0,-101.81895710445953,-184.1725160590697,0.9332298921513504
23.0,-75.9539164357973,-179.66340774143336,0.9304302024748964
24.0,-242.85470446427738,-182.1910596103471,0.9276389118674717
25.0,-75.25703706582277,-178.07821258940388,0.9248559951318693
26.0,17.984489654685632,-170.81663102480798,0.9220814271464737
27.0,-136.13766747586055,-169.57809661234555,0.9193151828650342
28.0,-118.66258430138308,-167.82238929127791,0.9165572373164391
29.0,-284.5645822764079,-171.71379572411558,0.9138075656044898
30.0,-57.45654694905589,-168.0280780216943,0.9110661429076764
31.0,-63.836027620643655,-164.77207644666146,0.9083329444789534
32.0,-104.06255733825529,-162.93239404943702,0.9056079456455165
33.0,-309.4104133660861,-167.24057108816197,0.90289112180858
34.0,-154.36903970616436,-166.87281304867633,0.9001824484431542
35.0,-196.25555890023793,-167.68900043344195,0.8974819010978248
36.0,-102.41078480717508,-165.92472433543472,0.8947894553945313
37.0,-149.44176600258618,-165.490962274044,0.8921050870283477
38.0,-69.60114285421997,-163.03224895558697,0.8894287717672626
39.0,-74.96431360880204,-160.8305505719173,0.8867604854519608
40.0,-117.48628520867399,-159.7733733679358,0.884100203995605
41.0,-151.87490930010551,-159.5853146996541,0.8814479033836181
42.0,-120.63509756013595,-158.6794956964095,0.8788035596734672
43.0,-87.73730711178847,-157.0671732285772,0.8761671489944468
44.0,-94.11579513205375,-155.66825371532113,0.8735386475474635
45.0,-86.36880224770161,-154.16174390080766,0.8709180316048211
46.0,-104.40317557807441,-153.1030509577708,0.8683052775100066
47.0,-42.302547669668485,-150.79470713926867,0.8657003616774767
48.0,-89.95050950418369,-149.5529888201853,0.8631032605924442
49.0,-105.55558630491396,-148.6730407698799,0.860513950810667
50.0,-75.50638283708355,-147.23840041825642,0.857932408958235
51.0,-167.306832421112,-147.62433180292672,0.8553586117313603
52.0,-83.96240189058719,-146.42316331401466,0.8527925358961662
53.0,-10.588841401395015,-143.90771290822542,0.8502341582884777
54.0,-111.93513108077218,-143.32639323863535,0.8476834558136123
55.0,-133.03941305877606,-143.142697163995,0.8451404054461714
56.0,-83.12762051878514,-142.08980108250006,0.8426049842298329
57.0,-87.2430665543447,-141.14416772856634,0.8400771692771434
58.0,-123.3819525002702,-140.84311323317152,0.837556937769312
59.0,-89.49054553757155,-139.98723710491151,0.835044266956004
60.0,-161.02413640304977,-140.33210430652034,0.8325391341551359
61.0,-76.3803553741449,-139.30062448503043,0.8300415167526705
62.0,-46.39544094848401,-137.82593903206936,0.8275513922024125
63.0,-94.74089346648869,-137.15273519510714,0.8250687380258053
64.0,-133.62718869332184,-137.0984960181566,0.8225935318117279
65.0,-147.8434451212238,-137.26129827729395,0.8201257512162927
66.0,-94.61449930136571,-136.62477888959353,0.8176653739626438
67.0,-262.45025587797807,-138.47515355118745,0.8152123778407558
68.0,-68.87721274657,-137.46648774242487,0.8127667407072335
69.0,-88.41959103314288,-136.76581778943515,0.8103284404851119
70.0,-75.32460814882852,-135.90044863956746,0.8078974551636565
71.0,-130.16389660178754,-135.8207743057094,0.8054737627981655
72.0,-80.51332446796566,-135.0631380065622,0.803057341509771
73.0,-50.157961958878786,-133.9157707626746,0.8006481694852418
74.0,-99.16093082904906,-133.45237289689294,0.798246224976786
75.0,-87.26008922069012,-132.8445796906271,0.7958514863018556
76.0,-183.04120130099807,-133.49648386738517,0.79346393184295
77.0,-92.1173263156549,-132.96598184749118,0.7910835400474212
78.0,-95.37313194141781,-132.49012298792064,0.7887102894272789
79.0,-64.19333389409708,-131.63641312424784,0.7863441585589971
80.0,-44.643457500134744,-130.5624260177773,0.78398512608332
81.0,14.527381449195374,-128.7930381218386,0.7816331707050701
82.0,-83.77687448251996,-128.25067470449744,0.7792882711929549
83.0,-51.351291611155105,-127.33520585814813,0.776950406379376
84.0,-154.44449595251092,-127.6541386827877,0.7746195551602378
85.0,-71.19379595548514,-126.99762306967953,0.7722956964947572
86.0,-192.74574384571503,-127.75334859584086,0.7699788094052729
87.0,-106.28413573713111,-127.50938026790095,0.767668872977057
88.0,-100.44319357811472,-127.20526581071233,0.7653658663581259
89.0,-34.21400494007,-126.1720295788163,0.7630697687590515
90.0,-100.72877887403673,-125.8924334172253,0.7607805594527743
91.0,-107.41914148868011,-125.6916367658281,0.7584982177744161
92.0,-136.3222869826694,-125.80594483267585,0.7562227231210928
93.0,-60.38788625622459,-125.11000803930935,0.7539540549517295
94.0,-52.04152135231627,-124.3408660741831,0.7516921927868743
95.0,-48.33687028421903,-123.54915778470432,0.7494371162085136
96.0,-72.12719840462123,-123.01903449212614,0.747188804859888
97.0,-85.83282760634694,-122.63958340145493,0.7449472384453084
98.0,-211.2921297954586,-123.53506366806103,0.7427123967299725
99.0,-97.91296240391168,-123.27884265541954,0.7404842595397826
100.0,-46.31334666637326,-120.25381288581033,0.7382628067611632
101.0,-73.35556829671785,-119.61755969883156,0.7360480183408797
102.0,-71.42854221936189,-118.91759995321905,0.7338398742858571
103.0,-98.72493145244013,-119.9380679064239,0.7316383546629995
104.0,-105.61298117495255,-116.66036767820984,0.7294434395990105
105.0,-84.64097088390996,-114.02077764727052,0.7272551092802134
106.0,-2.5796191601940137,-112.80181659204226,0.7250733439523728
107.0,-75.30412386577899,-112.70272464362435,0.7228981239205157
108.0,-45.61116091468675,-112.14822332766606,0.7207294295487541
109.0,-45.26065461479199,-111.90552037685995,0.7185672412601078
110.0,-57.46632304155029,-108.99868030711733,0.7164115395363275
111.0,-53.5271585842285,-105.89137359466105,0.7142623049177186
112.0,-56.12600587068492,-104.08897528468069,0.7121195180029655
113.0,-86.88509849194436,-103.59730842552992,0.7099831594489566
114.0,-67.43802896777754,-103.29916011304569,0.7078532099706097
115.0,-13.731766259211327,-99.56359791326486,0.7057296503406979
116.0,-19.387205387019264,-98.69639732716614,0.7036124613896758
117.0,-93.1893079137138,-99.39605785020859,0.7015016240055068
118.0,-18.441372223147496,-96.75157041132006,0.6993971191334902
119.0,-65.59751411145146,-95.84885891175014,0.6972989277760897
120.0,-117.91694254638597,-95.94091842345333,0.6952070309927615
121.0,-74.28748059803969,-95.66561456532172,0.6931214098997832
122.0,-56.309259045481554,-95.21051758473193,0.6910420456700839
123.0,-52.58052554829801,-94.97678367585694,0.6889689195330736
124.0,-61.76871398629231,-93.16592377107709,0.6869020127744744
125.0,-53.280776269990795,-92.94616116311877,0.684841306736151
126.0,-21.441973493086522,-93.34042579459648,0.6827867828159425
127.0,-55.29069289143915,-92.53195604875229,0.6807384224674947
128.0,-46.39351907478276,-91.8092653964863,0.6786962072000923
129.0,-133.2304967954376,-90.29592454167661,0.676660118578492
130.0,-62.714112555268215,-90.3485001977387,0.6746301382227565
131.0,-37.62813776278004,-90.08642129916007,0.6726062478080883
132.0,-91.78848209000944,-89.9636805466776,0.6705884290646641
133.0,-67.00732035062566,-87.53964961652301,0.66857666377747
134.0,-25.577540298361953,-86.25173462244497,0.6665709337861376
135.0,-47.75337421522167,-84.76671277559481,0.6645712209847792
136.0,-25.61666262584295,-83.9987715537815,0.6625775073218249
137.0,-61.4681320350866,-83.1190352141065,0.6605897747998594
138.0,-83.6687149707502,-83.2597109352718,0.6586080054754598
139.0,-64.12879073218446,-83.15135570650563,0.6566321814590335
140.0,-61.53857852772086,-82.59187863969609,0.6546622849146564
141.0,-48.56437843325578,-81.55877333102761,0.6526982980599124
142.0,1.1747111346125507,-80.34067524408012,0.6507402031657327
143.0,-42.056096832873024,-79.88386314129097,0.6487879825562355
144.0,-58.540872875025556,-79.52811391872068,0.6468416186085668
145.0,-62.322720096989364,-79.28765309721354,0.6449010937527411
146.0,27.797725984799357,-77.9656440815848,0.6429663904714829
147.0,-33.28813532171648,-77.87549995810528,0.6410374913000684
148.0,-20.461550862834272,-77.18061037169178,0.6391143788261682
149.0,-72.00464877075746,-76.84510099635023,0.6371970356896897
150.0,-88.61138027445952,-76.97615097072399,0.6352854445826206
151.0,-56.99335136793097,-75.87301616019218,0.6333795882488727
152.0,-182.49493984892365,-76.85834153977555,0.6314794494841262
153.0,-22.437211575191938,-76.97682524151351,0.6295850111356738
154.0,-49.95474748342539,-76.35702140554004,0.6276962561022668
155.0,-28.786693144441358,-75.3144942063967,0.62581316733396
156.0,-74.35249734271696,-75.22674297463601,0.623935727831958
157.0,-72.24225028691718,-75.07673481196174,0.6220639206484622
158.0,-45.97845129352713,-74.30269979989431,0.6201977288865168
159.0,-32.22300924939361,-73.73002443701255,0.6183371356998573
160.0,-63.01362808275036,-72.74991935380955,0.6164821242927577
161.0,-19.71015419360414,-72.18321734200414,0.6146326779198794
162.0,-10.291520539629417,-71.82217813791559,0.6127887798861198
163.0,-25.548329238763188,-71.13025249563835,0.6109504135464614
164.0,-4.624870771303478,-69.84022931641816,0.609117562305822
165.0,-54.39964039543224,-68.90579126916023,0.6072902096189046
166.0,-32.297100479847884,-68.28261728094508,0.6054683389900478
167.0,-21.597030092133423,-65.87408502308662,0.6036519339730777
168.0,-44.58382974487591,-65.63115119306967,0.6018409781711584
169.0,-21.407722015249703,-64.96103250289075,0.6000354552366449
170.0,-45.70063982559485,-64.66479281965839,0.598235348870935
171.0,-30.14733935157085,-63.66462724715623,0.5964406428243222
172.0,-64.72092201372293,-63.506703222613794,0.5946513208958493
173.0,-12.177365288634874,-63.12689725591136,0.5928673669331617
174.0,-55.904834622655905,-62.69433629384743,0.5910887648323622
175.0,-20.928556033703046,-62.03102096197755,0.5893154985378651
176.0,-31.990311329310288,-60.520512062260686,0.5875475520422515
177.0,-51.308800460758434,-60.11242680371171,0.5857849093861247
178.0,-12.660679040127818,-59.285302274698815,0.5840275546579663
179.0,-48.06068490501349,-59.12397578480798,0.5822754719939924
180.0,-44.23747305593727,-59.119915940366006,0.5805286455780104
181.0,-43.56829106304397,-59.700872665488404,0.5787870596412764
182.0,-79.92301959697075,-59.66233411663291,0.5770506984623526
183.0,-56.015040611565965,-59.708971606637014,0.5753195463669655
184.0,-13.879726553428142,-58.30332391264619,0.5735935877278646
185.0,-24.190308202741306,-57.83328903511875,0.571872806964681
186.0,14.654795009750572,-55.7592836465641,0.5701571885437869
187.0,-73.74995645255504,-55.433941853718345,0.5684467169781556
188.0,-13.362346592645011,-54.563133383863644,0.5667413768272211
189.0,-47.93713363318391,-54.70036467079479,0.5650411526967395
190.0,35.43406245861979,-53.338736257468206,0.5633460292386493
191.0,-42.17352073341057,-52.686280049915524,0.5616559911509333
192.0,-31.259840666541493,-51.63565558675424,0.5599710231774805
193.0,-8.445981102845167,-51.116236535220445,0.5582911101079481
194.0,-1.9132366858373473,-50.61495368855566,0.5566162367776242
195.0,-29.09868515058352,-50.422571837219294,0.5549463880672914
196.0,-29.64825278545463,-49.99778238102765,0.5532815489030894
197.0,-32.95311800110433,-49.468985284975204,0.5516217042563801
198.0,54.83315367494765,-46.80773245027116,0.549966839143611
199.0,-45.223745581709146,-46.28084028204913,0.5483169386261801
200.0,-188.7017672302017,-47.704724487687415,0.5466719878103016
201.0,-40.23625923779318,-47.37353139709816,0.5450319718468707
202.0,14.904667600262655,-46.51019929890192,0.5433968759313301
203.0,-71.2233104720679,-46.23518308909819,0.5417666853035361
204.0,-169.1606647695795,-46.870659925044464,0.5401413852476254
205.0,-54.93379314469039,-46.57358814765227,0.5385209610918825
206.0,-135.84043945207281,-47.90619635057107,0.5369053982086068
207.0,-46.8382788917239,-47.62153790083052,0.535294682013981
208.0,7.825341966256957,-47.08717287202107,0.5336887979679391
209.0,5.868630907788699,-46.575880016795274,0.5320877315740353
210.0,-49.774610695532026,-46.49896289333508,0.5304914683793133
211.0,-16.192505864931448,-46.12561636614211,0.5288999939741753
212.0,-30.905810702239478,-45.873414414457656,0.5273132939922528
213.0,-30.53524179145046,-45.309915847452714,0.525731354110276
214.0,4.788402338383946,-44.587651534391085,0.5241541600479452
215.0,-52.8068852089183,-44.978402723888166,0.5225816975678014
216.0,7.073186855002348,-44.71379880146796,0.521013952475098
217.0,-34.32008869114709,-44.125106609242295,0.5194509106176727
218.0,12.381429326255144,-43.81687859374827,0.5178925578858197
219.0,-24.07686432984265,-43.401672095932184,0.5163388802121622
220.0,-68.76183975520661,-42.91012106802039,0.5147898635715258
221.0,32.99500434536563,-41.837296218586324,0.5132454939808112
222.0,-48.18458311271452,-41.756049459258655,0.5117057574988688
223.0,-82.56312498695478,-42.05587545364522,0.5101706402263723
224.0,-49.61998156102602,-41.93438812939255,0.5086401283056932
225.0,-26.530795072211745,-41.66688831741476,0.5071142079207761
226.0,-9.035342795472957,-41.542822010438634,0.5055928652970137
227.0,-222.38147917743055,-43.21372987329855,0.5040760867011227
228.0,-39.524783515755956,-43.14504251770827,0.5025638584410194
229.0,-74.02660558712898,-42.55300360562519,0.5010561668656963
230.0,-7.569204831608971,-42.001554528388596,0.49955299836509925
231.0,-6.389413125139441,-41.689167282012185,0.49805433937000393
232.0,-16.301974871893435,-40.93430220983103,0.4965601763518939
233.0,-44.11500965712321,-40.70537910289601,0.49507049582283824
234.0,-50.90513607309467,-40.95865506064334,0.49358528433536975
235.0,-41.92874619676236,-40.90040878045874,0.49210452848236363
236.0,-20.194507277306997,-40.846187226973385,0.49062821489691655
237.0,-27.36907351008479,-40.505196641723366,0.4891563302522258
238.0,-31.97937551981485,-39.98830324721401,0.48768886126146915
239.0,-45.728009109087125,-39.80429543098304,0.48622579467768473
240.0,-22.00138921371169,-39.408923537842945,0.4847671172936517
241.0,-67.85653657421915,-39.60184511925258,0.4833128159417707
242.0,-18.124449600253627,-39.79483672660124,0.4818628774939454
243.0,10.693354738905555,-39.26734221088346,0.48041728886146357
244.0,-56.909579666387074,-39.25102927879707,0.4789760369948792
245.0,35.280956028618675,-38.274992517540994,0.47753910888389456
246.0,-54.54806599698924,-39.098450437358885,0.4761064915572429
247.0,-17.657924976645134,-38.942148333908165,0.4746781720825711
248.0,22.243132129280525,-38.51510150398702,0.4732541375663234
249.0,-53.35165959348206,-38.32857161221426,0.4718343751536244
250.0,-32.24174098121391,-37.764875219281805,0.47041887202816357
251.0,-57.97700711320195,-37.77471177673451,0.4690076154120791
252.0,5.720709783325688,-35.892555280412026,0.46760059256584285
253.0,-38.92939509092545,-36.057477115569355,0.4661977907881453
254.0,-46.658113526107414,-36.024510775996184,0.4647991974157809
255.0,-142.47250867206964,-37.16136893127246,0.46340479982353355
256.0,-45.24199988884264,-36.87026395673372,0.46201458542406293
257.0,4.487606071631632,-36.10296539314823,0.4606285416677907
258.0,-13.803344561705615,-35.781214325830014,0.45924665604278736
259.0,-72.35619035011814,-36.18254613683726,0.457868916074659
260.0,-68.78615627784862,-36.24027141878824,0.45649530932643506
261.0,17.422611544331403,-35.86894376140888,0.45512582339845575
262.0,-8.736314540980473,-35.853391701422396,0.45376044592826037
263.0,-32.61840565317142,-35.92409246556648,0.4523991645904756
264.0,-53.283931895310516,-36.41068307680655,0.45104196709670413
265.0,-47.63155330563846,-36.34300220590862,0.449688841195414
266.0,-102.08332507266867,-37.04086445183682,0.4483397746718278
267.0,-32.07180693484709,-37.14561222026396,0.4469947553478123
268.0,-39.724531929236036,-37.097019242107564,0.44565377108176885
269.0,-174.83952682024315,-38.6313372901575,0.44431680976852356
270.0,-15.686876543255792,-38.3311996573341,0.44298385933921797
271.0,-33.63539868341029,-38.3660802506525,0.4416549077612003
272.0,-54.18630750500358,-38.260734105565305,0.4403299430379167
273.0,-290.4822693720557,-41.04378314639951,0.43900895320880295
274.0,-22.476391380925776,-40.70949871398221,0.43769192634917653
275.0,-22.540940978573985,-40.72562256343092,0.436378850570129
276.0,-1.2763002772360608,-40.418482452910176,0.4350697140184186
277.0,1.962319803296964,-39.88577125026962,0.43376450487636337
278.0,-42.92714483019118,-40.188435908170256,0.43246321136173427
279.0,19.776094575410625,-39.51006811336602,0.43116582172764906
280.0,0.9276497185511943,-39.058416885621135,0.42987232426246613
281.0,-76.40264299009905,-39.38676040489168,0.42858270728967873
282.0,19.642406895997993,-38.39110613996199,0.4272969591678097
283.0,-50.35568330133834,-38.334512566859715,0.4260150682903063
284.0,-74.87279282813944,-38.94444322960683,0.4247370230854354
285.0,41.944931834745546,-38.283090829231966,0.4234628120161791
286.0,-17.838189699249867,-38.60802067632197,0.42219242358013054
287.0,-40.95261824797498,-38.280047294276166,0.4209258463093902
288.0,-35.10976773667362,-38.49752150571645,0.419663068770462
289.0,14.757443880149978,-37.87057573058312,0.4184040795641506
290.0,-99.95880938088064,-39.224504448978124,0.41714886732545814
291.0,-35.285204478241496,-39.15562128642644,0.41589742072348174
292.0,5.8907707317607105,-38.7841151724434,0.4146497284613113
293.0,-13.10615886260777,-38.83071695004103,0.41340577927592737
294.0,-40.58508466980133,-39.21743542988067,0.41216556193809956
295.0,-46.90194197962293,-39.395467998171064,0.41092906525228523
296.0,-52.83231669964012,-39.627308637312915,0.40969627805652836
297.0,-40.35656277267664,-39.70134308502864,0.40846718922235875
298.0,-45.57392590678347,-40.70541388084595,0.40724178765469166
299.0,-32.64281486642629,-40.57960457369313,0.4060200622917276
300.0,-25.56573339744081,-38.94824423536552,0.4048020021048524
301.0,-42.60426237095656,-38.97192426669715,0.40358759609853784
302.0,-39.07702272687277,-39.5117411699685,0.4023768333102422
303.0,-14.512985127674622,-38.94463791652458,0.4011697028103115
304.0,-29.636211815226616,-37.549393386981045,0.3999661937018806
305.0,32.787781781258815,-36.67217763772155,0.39876629512077494
306.0,-73.87989325110857,-36.05257217571191,0.3975699962354126
307.0,-26.30995808374604,-35.84728896763213,0.3963772862467064
308.0,-5.593475673049184,-35.9814771440252,0.39518815438796623
309.0,25.77458845826459,-35.78241756852044,0.3940025899248023
310.0,8.727988365415698,-35.19739157791096,0.3928205821550279
311.0,-24.421747409311124,-35.27968399335476,0.39164212040856283
312.0,5.9395811859906615,-34.91123007447245,0.39046719404733715
313.0,-9.372951407505056,-34.699607170632994,0.38929579246519513
314.0,-44.60631255322161,-35.19355431954905,0.38812790508779954
315.0,-48.706384416653606,-35.1525493116264,0.38696352137253615
316.0,-57.80891637686408,-35.80137034394507,0.38580263080841853
317.0,-31.911175725104158,-35.77728121428464,0.3846452229159933
318.0,-25.146846532366396,-36.15256397287085,0.3834912872472453
319.0,-18.039136641403047,-36.092186695986456,0.3823408133855036
320.0,4.027321258735114,-35.36429508584704,0.38119379094534706
321.0,-2.078459263249897,-35.71502972193319,0.380050209572511
322.0,-47.407470674747906,-35.70725859755353,0.3789100589437935
323.0,-60.60560241525975,-35.48768337183658,0.3777733287669621
324.0,-26.90539948060102,-35.26053755103233,0.37664000878066123
325.0,0.5503896381759432,-34.98972570392845,0.37551008875431924
326.0,14.795569841060498,-34.75141657756312,0.37438355848805627
327.0,-28.680322176170904,-32.81440500755052,0.3732604078125921
328.0,45.56736190416413,-31.96348355335132,0.37214062658915437
329.0,-28.924291156262882,-31.51246040904266,0.3710242047093869
330.0,29.92656356354658,-31.137502725091107,0.3699111320952587
331.0,36.15975586049478,-30.71201103523476,0.36880139869897294
332.0,-6.686735697580403,-30.615858643491634,0.367694994502876
333.0,-8.905821529416585,-30.263766762214562,0.3665919095193674
334.0,-8.641759357690034,-29.841132995060526,0.36549213379080925
335.0,-85.0382482504126,-30.272228015597015,0.3643956573894368
336.0,8.26342995577869,-29.987648643266162,0.3633024704172685
337.0,-45.36941432063797,-30.167652051371697,0.3622125630060167
338.0,21.324204104135447,-29.634616255132197,0.3611259253169986
339.0,-19.12053631167828,-29.368541527158104,0.3600425475410476
340.0,8.41794372826702,-29.06434819773832,0.3589624198984244
341.0,30.200847585503652,-28.083774356141088,0.35788553263872913
342.0,-7.499366393540465,-27.977523524073963,0.35681187604081294
343.0,-16.209026823812778,-28.246547339701138,0.3557414404126905
344.0,49.8061552969784,-27.179389990067484,0.35467421609145244
345.0,-11.128010120150492,-27.643479651555175,0.35361019344317807
346.0,35.982970468179126,-26.738169286903496,0.35254936286284855
347.0,39.920726350192325,-26.162382773635116,0.35149171477426
348.0,-29.448277307768905,-26.67929686800561,0.3504372396299372
349.0,0.6635340170323616,-26.139144931900468,0.3493859279110474
350.0,-49.643906815405614,-26.31316659024239,0.34833777012731426
351.0,2.0969525572616847,-25.712426993537747,0.34729275681693234
352.0,-13.483605881485971,-25.904470150185862,0.3462508785464815
353.0,23.829911416968287,-25.276877085106932,0.34521212591084205
354.0,-21.12599689747644,-25.021555918820624,0.34417648953310953
355.0,46.53409001591194,-23.131489931940806,0.3431439600645102
356.0,31.26872741860123,-22.366382658866364,0.34211452818431665
357.0,23.075183503052806,-22.180506884552152,0.3410881845997637
358.0,-57.062609588025474,-22.61309953481535,0.3400649200459644
359.0,41.785679295428594,-21.471680838359887,0.3390447252858265
360.0,48.434522238893635,-20.29947405319247,0.33802759110996905
361.0,41.038785261989176,-20.06331231601589,0.3370135083366391
362.0,29.23688295046196,-19.683580341101464,0.3360024678116292
363.0,-6.736673838228796,-19.42476302295204,0.3349944604081943
364.0,-0.6138950090593625,-18.898062654089525,0.33398947702696974
365.0,8.790116987754118,-18.3338459511556,0.3329875085958888
366.0,20.46277152201597,-17.10838498520875,0.33198854607010114
367.0,-54.889641112720426,-17.336563326987484,0.33099258043189084
368.0,92.37769062707221,-16.0155411014244,0.32999960269059514
369.0,1.8205996109894897,-14.248939837112076,0.32900960388252337
370.0,-76.92527402266468,-14.861323811906166,0.3280225750708758
371.0,14.577104926320398,-14.37919877580886,0.32703850734566314
372.0,-42.48269490871063,-14.262162649845926,0.32605739182362614
373.0,1.8722308785365414,-11.338617647340008,0.3250792196481553
374.0,31.087005041181555,-10.802983683118931,0.3241039819892108
375.0,-17.02092806956415,-10.747783554028835,0.32313167004324317
376.0,89.88132048346841,-9.836207346421789,0.32216227503311345
377.0,25.866276246251893,-9.59716778199224,0.3211957882080141
378.0,25.237840342348164,-8.915517930266848,0.32023220084339005
379.0,22.552095003697872,-8.887757925983975,0.31927150424085987
380.0,-5.032545544419946,-8.947359878613685,0.3183136897281373
381.0,15.667704913760886,-8.026656399575087,0.31735874865895286
382.0,80.38325768248201,-7.419247891710246,0.316406672412976
383.0,39.718879378311826,-6.518502264913744,0.3154574523957371
384.0,0.2850996933173633,-5.766923339699177,0.3145110800385499
385.0,-39.26988315736871,-6.579071489620319,0.31356754679843424
386.0,23.178350486542953,-6.168906087762391,0.31262684415803893
387.0,42.84269983982472,-5.330952906884395,0.3116889636255648
388.0,95.02726089146388,-4.029582620603019,0.3107538967346881
389.0,55.08119196658049,-3.626345139738715,0.30982163504448407
390.0,27.25299262526788,-2.3542271196772293,0.3088921701393506
391.0,71.35356997400538,-1.2878393751547612,0.30796549362893255
392.0,30.55203839781842,-1.0412266984941834,0.30704159714804574
393.0,49.04720501882893,-0.4196930596798167,0.3061204723566016
394.0,-6.427332361753187,-0.07811553659933508,0.3052021109395318
395.0,-45.309684011539744,-0.062192956918502774,0.3042865046067132
396.0,6.415490385372806,0.5302851139316261,0.30337364509289305
397.0,28.966824626927973,1.2235189879276727,0.30246352415761435
398.0,-51.97418145223871,1.1595164324731204,0.3015561335851415
399.0,-8.656760440223508,1.3993769767351487,0.30065146518438607
400.0,102.81003067523365,2.6831346174618926,0.2997495107888329
401.0,-18.754538619414163,2.921631854977317,0.2988502622564664
402.0,-11.010927975771068,3.2022928024883344,0.29795371146969696
403.0,-80.40320748981091,2.5433905788669713,0.29705985033528787
404.0,15.617015493267587,2.9959228519519114,0.296168670784282
405.0,16.75447875250174,2.835589821664341,0.29528016477192914
406.0,107.40362080400934,4.64842496221552,0.29439432427761336
407.0,90.69405054577997,5.818465048510781,0.2935111413047805
408.0,128.49909479421976,7.15939075318347,0.29263060788086614
409.0,141.07073469836294,8.312352215584454,0.2917527160572235
410.0,134.25431839992427,9.567615515929539,0.29087745790905184
411.0,12.947381677026897,9.94130680679292,0.2900048255353247
412.0,2.1472129049377315,9.903383123982392,0.28913481105871874
413.0,-19.08332394935279,9.806279398563916,0.28826740662554257
414.0,14.790961949291372,10.400252143589046,0.28740260440566595
415.0,17.04760883509526,11.057792076106532,0.28654039659244895
416.0,-23.360789212879524,11.402273347746377,0.2856807754026716
417.0,112.0695527473841,12.842080632471259,0.2848237330764636
418.0,145.21737025678163,14.54572280036274,0.2839692618772342
419.0,13.627958884505432,14.862393755621824,0.2831173540916025
420.0,-17.298666994909766,14.649133873085376,0.28226800202932767
421.0,4.632898631818506,14.716247452036061,0.28142119802323967
422.0,-111.84894218472395,14.071832736936301,0.28057693442917
423.0,53.28547463418832,15.210743507430783,0.27973520362588244
424.0,-41.955401003455506,15.060243492202234,0.2788959980150048
425.0,138.5989882378526,16.440729478199003,0.2780593100209598
426.0,0.09179043553886856,16.293691684143784,0.2772251320908969
427.0,128.9497342820441,17.869992248725936,0.2763934566946242
428.0,130.3159606322102,18.717478236006396,0.2755642763245403
429.0,39.33064912415449,19.400027638810567,0.27473758349556665
430.0,106.3342110783933,20.164104113959038,0.27391337074507993
431.0,119.03636545416605,20.99287020989575,0.2730916306328447
432.0,44.918307868883716,21.508920645560394,0.27227235574094616
433.0,145.5691843729986,23.053670704584547,0.2714555386737233
434.0,137.09540906388938,24.51104238880034,0.2706411720577021
435.0,23.764188108856672,25.599066752393032,0.269829248541529
436.0,2.5556409787415504,25.541988862622656,0.2690197607959044
437.0,146.2147232287474,27.45783023811651,0.26821270151351667
438.0,188.85599978457168,29.133148194920874,0.2674080634089761
439.0,148.99335195724652,30.81428707761012,0.2666058392187492
440.0,120.39079697758157,31.93401561010327,0.26580602170109296
441.0,120.84456741488123,32.84045280839704,0.26500860363598966
442.0,-2.7725382160434293,32.887721090172015,0.2642135778250817
443.0,157.92228915618213,34.629034249971966,0.26342093709160647
444.0,-7.355034324643441,34.05742235375575,0.26263067428033166
445.0,267.06700251188795,36.83937248007613,0.26184278225749064
446.0,-29.89414704695244,36.180601304924814,0.26105725391071816
447.0,264.7313907444326,38.42870794886722,0.260274082148986
448.0,49.18328951225858,39.21502361706749,0.2594932599025391
449.0,-24.366884368610116,38.96471943321106,0.25871478012283144
450.0,-7.866725052446526,39.382491250840665,0.25793863578246295
451.0,-26.259900335421662,39.09892272191382,0.2571648198751156
452.0,123.91344661197297,40.47289324684842,0.25639332541549026
453.0,2.626804517815984,40.26086217785689,0.2556241454392438
454.0,188.03644951008806,42.352486641932536,0.25485727300292604
455.0,-25.574014061855166,41.63140560115487,0.25409270118391725
456.0,128.170783395768,42.60042616092654,0.2533304230803655
457.0,54.95685296998677,42.91924285559587,0.25257043181112443
458.0,275.2866225420002,46.24273517689612,0.25181272051569104
459.0,118.79245028225051,47.01280288676435,0.251057282354144
460.0,18.44303426502576,46.712888007025676,0.25030411050708157
461.0,36.74793526329333,46.669979507038725,0.24955319817556032
462.0,44.311692606135296,46.82072760359545,0.24880453858103363
463.0,4.031049652015241,46.92840483849789,0.24805812496529053
464.0,126.93438731744929,48.203887661762984,0.24731395059039465
465.0,-4.066089177171065,48.07532560011373,0.24657200873862348
466.0,-1.6614336616347458,47.8540835482772,0.2458322927124076
467.0,158.7269572477871,49.99024953188229,0.24509479583427038
468.0,3.3764307654307686,49.100236933265876,0.24435951144676757
469.0,-1.2456012690584686,49.0695749244654,0.24362643291242728
470.0,26.119385861690844,50.10002152330896,0.24289555361369
471.0,50.598780773955156,50.460238281785294,0.24216686695284892
472.0,-46.66703903203488,50.41839484055205,0.24144036635199037
473.0,179.67401447931644,52.196412676559845,0.24071604525293439
474.0,119.78745807458951,53.08341720689393,0.2399938971171756
475.0,144.07654828807463,54.69439197047031,0.23927391542582405
476.0,128.30753456112265,55.07865411124685,0.23855609367954658
477.0,226.9824269602479,57.08981561838681,0.23784042539850794
478.0,116.78408404014971,58.00527805536483,0.2371269041223124
479.0,-8.969580721330885,57.69006129811454,0.23641552340994548
480.0,131.33411176887594,59.0537278712475,0.23570627683971565
481.0,29.15256053627826,59.18857642747268,0.2349991580091965
482.0,12.604207911318554,58.51078592976105,0.2342941605351689
483.0,282.7090342891707,60.94068747886964,0.23359127805356342
484.0,71.31655240342172,61.65100200597069,0.23289050421940272
485.0,137.58058083275145,63.41950664587188,0.2321918327067445
486.0,111.67903534194915,64.30451349442596,0.23149525720862427
487.0,1.5373671700021418,63.89146016772772,0.2308007714369984
488.0,26.42232782405749,63.20541083705365,0.2301083691226874
489.0,128.14141520581987,63.93601306944604,0.22941804401531934
490.0,27.47500655874859,63.93823320878086,0.2287297898832734
491.0,83.3702870770113,64.0584003798109,0.22804360051362357
492.0,-290.79538520150084,60.84492614381772,0.2273594697120827
493.0,238.17228745010826,62.736176968130515,0.22667739130294645
494.0,246.46039017266543,65.2650541934747,0.22599735912903762
495.0,249.6211965112535,68.21436299870263,0.2253193670516505
496.0,142.07901911853446,69.57099828603424,0.22464340895049556
497.0,259.04712420766094,71.87180128184158,0.22396947872364406
498.0,29.767725477051528,72.68922035113448,0.22329757028747313
499.0,243.8554544329435,75.21434249986616,0.2226276775766107
500.0,250.97997734188547,76.69604196653268,0.22195979454388087
501.0,29.88114739793729,77.18239882670619,0.22129391516024924
502.0,156.76838275245797,78.86019193398847,0.2206300334147685
503.0,121.07633840243098,80.8749873929109,0.2199681433145242
504.0,259.31914688220206,83.31200870680024,0.21930823888458062
505.0,83.35674772157682,83.97803139649099,0.21865031416792688
506.0,119.0432540728282,84.09442772917919,0.2179943632254231
507.0,5.4196943696121735,83.2416841674175,0.21734038013574683
508.0,210.94543532382482,84.06614757271355,0.21668835899533959
509.0,263.99099146922543,85.29535014042217,0.21603829391835358
510.0,263.48616609383987,86.58766861736135,0.21539017903659852
511.0,257.6526779702044,89.03472158029312,0.21474400849948871
512.0,241.17002849026522,91.4249497361464,0.21409977647399026
513.0,135.96358671674295,92.97541884280736,0.21345747714456828
514.0,151.65086045596047,94.34401782787403,0.21281710471313459
515.0,95.35949190140734,95.12713665853715,0.2121786533989952
516.0,150.70664061935247,96.86781095685947,0.2115421174387982
517.0,-17.425163576251478,95.57286379362309,0.2109074910864818
518.0,194.76858421804138,96.06837593323571,0.21027476861322236
519.0,276.245903447275,98.69455537886341,0.2096439443073827
520.0,173.69618657984546,100.60450391461097,0.20901501247446055
521.0,-25.48277531570217,100.30334717513576,0.20838796743703716
522.0,130.60022375639204,102.72783883454692,0.20776280353472606
523.0,113.44654130867117,103.32944950129173,0.20713951512412188
524.0,-33.59626320942827,103.41304087923201,0.2065180965787495
525.0,127.40021603773987,103.30105315723087,0.20589854228901325
526.0,229.16620704488898,105.59179732332439,0.20528084666214622
527.0,236.95340134478224,106.67183399395176,0.20466500412215977
528.0,263.26689299331537,108.00134331756284,0.2040510091097933
529.0,-22.102222433360993,107.38701460198767,0.2034388560824639
530.0,-29.536111707834493,106.02831137412541,0.2028285395142165
531.0,2.0353442916088795,104.85830116249983,0.20222005389567385
532.0,28.448606903236538,104.69360415284336,0.20161339373398682
533.0,131.46248423086195,104.552537151422,0.20100855355278485
534.0,134.41591653630738,104.52574222614618,0.20040552789212648
535.0,113.16575371005985,105.41975788215821,0.1998043113084501
536.0,23.81878705278298,105.6323893428986,0.19920489837452476
537.0,19.07034491794792,104.36094555979062,0.1986072836794012
538.0,43.95439745191359,102.91192953646403,0.198011461828363
539.0,142.64751939825544,102.84847121087412,0.1974174274428779
540.0,20.74111150532906,101.85197435615157,0.19682517516054926
541.0,-12.305987165857019,100.52046881034421,0.19623469963506762
542.0,139.61963776177095,101.94439057012237,0.1956459955361624
543.0,-14.286025325459178,100.22230742530593,0.1950590575495539
544.0,103.19607665672164,101.32781853511959,0.19447388037690524
545.0,109.41254358500011,99.75127394585071,0.19389045873577454
546.0,9.795432622780808,100.14816974254805,0.19330878735956722
547.0,-7.611281411608132,97.42474302098762,0.1927288609974885
548.0,117.94755101533627,98.11238563601843,0.19215067441449604
549.0,122.43837226588641,99.58043820236338,0.19157422239125255
550.0,106.48316774064969,100.72393713029435,0.1909994997240788
551.0,253.31864376875544,103.5197225713361,0.19042650122490654
552.0,141.82371945296063,103.69882529974596,0.18985522172123181
553.0,154.50979126744483,105.21765516724227,0.18928565605606812
554.0,146.34359129896427,104.80072658513103,0.1887177990878999
555.0,240.06631685351113,107.4571298942847,0.1881516456906362
556.0,142.46049066725553,107.60002696699956,0.18758719075356428
557.0,243.06204199211393,109.48107885722088,0.18702442918130358
558.0,-2.8706651147261937,106.69950598065357,0.18646335589375967
559.0,23.63697126394517,105.74795119047054,0.1859039658260784
560.0,-0.5435186310540274,105.55808566150972,0.18534625392860016
561.0,16.53409566719378,105.35594726554874,0.18479021516681435
562.0,-21.401733022204112,104.69881300926532,0.1842358445213139
563.0,22.77875549872398,104.88629006773245,0.18368313698774996
564.0,-14.815972198730819,103.46878647257063,0.1831320875767867
565.0,-34.464567008803044,103.16480169425431,0.18258269131405633
566.0,-12.591980577722055,103.05549622509346,0.18203494324011416
567.0,10.370670293787896,101.57193335555344,0.18148883841039382
568.0,-48.35778924508331,101.0545911554483,0.18094437189516263
569.0,3.8413700252433216,101.10546086839133,0.18040153877947715
570.0,-4.131668626963972,100.80295032350479,0.1798603341631387
571.0,-15.372066037267643,100.14324185539255,0.1793207531606493
572.0,-41.975325229847684,100.19015899341443,0.17878279090116736
573.0,23.813570474140136,98.63155455336266,0.17824644252846386
574.0,11.785083320110218,97.55153080581788,0.17771170320087848
575.0,123.97826032918235,97.35054792622896,0.17717856809127586
576.0,18.61499549969743,96.25362253561468,0.17664703238700202
577.0,-6.9836177797369885,93.91396208821484,0.17611709128984102
578.0,44.62084651536554,93.19232971296701,0.1755887400159715
579.0,-233.15406762266886,90.95048484395362,0.1750619737959236
580.0,252.91251550319632,92.16626888129682,0.1745367878745358
581.0,280.9987648652952,94.68473092458699,0.1740131775109122
582.0,12.547426016605755,94.68416310563987,0.17349113797837945
583.0,-3.17876429906903,91.82528511975747,0.17297066456444432
584.0,82.49031997619593,91.9370227954852,0.172451752570751
585.0,225.95896193875694,92.82080660654526,0.17193439731303872
586.0,-8.5063687555119,91.61895256557067,0.1714185941210996
587.0,6.227007481166282,91.6658489686823,0.1709043383387363
588.0,213.21768210609332,93.53380251150266,0.1703916253237201
589.0,-1.2789311070374652,92.23959904837409,0.16988045044774894
590.0,17.06495911485237,92.13549857393511,0.1693708090964057
591.0,33.446560939744046,91.63626131256245,0.1688626966691165
592.0,114.6016321126191,95.69023148570366,0.16835610857910915
593.0,99.10842728011787,94.29959288400376,0.16785104025337183
594.0,6.592968134370892,91.90091866362081,0.16734748713261172
595.0,219.8701527740115,91.60340822624839,0.16684544467121387
596.0,269.7427241752661,92.88004527681572,0.16634490833720023
597.0,-0.08364660766042675,90.28873756866251,0.16584587361218864
598.0,3.4954239799606626,90.0260145536916,0.16534833599135207
599.0,57.06681328660082,88.15812814222816,0.164852290983378
600.0,22.537311763141417,85.87370148644071,0.16435773411042787
601.0,266.2677269674259,88.23756728213559,0.1638646609080966
602.0,46.78409948671734,87.13772444947817,0.1633730669253723
603.0,18.199636575352088,86.10895743120739,0.16288294772459616
604.0,19.13757193055639,83.70714168169094,0.16239429888142237
605.0,12.18259342277753,82.99540013870295,0.1619071159847781
606.0,-16.614072988334442,81.63882686809131,0.16142139463682378
607.0,4.375159297121058,81.6283815173664,0.1609371304529133
608.0,18.822933988077438,79.70715650400895,0.16045431906155455
609.0,13.5496432678422,77.2027430219951,0.15997295610436987
610.0,2.2592673729031674,74.59047403478574,0.15949303723605676
611.0,31.448827469137854,72.32843552977506,0.1590145581243486
612.0,-2.4885412028724545,69.89184983284368,0.15853751444997555
613.0,44.57806291883372,68.9779945948646,0.1580619019066256
614.0,16.456460879519412,67.62605059910018,0.15758771620090573
615.0,10.010366340601124,66.77255934349212,0.157114953052303
616.0,11.939751358215474,65.38489045088075,0.1566436081931461
617.0,267.08736891955687,68.23001577583882,0.15617367736856666
618.0,309.3118036748075,69.3754479704065,0.15570515633646095
619.0,32.24935886242935,66.93548252455804,0.15523804086745158
620.0,29.608056494387966,65.49460122370347,0.15477232674484923
621.0,203.85258658183295,67.78795484267881,0.15430800976461467
622.0,12.708103080849781,66.6090336359234,0.15384508573532082
623.0,27.734047829856365,65.75190870113525,0.15338355047811486
624.0,24.544304351251697,66.33331437674205,0.15292339982668052
625.0,22.984523292765033,65.2891574492923,0.15246462962720048
626.0,249.89382836613058,65.49643366250473,0.15200723573831887
627.0,29.86427964296368,63.425542445486535,0.15155121403110391
628.0,55.153837575092666,61.3444118913043,0.1510965603890106
629.0,233.77199965491423,63.90315411218707,0.15064327070784356
630.0,4.9146888973168785,64.24766211823858,0.15019134089572003
631.0,47.57919850122909,64.70310066033478,0.14974076687303287
632.0,239.5252005165645,66.81386659646805,0.14929154457241375
633.0,22.839491469085118,65.7276366688503,0.14884366993869652
634.0,255.05548877971486,66.93403239128438,0.14839713892888043
635.0,14.146183244502367,65.9438366866288,0.14795194751209378
636.0,255.08580210457208,68.25650683714667,0.1475080916695575
637.0,25.95297341114879,68.32533312207869,0.14706556739454882
638.0,247.11440034847513,70.3569331510443,0.14662437069236517
639.0,-17.870107498924554,68.75175688207248,0.14618449758028806
640.0,160.32515768822276,70.14759734390144,0.1457459440875472
641.0,48.83232682074075,70.7589804837674,0.14530870625528455
642.0,90.59467093650812,70.26873081551479,0.1448727801365187
643.0,24.586822829634016,70.65745929706571,0.14443816179610913
644.0,143.65646729415266,71.06206320344003,0.1440048473107208
645.0,255.33471590162011,72.52128492660623,0.14357283276878863
646.0,21.66806078341962,72.64001120821261,0.14314211427048226
647.0,47.78104045756346,73.19393442690433,0.1427126879276708
648.0,251.11911076618065,74.52565002441278,0.1422845498638878
649.0,207.11875564316762,75.3724538581856,0.14185769621429614
650.0,106.13301148285538,75.36895229560766,0.14143212312565326
651.0,266.3985896517036,75.49975175443713,0.1410078267562763
652.0,-9.878068259565154,73.98273387731187,0.14058480327600748
653.0,28.79026605538374,72.72553862519125,0.14016304886617945
654.0,0.2737331265291374,71.26484004346689,0.1397425597195809
655.0,224.38517759560426,71.10802865088783,0.13932333204042216
656.0,222.02015081228055,71.90362525233809,0.1389053620443009
657.0,261.98273544690034,72.09283218688596,0.138488645958168
658.0,24.694526448405995,72.36848410251727,0.1380731800202935
659.0,-8.415691101330154,72.04795747886452,0.13765896048023263
660.0,61.82953322191747,72.67168799739424,0.13724598359879192
661.0,306.39994382098655,75.57034647893217,0.13683424564799554
662.0,229.81497984446835,78.08251360759888,0.13642374291105155
663.0,7.192044072221364,77.92664649333386,0.1360144716823184
664.0,21.845720495708164,78.29326342027827,0.13560642826727143
665.0,274.147655040283,81.37938564076913,0.1351996089824696
666.0,202.4201643755839,83.52950709030218,0.1347940101555222
667.0,3.6976826580276025,83.46277721394458,0.13438962812505564
668.0,6.8435911180886535,84.0147910175763,0.13398645924068048
669.0,2.132992926213575,83.99770724658602,0.13358449986295842
670.0,255.38419647202988,86.59286589757593,0.13318374636336955
671.0,-5.605231554658388,86.69053424240205,0.13278419512427944
672.0,42.353165179200914,87.53381914649249,0.1323858425389066
673.0,-12.852640925727684,87.16715703249382,0.13198868501128988
674.0,-12.736588715480494,86.92194031213789,0.13159271895625602
675.0,33.59043375674244,86.01806204641352,0.13119794079938724
676.0,241.05468089830808,88.24245890039961,0.13080434697698906
677.0,16.568680936351328,88.47798188756049,0.1304119339360581
678.0,37.94321646467759,88.41120558705362,0.13002069813424993
679.0,22.53015035316578,90.96804776681196,0.12963063603984717
680.0,-161.0155613996249,86.82876699778377,0.12924174413172762
681.0,217.0487299340061,86.18926664847086,0.12885401889933243
682.0,3.4591427693723062,86.09838381599855,0.12846745684263444
683.0,247.0261987536543,88.60043344652577,0.12808205447210655
684.0,50.214304804616916,88.27767329480997,0.12769780830869024
685.0,283.26771000853716,88.85076077550777,0.12731471488376417
686.0,25.61238424958971,89.1919483055588,0.12693277073911288
687.0,19.241358966958146,89.3220918204167,0.12655197242689553
688.0,277.35909047679615,89.96350590412374,0.12617231650961486
689.0,62.30021312623404,90.59929734645647,0.12579379956008602
690.0,30.670673407361306,90.73535448938156,0.12541641816140575
691.0,24.404140048224903,90.64493028046638,0.12504016890692154
692.0,-131.24781184325096,88.18643584090768,0.12466504840020078
693.0,-178.764002634887,85.40771154175762,0.12429105325500017
694.0,282.72150246302624,88.16899688504417,0.12391818009523517
695.0,10.871208755873155,86.07900744486274,0.12354642555494946
696.0,251.59433129166163,85.89752351602674,0.12317578627828461
697.0,19.180564142501154,86.09016562352835,0.12280625891944975
698.0,273.00066741158065,88.78521805784456,0.1224378401426914
699.0,311.39817816805527,91.32853170665912,0.12207052662226334
700.0,258.0819465487703,93.6839780545154,0.12170431504239655
701.0,-9.136804726628455,90.92993273757487,0.12133920209726937
702.0,21.51332077537758,90.67722495046148,0.12097518449097756
703.0,186.3734152198257,92.35896273690618,0.12061225893750463
704.0,7.707975031648431,92.2446667679171,0.12025042216069212
705.0,275.0421558705933,94.87326239239523,0.11988967089421004
706.0,-7.29765217449048,94.96642660053368,0.11953000188152742
707.0,270.9957518861517,97.632632526424,0.11917141187588283
708.0,281.4681181619586,100.2590843681628,0.11881389764025518
709.0,9.380103320072948,100.21738896868511,0.11845745594733442
710.0,19.067456738239017,100.38547086233848,0.11810208357949242
711.0,24.25928594395961,100.31357544708669,0.11774777732875394
712.0,40.05167069767387,100.73897756609217,0.11739453399676768
713.0,248.73916227714378,102.78058855967527,0.11704235039477738
714.0,250.0390629191052,105.11641458007112,0.11669122334359305
715.0,248.08045517724966,107.4971154684376,0.11634114967356228
716.0,264.72166870824924,110.02493464193795,0.1159921262245416
717.0,5.987225836293163,107.41393321110532,0.11564414984586797
718.0,29.331784335572166,104.61413301771296,0.11529721739633036
719.0,278.64332985973874,107.07807272768606,0.11495132574414137
720.0,-1.6407496399422143,106.76558466634275,0.11460647176690894
721.0,271.2001913535084,107.43906071405951,0.11426265235160821
722.0,227.53343162907012,109.58731399954169,0.11391986439455339
723.0,-3.757942663166375,109.27239409461149,0.11357810480136972
724.0,18.43090037560023,109.21126005485498,0.11323737048696561
725.0,-175.23121054038864,107.22910271652344,0.11289765837550471
726.0,278.3501576138075,107.5136660090002,0.1125589654003782
727.0,40.32471324391227,107.61827034500969,0.11222128850417706
728.0,289.8998447153474,109.96573041641224,0.11188462463866453
729.0,30.098409640102886,107.92899451626413,0.11154897076474853
730.0,287.3391902730102,110.75323953002108,0.11121432385245428
731.0,73.53205660449223,111.0127681110537,0.11088068088089692
732.0,38.484232224514045,109.00235842813319,0.11054803883825423
733.0,50.52614889039705,109.27922500234632,0.11021639472173947
734.0,-16.793668566987137,106.5607334288793,0.10988574553757426
735.0,289.73383427779834,109.31660993921227,0.10955608830096153
736.0,279.0884190866711,109.55663610903322,0.10922742003605865
737.0,7.294199335184743,109.3700483682736,0.10889973777595047
738.0,-143.2116214110588,105.46678815067824,0.10857303856262261
739.0,31.783947091393088,105.96332869658143,0.10824731944693475
740.0,278.1694455513277,107.14177157521247,0.10792257748859395
741.0,30.458104461463535,106.95802935161971,0.10759880975612816
742.0,20.319874432833473,106.25528138658295,0.10727601332685978
743.0,-153.22772287191526,104.47713592956747,0.1069541852868792
744.0,142.82441333975692,104.46881539002351,0.10663332273101855
745.0,22.559400879790417,102.14106223980518,0.1063134227628255
746.0,257.5910440574089,104.5002920725451,0.10599448249453702
747.0,31.5270942266784,104.33775261023625,0.10567649904705341
748.0,-8.161979879546777,101.74494170377895,0.10535946954991225
749.0,29.350886603723353,99.9672630133845,0.10504339114126252
750.0,13.280405995677327,99.03873695851274,0.10472826096783873
751.0,190.27764129922775,98.277527474988,0.10441407618493521
752.0,-16.7752447066149,98.2085557105175,0.10410083395638041
753.0,20.291690699442086,98.12356995695808,0.10378853145451127
754.0,184.9209283755313,99.9700419094481,0.10347716586014773
755.0,-24.762421737087692,97.47856591612117,0.10316673436256728
756.0,278.0384498850502,98.03874890684887,0.10285723415947957
757.0,52.51266721092509,95.94404822448912,0.10254866245700113
758.0,32.525485541106434,96.02235781541613,0.10224101646963013
759.0,43.223144718913346,96.53874617361856,0.10193429342022124
760.0,266.7509209019112,98.58796005041852,0.10162849053996058
761.0,9.928694529114836,95.62324755749978,0.10132360506834069
762.0,254.77778365931607,95.87287559564828,0.10101963425313566
763.0,24.182292118201133,96.04277807610806,0.10071657535037626
764.0,299.72829296993507,98.82160380085035,0.10041442562432513
765.0,286.3025666288905,98.9431529167364,0.10011318234745216
766.0,40.43801665252221,97.32333143950581,0.0998128428004098
767.0,296.81814134904363,100.25453602641595,0.09951340427200858
768.0,259.28036149892034,102.77890373022427,0.09921486405919255
769.0,269.2722956454829,105.45029675741698,0.09891721946701497
770.0,24.902619487493112,103.1454809875716,0.09862046780861393
771.0,244.98182861924477,105.65135158931062,0.09832460640518809
772.0,255.2707271049073,107.78052720856769,0.09802963258597253
773.0,211.5358053087412,110.02441167091237,0.0977355436882146
774.0,255.37734040684416,112.70555096213562,0.09744233705714996
775.0,304.57126570996,115.41535928166779,0.09715001004597851
776.0,274.42905770197876,115.7491030497045,0.09685856001584058
777.0,257.08791466971445,118.15429538703813,0.09656798433579306
778.0,253.8065036777079,120.31292825916844,0.09627828038278567
779.0,231.73134915662973,122.40494024720307,0.09598944554163731
780.0,-5.933269910782755,123.9557631620915,0.0957014772050124
781.0,15.254954937390877,121.93782541212533,0.09541437277339737
782.0,300.183626862365,124.90507025305526,0.09512812965507718
783.0,263.17500403186193,125.06655830583733,0.09484274526611194
784.0,33.17827226454534,124.89619798043663,0.09455821703031361
785.0,35.35284244987838,122.41704930485007,0.09427454237922267
786.0,169.27235841832405,123.8536490465374,0.09399171875208501
787.0,256.1015941390475,126.22225139825828,0.09370974359582875
788.0,46.94157634359635,123.91807625692628,0.09342861436504125
789.0,19.965718880835908,123.49473131447229,0.09314832852194613
790.0,4.045620734926871,123.22848078774796,0.09286888353638029
791.0,-187.4690368648071,121.10974901861766,0.09259027688577115
792.0,253.94907431257894,124.96171788017593,0.09231250605511383
793.0,259.3115709719841,129.34247361624466,0.0920355685369485
794.0,43.31518558227893,126.94841044743718,0.09175946183133765
795.0,287.26435100869816,129.71234186996543,0.09148418344584364
796.0,224.84127011195466,129.44481125816836,0.0912097308955061
797.0,242.23458374405962,131.67535145418393,0.09093610170281959
798.0,18.446319941337606,129.12980797948148,0.09066329339771112
799.0,18.576107874282116,126.20158727654378,0.09039130351751799
800.0,262.46010289998077,126.24536884005585,0.09012012960696544
801.0,257.83609262952984,128.91509781361745,0.08984976921814454
802.0,147.28517099233196,130.172816315787,0.0895802199104901
803.0,36.83068841301758,128.67738904771895,0.08931147925075864
804.0,64.46213477171162,129.24493064511955,0.08904354481300636
805.0,142.7636845352833,127.92214593176645,0.08877641417856734
806.0,268.8808340240611,130.68393079375198,0.08851008493603164
807.0,22.60222881300143,128.19999556302045,0.08824455468122355
808.0,-123.13750411041553,124.15393934029672,0.08797982101717988
809.0,17.526979244231455,124.23540809953833,0.08771588155412834
810.0,267.66222601914603,126.72135579234738,0.08745273390946595
811.0,2.7755307878232713,126.50651824078605,0.08719037570773755
812.0,23.59507467988405,126.34195228060811,0.08692880458061433
813.0,24.648393586897654,124.10104459370567,0.08666801816687249
814.0,38.39656479730368,121.98461961248766,0.08640801411237187
815.0,270.2642778685406,122.20645783940057,0.08614879007003474
816.0,6.635256739448224,119.62559371971254,0.08589034369982464
817.0,249.06710998050187,122.05639256115462,0.08563267266872517
818.0,50.14459437355123,122.26452066153442,0.085375774650719
819.0,268.5427062369589,122.1635144253066,0.08511964732676684
820.0,277.8459581553443,124.95838150325947,0.08486428838478655
821.0,236.21639736653236,124.6085435633897,0.08460969551963218
822.0,284.08187742847093,125.17402802138373,0.08435586643307329
823.0,284.1547924096693,128.0531553721121,0.08410279883377407
824.0,297.6404584685853,130.84525095304195,0.08385049043727275
825.0,4.480018444534167,132.64236324289118,0.08359893896596093
826.0,286.16113713641676,132.72047303811726,0.08334814214906305
827.0,5.851662488033526,132.37574253055848,0.08309809772261587
828.0,25.793253696217377,129.73467662036717,0.08284880342944802
829.0,-254.31291156408537,126.89056340832529,0.08260025701915967
830.0,33.0372242915671,124.34754374851087,0.0823524562481022
831.0,253.84314906944456,126.15065467316037,0.08210539887935789
832.0,293.4989750993666,128.7008021019089,0.08185908268271981
833.0,0.5973494315036589,128.20151410731995,0.08161350543467165
834.0,-17.07325127182375,128.19871828027158,0.08136866491836764
835.0,244.3062610896639,127.74444254839025,0.08112455892361253
836.0,264.96652549400005,127.60322361246355,0.0808811852468417
837.0,150.86900389004006,129.03897165801212,0.08063854169110117
838.0,159.95882537741986,132.0706761258969,0.08039662606602786
839.0,246.6076382854307,134.2189130378373,0.08015543618782978
840.0,273.4007095462234,134.17122567778625,0.07991496987926629
841.0,27.98482285318248,134.14649286170342,0.07967522496962849
842.0,276.95591763163463,136.7128532936914,0.07943619929471961
843.0,68.57809331035668,138.93091145551415,0.07919789069683544
844.0,260.01010999596434,140.10276842207622,0.07896029702474494
845.0,26.0794219267719,140.13796863254603,0.0787234161336707
846.0,177.55310577377705,139.3375892497097,0.07848724588526969
847.0,289.9289771482106,141.92160807892506,0.07825178414761388
848.0,248.96734588985467,144.49290133661904,0.07801702879517104
849.0,242.90532591032775,146.6284457296851,0.07778297770878553
850.0,290.6344028529463,149.4019856982578,0.07754962877565917
851.0,14.170708323453454,147.64091636850003,0.0773169798893322
852.0,278.8199700670608,150.5968685162368,0.07708502894966421
853.0,-554.0030767915844,144.85392084132653,0.07685377386281522
854.0,265.649095487425,145.66120251244547,0.07662321254122678
855.0,278.0062280968336,148.6888890107847,0.0763933429036031
856.0,180.60247598559573,147.71452927179016,0.07616416287489229
857.0,303.7948769661224,150.2273513693421,0.07593567038626761
858.0,13.288517626799248,150.03498169019906,0.0757078633751088
859.0,227.63651056723467,151.87911534868223,0.07548073978498347
860.0,245.42051421456316,151.66581128180877,0.07525429756562853
861.0,263.91746538850396,154.20569899040268,0.07502853467293165
862.0,274.3845646981883,154.4017668007914,0.07480344906891286
863.0,239.18707916147852,156.55181467122418,0.07457903872170611
864.0,276.5979561984309,156.3205113035091,0.07435530160554099
865.0,-186.52609916383017,151.59222464558192,0.07413223570072437
866.0,281.10370511517146,153.99888153020842,0.0739098389936222
867.0,34.01185002059344,151.37081861692394,0.07368810947664134
868.0,277.3886186038887,151.55190118797358,0.07346704514821141
869.0,-4.49904631186847,148.81418776840007,0.07324664401276677
870.0,258.10169134512205,151.14617848697637,0.07302690408072847
871.0,246.97490885065645,151.16610928929052,0.07280782336848628
872.0,24.201058382715075,148.85541260206858,0.07258939989838081
873.0,29.41462678847975,147.03420081686596,0.07237163169868567
874.0,7.745438318175573,144.55788179597926,0.07215451680358961
875.0,299.7457027168036,144.50962616604772,0.07193805325317884
876.0,263.89779000161093,144.40431348904403,0.07172223909341931
877.0,248.11418328832636,144.31457617523014,0.07150707237613906
878.0,278.6540236124872,144.56305137457792,0.07129255115901063
879.0,-164.317961593265,140.60255826707896,0.0710786735055336
880.0,270.0974411305234,143.36286537749203,0.07086543748501699
881.0,-8.184908679521143,143.1284667413229,0.07065284117256193
882.0,256.83137253806274,142.6949441980799,0.07044088264904425
883.0,279.67549667850597,142.85994912454638,0.07022956000109712
884.0,260.0363962324984,145.1285303642259,0.07001887132109383
885.0,-2.5549120085482,144.74945281964162,0.06980881470713055
886.0,279.8842821058495,145.85557205651688,0.06959938826300915
887.0,4.798785564930228,143.3425439707757,0.06939059009822013
888.0,267.1189851469985,145.54431805880972,0.06918241832792547
889.0,260.6867362258071,147.95152823225945,0.0689748710729417
890.0,8.149486778926047,147.99256689269941,0.06876794645972288
891.0,299.96401921601375,152.86689745350762,0.06856164262034371
892.0,241.6833764294604,152.74424047467645,0.06835595769248268
893.0,252.31916704082724,152.67431643536486,0.06815088981940523
894.0,272.59959865949065,154.96716056613698,0.06794643714994701
895.0,187.18169090286443,153.96633396507863,0.06774259783849718
896.0,56.85989281105597,152.28652019206967,0.06753937004498169
897.0,57.773063413406305,150.4419049887631,0.06733675193484674
898.0,224.8981884305507,152.50642367365526,0.0671347416790422
899.0,166.22899003123607,153.9829524952248,0.06693333745400507
900.0,205.40413941724478,153.41239286039746,0.06673253744164305
901.0,278.14498878605576,153.6154818219627,0.06653233982931812
902.0,251.3865187257505,154.6564952992969,0.06633274280983018
903.0,239.82425096105268,156.68643092477726,0.06613374458140069
904.0,71.15221338952831,156.75333171095542,0.06593534334765648
905.0,40.56394365665511,155.73133430216913,0.06573753731761352
906.0,237.19130729415173,155.41443903487001,0.06554032470566068
907.0,277.1251522006945,157.95966826874698,0.0653437037315437
908.0,254.47032614491158,161.7357465713002,0.06514767262034907
909.0,-26.288709054064,161.2975896883173,0.06495222960248802
910.0,271.2473052508453,161.33344048063427,0.06475737291368056
911.0,271.82228402937994,164.02390801304983,0.06456310079493952
912.0,-8.479575329833054,163.70316151295268,0.06436941149255469
913.0,-5.008242113807242,163.40659515594564,0.06417630325807702
914.0,246.72607803282557,165.48989028830084,0.0639837743483028
915.0,246.75953525676067,165.25484286218304,0.06379182302525789
916.0,259.602425252575,167.78451454731433,0.06360044755618212
917.0,275.14066315273396,168.04525007903663,0.06340964621351357
918.0,46.16866091578302,168.005490744459,0.06321941727487303
919.0,249.79377212976596,167.81800140338703,0.0630297590230484
920.0,243.2336002005424,167.47187782383898,0.06284066974597925
921.0,275.7071550174803,167.86678540034845,0.06265214773674131
922.0,251.40588962927436,167.54002552235647,0.06246419129353109
923.0,283.15679560991236,167.53004555435894,0.0622767987196505
924.0,274.2279870845568,167.29592084051862,0.06208996832349155
925.0,256.7994507167005,169.81911516324033,0.06190369841852107
926.0,268.2345818106778,169.63984960998292,0.06171798732326551
927.0,25.74367775517908,169.83876976265438,0.06153283336129571
928.0,258.20798392629735,172.16291706495522,0.061348234861211826
929.0,-130.52463750507349,173.40079980554532,0.06116419015662819
930.0,285.50138927515513,175.9254414553812,0.0609806975861583
931.0,290.1180703500056,176.28819066818684,0.06079775549339983
932.0,-49.1908263920613,172.86129265327259,0.06061536222691963
933.0,292.0194234535321,175.77551339349287,0.06043351614023887
934.0,54.251139851735104,176.48875730472844,0.060252215591818155
935.0,290.70462085550025,176.9527409023868,0.0600714589450427
936.0,279.76846819010314,177.10076032934782,0.05989124456820757
937.0,278.8353916906759,178.38042420735417,0.059711570834502944
938.0,195.17637416455062,178.73259969522545,0.05953243612199943
939.0,257.0890180766843,178.837413493138,0.05935383881363344
940.0,265.8439794694652,178.7618461923704,0.05917577729719254
941.0,255.43500630138718,181.03634802685247,0.05899824996530096
942.0,270.8045830867454,180.97483468140356,0.05882125521540506
943.0,280.2998339468423,183.09205208776842,0.05864479144975884
944.0,53.61489371293405,181.02809992493812,0.05846885707540957
945.0,1.6453134009353647,180.78375883967973,0.05829345050418334
946.0,276.7610843721129,181.77583862566306,0.05811857015267079
947.0,263.0899601762946,181.5074484559439,0.057944214442212774
948.0,229.87578311840218,181.31653282822936,0.05777038179888613
949.0,255.79714980742207,181.44545106720034,0.05759707065348948
950.0,108.74278264260502,179.62653486509691,0.05742427944152901
951.0,45.825299283668414,179.94308077469907,0.057252006603204425
952.0,23.22844254386247,177.38716549946713,0.05708025058339481
953.0,282.14462951374526,185.7486425625204,0.056909009831644625
954.0,280.39013394697207,185.89605294711586,0.05673828280214969
955.0,258.58253119720973,185.70181597811967,0.05656806795374324
956.0,290.5510361529193,186.8013015797929,0.056398363749882004
957.0,247.35238323592293,186.2368766424909,0.05622916865863236
958.0,303.80449273460056,189.14203639356893,0.056060481152656466
959.0,256.15607982995687,189.42723208619617,0.0558922997091985
960.0,-3.630688341719818,186.93672006063335,0.0557246228100709
961.0,246.0540712634985,186.75808611938322,0.055557448941640684
962.0,260.93530175740904,186.62359348997546,0.05539077659481576
963.0,251.0920196704767,186.74264289506544,0.05522460426503131
964.0,303.0083068306633,187.00674640138772,0.05505893045223622
965.0,258.9087948601658,191.46109534162773,0.054893753660879514
966.0,269.116754962883,191.34122584010484,0.054729072399896876
967.0,292.5448726622927,193.92655606652184,0.054564885182697184
968.0,281.03598277784386,193.96302970826142,0.05440119052714909
969.0,26.137685767965806,194.26939702905972,0.05423798695556764
970.0,280.0123151021668,194.48850326663015,0.05407527299470094
971.0,282.311070179749,194.84186487992108,0.053913047175716836
972.0,252.37197603189418,197.12357405641285,0.05375130803418968
973.0,209.50270147424703,198.92445480327052,0.05359005411008711
974.0,269.9094966215637,201.54609538630442,0.053429283947756846
975.0,243.4542489662915,200.98318084879932,0.053268996095913575
976.0,207.20999004974544,200.4163028492807,0.05310918910762583
977.0,274.643826108927,200.68159927748667,0.052949861540302956
978.0,25.108605461952777,198.14614509598132,0.052791011955682046
979.0,256.19006052616817,202.35122531717568,0.052632638919815
980.0,8.38279400627313,199.73407884593314,0.052474741003055554
981.0,306.0342719271221,202.87627065199956,0.052317316780046384
982.0,295.9743899182664,203.26770082580163,0.05216036482970624
983.0,33.90714364466379,200.81001729546318,0.052003883735217124
984.0,11.593259666949777,198.32558592980772,0.051847872084011475
985.0,291.2964813407723,201.26409986330088,0.05169232846775944
986.0,272.9523743402277,201.1947807856447,0.05153725148235616
987.0,286.0223552105924,204.00701648210128,0.051382639727909095
988.0,1.9537803712726145,201.35536443434404,0.051228491808725365
989.0,62.54656580145033,199.37396273010052,0.05107480633329919
990.0,-121.04961402814806,198.0819717220298,0.05092158191429929
991.0,243.04155651137964,197.5127470949834,0.05076881716855639
992.0,294.7146581375915,198.04305991206473,0.05061651071705072
993.0,248.60544069547603,198.00592264861123,0.05046466118489957
994.0,304.43532839924404,198.32427994600872,0.05031326720134487
995.0,270.5208727355533,199.15767176433565,0.05016232739974084
996.0,300.55021187178943,201.5945749549429,0.050011840417541614
997.0,245.6493710877578,203.47333803168647,0.04986180489628899
998.0,284.7051976675357,204.07140812405632,0.04971221948160012
999.0,4.359140545525165,202.45270962919923,0.04956308282315532
1000.0,278.28144533791124,203.18148268840588,0.049414393574685855
1001.0,263.02864609018803,203.03031926144723,0.049266150393961795
1002.0,303.2230314986574,203.54868438917632,0.04911835194277991
1003.0,213.4389869801696,203.28483174936747,0.04897099688695157
1004.0,37.5807041799022,202.9491166572712,0.04882408389629071
1005.0,121.49653468195369,203.7584425675242,0.04867761164460184
1006.0,264.2656937058353,204.02918643164102,0.04853157880966803
1007.0,280.9259241178254,204.06719415081233,0.048385984073239026
1008.0,299.7472957669131,204.5199638470323,0.048240826121019306
1009.0,35.06102226429698,205.13346116021592,0.04809610364265625
1010.0,278.21700135056346,205.20315812121314,0.04795181533172828
1011.0,33.61165608821139,202.82105184180145,0.047807959885733095
1012.0,254.7594547823094,205.45344214292288,0.0476645360060759
1013.0,112.1442609291261,206.6249671733522,0.04752154239805767
1014.0,300.09198064179657,207.1586261994419,0.047378977770863494
1015.0,49.66334736756946,205.18766432054997,0.047236840837550906
1016.0,259.73592731851795,205.18899934120938,0.04709513031503825
1017.0,-58.726063114513956,201.8503320785369,0.04695384492409314
1018.0,218.86482801526796,203.57729374953175,0.046812983389320856
1019.0,36.37978131083821,201.44315384134254,0.04667254443915289
1020.0,300.31777643434435,202.0139956036805,0.04653252680583543
1021.0,264.070655105401,201.8976306045598,0.04639292922541793
1022.0,277.53147698221534,202.15888647808916,0.04625375043774167
1023.0,271.2326997076144,202.03964551906623,0.046114989186428444
1024.0,280.5470573158781,202.1028362213794,0.045976644218869156
1025.0,22.186173253370356,199.75670344674612,0.04583871428621255
1026.0,10.797606974597443,197.18233369838526,0.04570119814335391
1027.0,27.94821487387189,197.20437906957216,0.04556409454892385
1028.0,268.4157077015004,197.3064563073242,0.04542740226527708
1029.0,198.76041685258699,200.59930685090083,0.045291120058481245
1030.0,266.5543151405045,200.4098361095543,0.0451552466983058
1031.0,266.9771480235339,200.1784268862896,0.04501978095821088
1032.0,40.92291245840261,201.07956427479422,0.04488472161533625
1033.0,8.03071550922516,198.23967719535113,0.04475006745049024
1034.0,266.85648833136133,200.36573068014744,0.04461581724813877
1035.0,254.10162158530346,199.99970068744554,0.04448196979639435
1036.0,242.0962286877451,199.62297829242195,0.044348523887005165
1037.0,251.12554957455066,199.34587987126065,0.04421547831534415
1038.0,252.40307854995265,199.91814691511468,0.04408283188039812
1039.0,272.267617923143,200.0699329135792,0.04395058338475692
1040.0,261.081646816695,200.02230958705152,0.04381873163460265
1041.0,261.94078709799356,200.08736739501762,0.04368727543969884
1042.0,-0.28619678668466975,197.37645959628333,0.04355621361337974
1043.0,263.331050470828,197.20677176152316,0.0434255449725396
1044.0,66.40508711103894,197.33467369550416,0.043295268337621984
1045.0,293.28571564394815,200.25107771793435,0.04316538253260912
1046.0,246.45982161004895,199.94806509031372,0.04303588638501129
1047.0,-6.722715746056352,197.2499383310902,0.04290677872585626
1048.0,248.12509434878632,197.43243144339408,0.042778058389678686
1049.0,-13.13097517908244,194.743150193529,0.04264972421450965
1050.0,299.5169074013428,196.6508914411164,0.042521775041866126
1051.0,240.5144794887058,198.59778324316673,0.04239420971674053
1052.0,254.41167918001364,200.90961560952826,0.04226702708759031
1053.0,310.7807930601898,201.1959772449927,0.04214022600632754
1054.0,267.91048871691305,201.0711807926921,0.042013805328308555
1055.0,276.2660688389426,201.24801616910943,0.04188776391232363
1056.0,267.280222350427,201.0153080310845,0.041762100620586655
1057.0,260.47958394383147,201.1465800381636,0.041636814318724895
1058.0,304.21906704388965,201.1507257812565,0.04151190387576872
1059.0,264.11822475109034,201.23034723046786,0.04138736816414141
1060.0,251.2071556673306,203.77872567055832,0.041263206059648984
1061.0,27.2135251382727,201.59032020930607,0.04113941644147004
1062.0,271.463059503654,201.69559778676853,0.04101599819214563
1063.0,288.5818717283979,202.07049630734772,0.040892950197569194
1064.0,258.8724307986922,201.629137547028,0.040770271346976486
1065.0,309.90450114864507,202.13909460991283,0.040647960532935554
1066.0,276.22404068058427,202.2101674670898,0.040526016651336746
1067.0,246.93149266690773,201.75403366713596,0.040404438601382736
1068.0,263.7297127192171,201.58097096654967,0.04028322528557859
1069.0,252.6100098537489,203.84569420740755,0.04016237560972185
1070.0,250.74232429881985,203.55299429937406,0.04004188848289268
1071.0,279.67925202930417,203.5266761178696,0.039921762817444
1072.0,292.9161196518287,203.93211755406898,0.03980199752899167
1073.0,247.50481206715426,204.31213865999803,0.039682591536404695
1074.0,263.5354144346553,204.248397838129,0.03956354376179548
1075.0,47.34645911330321,202.28731993959903,0.03944485313051009
1076.0,271.9162771381633,202.9343828104832,0.03932651857111856
1077.0,247.7837759163606,202.66578230855757,0.039208539015405205
1078.0,-185.02282679313186,200.56446798600675,0.03909091339835899
1079.0,30.066066731335212,198.3032280480584,0.03897364065816391
1080.0,268.28729709904894,200.90227307898618,0.03885671973618942
1081.0,37.29891583685617,198.21491951808355,0.038740149576980853
1082.0,256.642578763526,197.82160140653613,0.03862392912824991
1083.0,36.64786259448681,197.84900859603437,0.03850805734086516
1084.0,11.266791495161698,197.84574391431644,0.038392533168842564
1085.0,248.09012146266795,197.41368031553546,0.038277355569336036
1086.0,266.05465470138546,197.34470311914697,0.038162523502628026
1087.0,231.10607410912792,196.79554030813236,0.03804803593212014
1088.0,36.30836982920289,197.1390862027116,0.03793389182432378
1089.0,261.8423415148105,199.13204395984522,0.03782009014885081
1090.0,17.368299065866267,200.5162230907854,0.03770662987840426
1091.0,248.39184999051997,200.5697260255768,0.03759350998876904
1092.0,45.55925985588533,198.07817204275977,0.037480729458802736
1093.0,267.0243499319249,198.26236113512425,0.03736828727042633
1094.0,220.02199284624413,197.41822777959425,0.03725618240861505
1095.0,282.51302725321017,197.5381493247708,0.037144413861389204
1096.0,28.089883048258372,194.81354603653548,0.037032980619805034
1097.0,281.148695036761,195.16853927602554,0.03692188167794562
1098.0,36.873496207331755,192.69022226142351,0.03681111603291178
1099.0,278.3784876754459,195.43041573272274,0.036700682684813045
1100.0,262.64889952593455,195.27409027460294,0.03659058063675861
1101.0,-117.70040233314543,191.46679979036963,0.03648080889484833
1102.0,-124.11800936300054,187.19338938175304,0.03637136646816379
1103.0,257.039608876752,187.62939560071882,0.036262252368759296
1104.0,262.9272152279584,189.88286071119938,0.036153465611653016
1105.0,-55.19922866488778,188.115903077731,0.03604500521481806
1106.0,254.2032377760607,188.01527851843326,0.035936870199173604
1107.0,285.0295578962322,188.0563148562173,0.03582905958857608
1108.0,276.984092911855,187.8286828276667,0.03572157240981035
1109.0,47.13383078326049,187.94941091285637,0.035614407692580924
1110.0,260.83974868082305,187.77563838615896,0.03550756446950318
1111.0,-144.92408562292906,185.99028096904752,0.03540104177609467
1112.0,37.04655059992717,183.81315192722374,0.03529483865076639
1113.0,290.432146203691,185.5960307799694,0.035188954134814085
1114.0,50.95416362444354,183.1046526097958,0.035083387272409644
1115.0,263.84033423025755,185.24642247842272,0.03497813711059242
1116.0,0.6107464780435095,182.65517067001798,0.03487320269926064
1117.0,284.7513106135473,186.08994440729865,0.03476858309116286
1118.0,275.7792439048807,186.65908856619473,0.03466427734188937
1119.0,285.3308456980836,189.14859921006718,0.034560284509863703
1120.0,250.7200008790295,188.65262145451402,0.034456603656334114
1121.0,295.86138993425857,188.9705288028026,0.034353233845365115
1122.0,16.256723539469775,186.35778126837513,0.03425017414382902
1123.0,264.31156042422884,186.28856987554133,0.034147423621397534
1124.0,295.4107090894097,186.43720639327665,0.03404498135053334
1125.0,281.4531126144798,189.02987578688774,0.03394284640648174
1126.0,41.60278987428097,189.33792761588455,0.0338410178672623
1127.0,273.28045450328887,191.79125001217872,0.03373949481366051
1128.0,265.0694514718241,191.7577874498819,0.03363827632921953
1129.0,288.4787108957473,192.65497039031354,0.03353736150023187
1130.0,264.70239620518703,192.63645120096032,0.03343674941573117
1131.0,46.165802792429815,190.4283377486493,0.03333643916748398
1132.0,264.45078473280756,192.66361647139337,0.03323642984998153
1133.0,267.88991642835305,195.26220848058466,0.033136720560431585
1134.0,282.1989988094837,195.41563358536587,0.03303731039875029
1135.0,264.20196137909056,195.51663698330375,0.03293819846755404
1136.0,262.098871222712,195.7166634086534,0.03283938387215138
1137.0,282.5853446622359,196.03126135953025,0.032740865720534924
1138.0,294.0932221704188,196.44816279573496,0.03264264312337332
1139.0,244.29935730545154,196.16848018955798,0.0325447151940032
1140.0,58.94114922541664,194.14707521364525,0.032447081048421186
1141.0,294.85721821287694,194.47623952479404,0.032349739805275925
1142.0,272.55628055474875,197.2046642982084,0.0322526905858601
1143.0,255.46916961604575,197.12604548966058,0.032155932514102516
1144.0,289.4511914083623,199.35650653263383,0.03205946471656021
1145.0,54.29650969852315,196.9666144731796,0.03196328632241053
1146.0,260.56229043877676,197.10763916146686,0.0318673964634433
1147.0,266.69722775439624,199.84183859647143,0.03177179427405297
1148.0,286.2341064811226,200.2229287177948,0.031676478891230805
1149.0,279.7330232078114,203.1515687016637,0.03158144945455711
1150.0,274.75899906970443,202.90398961834734,0.03148670510619344
1151.0,28.172120164112272,200.7805660251014,0.03139224499087486
1152.0,283.4189974045174,201.07063920734643,0.031298068255902235
1153.0,270.3308987030928,200.66614026377547,0.03120417405113453
1154.0,287.3644540725288,200.86067991733162,0.031110561528981125
1155.0,270.40552159595705,200.80207444490176,0.03101722984439418
1156.0,266.7315478176853,200.79658769957433,0.030924178154860996
1157.0,273.53495938188644,200.92714145395487,0.030831405620396414
1158.0,2.277263126415818,197.90772341478012,0.030738911403535223
1159.0,277.1354068185511,198.03789523545476,0.03064669466932462
1160.0,277.30384778472535,198.29886215662867,0.030554754585316646
1161.0,304.63622478913226,201.0730891531373,0.030463090321560696
1162.0,293.5415655340784,201.2938742134415,0.030371701050596014
1163.0,44.56141292438406,198.85366962540138,0.030280585947444226
1164.0,275.7413080880241,199.0223583982947,0.030189744189601894
1165.0,313.69424349368785,199.06025582174513,0.030099174957033088
1166.0,313.6157142906253,199.43417255784556,0.030008877432161987
1167.0,52.3839772971408,197.4886974041479,0.0299188507998655
1168.0,41.579101604774706,195.26719129300346,0.029829094247465902
1169.0,293.0667369805551,195.6717585642715,0.029739606964723504
1170.0,288.86892119032194,196.05302453318652,0.029650388143829334
1171.0,46.93945996694646,193.72562661256296,0.029561436979397844
1172.0,277.9316993572892,193.57578240961757,0.02947275266845965
1173.0,10.804815982263776,191.2087824487687,0.029384334410454273
1174.0,269.59331188800496,191.26936142330217,0.02929618140722291
1175.0,286.36112996185466,193.65950813178767,0.02920829286300124
1176.0,256.50665782823353,193.50541193868838,0.029120667984412235
1177.0,-35.387654397445075,190.67369763555035,0.029033305980458998
1178.0,277.40364132071704,195.29796231668882,0.02894620606251762
1179.0,286.0039355009502,197.85734100438498,0.02885936744433007
1180.0,24.03808765399407,195.41484890993442,0.02877278934199708
1181.0,284.2253484978305,197.88411323654415,0.02868647097397109
1182.0,271.4218578807224,198.0319060277161,0.028600411561049175
1183.0,-46.81642087928064,197.19726319297843,0.028514610326366027
1184.0,245.37672541513865,199.5383625321782,0.02842906649538693
1185.0,264.3918364827999,199.70137968237952,0.02834377929590077
1186.0,300.76562320282596,200.04848936739393,0.028258747958013065
1187.0,255.81105754452605,200.29553920174789,0.028173971714139025
1188.0,271.67277104307925,202.64918321388666,0.028089449798996607
1189.0,254.29368066111178,202.57369660534965,0.02800518144959962
1190.0,259.44956421490247,204.99450925684,0.02792116590525082
1191.0,263.1107891140169,205.14169864807496,0.02783740240753507
1192.0,242.4205709474138,207.11031175899024,0.027753890200312464
1193.0,-56.059641034025276,203.87947184933077,0.027670628529711527
1194.0,279.9580106058402,204.47883202692677,0.027587616644122393
1195.0,-27.318802830657532,201.38051372608805,0.027504853794190025
1196.0,289.1085739369727,203.99070063497518,0.027422339232807454
1197.0,277.57665691527865,203.95498025376045,0.02734007221510903
1198.0,29.601326377067267,203.88225855545772,0.027258051998463702
1199.0,251.4668125696914,203.6131418044002,0.027176277842468313
1200.0,287.47387090282314,203.8613915181691,0.02709474900894091
1201.0,249.38611426287758,207.53225668412932,0.027013464761914085
1202.0,296.2099389311262,211.7355361670706,0.02693242436762834
1203.0,285.8480469994894,212.023620548298,0.026851627094525456
1204.0,272.30551766628696,212.11740357268124,0.02677107221324188
1205.0,266.5406066702764,215.33480192603292,0.026690758996602153
1206.0,256.9447487577082,215.3622170358494,0.026610686719612347
1207.0,67.47004951748386,213.1866219520619,0.02653085465945351
1208.0,261.95449735960585,213.0363259965394,0.02645126209547515
1209.0,255.72590266190315,215.12224671532582,0.026371908309188723
1210.0,164.41243102196265,214.1579735387372,0.026292792584261156
1211.0,279.788979999036,218.40510419495686,0.02621391420650837
1212.0,11.17047096576401,218.14634339861524,0.026135272463888845
1213.0,284.69391482776496,218.08896108485595,0.02605686664649718
1214.0,241.05710816983844,219.9899905303099,0.025978696046557687
1215.0,279.9705656174746,220.15129284418205,0.025900759958418014
1216.0,266.6450987090011,222.81163636649165,0.02582305767854276
1217.0,276.3432704935325,222.72755596529146,0.025745588505507132
1218.0,282.81742358989953,222.79793776214166,0.02566835173999061
1219.0,271.2302766819728,222.65693207198058,0.025591346684770637
1220.0,270.3608495221982,222.85334055841227,0.025514572644716325
1221.0,279.5413839295928,222.69014049836565,0.025438028926782177
1222.0,31.441981596244062,222.84199307893337,0.02536171484000183
1223.0,289.0559177630376,223.08943665232147,0.025285629695481822
1224.0,289.44397576392436,223.0297693190666,0.025209772806395376
1225.0,264.95237684102653,222.86476196133205,0.02513414348797619
1226.0,298.0636700432054,225.4293707630213,0.02505874105751226
1227.0,288.97525867373474,225.5863188047257,0.024983564834339726
1228.0,44.206742252103965,223.37769171252853,0.024908614139836707
1229.0,-2.236019137481634,220.4705444121962,0.024833888297417197
1230.0,60.121698815327846,218.42473743829763,0.024759386632524947
1231.0,265.56211148588335,220.61870052523219,0.024685108472627372
1232.0,277.13888513241096,220.74558152922825,0.02461105314720949
1233.0,278.71689157159165,220.85385128066068,0.02453721998776786
1234.0,278.3631811066575,220.81549310363243,0.024463608327804556
1235.0,296.39025137944265,221.13737600363592,0.02439021750282114
1236.0,286.4609826060837,221.38099711746966,0.024317046850312676
1237.0,90.57692093457351,219.46091288019304,0.02424409570976174
1238.0,279.3806562359039,219.31378722084784,0.024171363422632455
1239.0,281.89992092056116,219.68979285699893,0.024098849332364558
1240.0,274.14381356244917,221.84181950036927,0.024026552784367463
1241.0,275.1808531949115,221.6450558501896,0.02395447312601436
1242.0,251.14131531242163,221.43090619776635,0.023882609706636315
1243.0,275.3111107122895,221.6293256087288,0.023810961877516405
1244.0,275.80485808387715,221.49286227548393,0.023739528991883856
1245.0,263.990097019466,223.58979814869338,0.023668310404908206
1246.0,261.0897385999973,223.5950726303055,0.02359730547369348
1247.0,267.7109935817748,223.60521028857937,0.023526513557272397
1248.0,301.9350019038071,223.76221924280617,0.02345593401660058
1249.0,303.1152022057978,223.99604103278608,0.023385566214550776
1250.0,-9.402002460607662,221.15443101748298,0.023315409515907125
1251.0,292.89928501814546,223.80170266602326,0.023245463287359405
1252.0,36.71612144359017,221.334673906414,0.023175726897497327
1253.0,263.38786067816375,221.26524352616477,0.023106199716804835
1254.0,268.7783623667368,221.07938260910686,0.02303688111765442
1255.0,242.08525339478518,220.7961799270951,0.022967770474301458
1256.0,297.6693413298714,221.10555786221695,0.022898867162878554
1257.0,42.00449256413731,218.79025319403942,0.022830170561389918
1258.0,285.1929120470122,221.6194096832454,0.02276168004970575
1259.0,279.1923319033366,221.63997893409328,0.02269339500955663
1260.0,286.5818224024534,221.73275868027056,0.02262531482452796
1261.0,267.6064446834873,221.3624608792141,0.022557438880054376
1262.0,287.8519479162338,221.30556470303566,0.022489766563414212
1263.0,267.6352999672206,223.53630357346398,0.02242229726372397
1264.0,281.5077989817293,223.59396848240107,0.0223550303719328
1265.0,259.8328509089659,223.05535455655382,0.022287965280817
1266.0,-39.54302416468792,219.5237671720007,0.02222110138497455
1267.0,306.9748019046817,222.06967541807614,0.022154438080819624
1268.0,-33.09253325528711,221.32295906947556,0.022087974766577166
1269.0,277.5382594431952,221.1676742941019,0.022021710842277435
1270.0,80.11412947685443,219.0801263769672,0.0219556457097506
1271.0,244.35557161456805,221.0542874934434,0.02188977877262135
1272.0,283.0590675434504,221.105561175305,0.021824109436303488
1273.0,261.1826692661641,223.60933970814403,0.021758637107994576
1274.0,263.14176885583237,223.5448242778223,0.02169336119667059
1275.0,264.9371037046062,223.33058401524985,0.02162828111308058
1276.0,278.1532632286717,223.54705006925425,0.021563396269741335
1277.0,270.57271690648486,226.60665378229353,0.02149870608093211
1278.0,266.81859483277844,226.50080331741412,0.021434209962689316
1279.0,287.99003027041215,226.52066426510876,0.02136990733280125
1280.0,289.54859933094053,229.1757693818782,0.021305797610802844
1281.0,243.4070829050893,228.7675867259508,0.021241880217970435
1282.0,15.818819233842305,226.211556339482,0.021178154577316522
1283.0,263.90677091933344,229.31878825746819,0.021114620113584573
1284.0,302.6017212084017,229.89103821540076,0.02105127625324382
1285.0,270.0042524296633,229.94716237486938,0.020988122424484088
1286.0,297.3767959187387,229.9132741020285,0.020925158057210635
1287.0,300.12587221829517,230.35642224876622,0.020862382583039
1288.0,16.073380771950184,227.80042834605493,0.020799795435289883
1289.0,56.05347778145932,225.81802631725844,0.020737396048984013
1290.0,237.67976353484823,225.60032831045788,0.02067518386083706
1291.0,-555.0854631257558,217.41836578806016,0.02061315830925455
1292.0,251.5427452241656,217.50958753082767,0.020551318834326784
1293.0,278.73576423186694,220.85754158348655,0.020489664877823804
1294.0,291.7345013479543,220.97530649090768,0.020428195883190333
1295.0,280.52984878064797,224.05379300702077,0.020366911295540763
1296.0,289.1232203672418,224.05393947132347,0.02030581056165414
1297.0,232.88444232752605,223.60701732544592,0.020244893129969178
1298.0,280.58534438244203,226.1168575054997,0.02018415845057927
1299.0,277.7801142737298,226.3799905225401,0.02012360597522753
1300.0,-23.71933818781342,223.26805843163373,0.020063235157301847
1301.0,252.78612237079832,223.30205851271293,0.020003045451829942
1302.0,274.0601167600419,223.08056029100212,0.02
1303.0,41.01652175991842,220.63224503860638,0.02
1304.0,-33.25250958968998,217.5766647660466,0.02
1305.0,255.00433370592526,217.4613020364031,0.02
1306.0,278.06199901993796,217.6724745390254,0.02
1307.0,47.69558079729589,217.4747298518235,0.02
1308.0,69.22767503831619,215.54746162861062,0.02
1309.0,290.37751069978356,215.89397770898938,0.02
1310.0,-280.6993631205993,211.4428597675638,0.02
1311.0,256.0967100451475,211.2059370680249,0.02
1312.0,261.44001576845545,213.7086325160518,0.02
1313.0,285.2427725375492,213.71412109314966,0.02
1314.0,285.1129718094463,214.1546797295457,0.02
1315.0,40.98621204151917,211.76483619378618,0.02
1316.0,279.33496243489907,211.89173483104517,0.02
1317.0,64.56161761670228,209.77391830227688,0.02
1318.0,58.40659546644363,207.52981002104232,0.02
1319.0,249.56244023390374,207.31313165656167,0.02
1320.0,66.882180517992,205.27834496651957,0.02
1321.0,294.2661989041306,205.42559311626493,0.02
1322.0,31.980606907345305,205.43097936937596,0.02
1323.0,22.368000005607186,202.76410019180167,0.02
1324.0,46.717237171349154,200.33683280587593,0.02
1325.0,74.58172945632364,198.4331263320289,0.02
1326.0,20.975902116624383,195.66224865276308,0.02
1327.0,23.18855676414715,193.0043816336672,0.02
1328.0,54.19704257229691,193.10428463686915,0.02
1329.0,249.85233404041426,195.6251681686481,0.02
1330.0,271.85598627284037,197.7425110432232,0.02
1331.0,55.91537794284412,195.6460437077928,0.02
1332.0,47.64735287306351,193.35112838519936,0.02
1333.0,289.5740383841901,193.45969985332533,0.02
1334.0,253.29511571173933,193.20901919937617,0.02
1335.0,8.803193273748079,190.33314861831917,0.02
1336.0,281.57381952217327,190.28427698748007,0.02
1337.0,24.65472275477879,189.62505500568213,0.02
1338.0,-131.89892291619762,185.5122592141611,0.02
1339.0,282.4582854154787,185.51784285911035,0.02
1340.0,248.89407648529829,185.26534548833882,0.02
1341.0,269.43264425808894,185.20786339897057,0.02
1342.0,8.333606761271682,182.77978631345908,0.02
1343.0,56.65493797169742,180.59322458605314,0.02
1344.0,277.86551591471175,180.6138311643615,0.02
1345.0,51.473641042406825,178.48866660459092,0.02
1346.0,272.2247394706609,178.60001661329756,0.02
1347.0,295.6386574103111,178.87929325158294,0.02
1348.0,272.01402390427705,178.58008347158764,0.02
1349.0,-35.261235182265196,175.19631909770698,0.02
1350.0,265.7335477036142,177.9476745993492,0.02
1351.0,48.698734907284006,175.5056690982406,0.02
1352.0,255.92789596227598,177.69778684342742,0.02
1353.0,272.7759639786591,177.79166787643237,0.02
1354.0,270.08953408757895,177.8047795936408,0.02
1355.0,288.8561240575822,178.27248830026878,0.02
1356.0,286.7548914133389,178.16334380110348,0.02
1357.0,267.5081205013387,180.41838008047546,0.02
1358.0,289.6171229496648,180.46262218950199,0.02
1359.0,277.11231763336207,180.44182204680223,0.02
1360.0,266.19219186545,180.23792574143218,0.02
1361.0,53.397820289854764,178.09583949749586,0.02
1362.0,19.760592646744,175.41492594480096,0.02
1363.0,302.302994233478,175.7616028874636,0.02
1364.0,283.9793856445219,175.78631875409147,0.02
1365.0,-143.00957270802968,171.75789451792153,0.02
1366.0,293.03030142657303,175.0836277738341,0.02
1367.0,288.47903904415966,174.8986701452289,0.02
1368.0,299.96485348782693,178.22924401266002,0.02
1369.0,279.1068510080545,178.24492992830864,0.02
1370.0,299.68526969169557,180.44064133045703,0.02
1371.0,275.05181209377434,180.74760373524907,0.02
1372.0,280.0365398183617,180.7173784579982,0.02
1373.0,309.8790987501034,181.20434275283762,0.02
1374.0,275.2283997547295,181.3252090618266,0.02
1375.0,9.872601388694221,178.77456403866748,0.02
1376.0,248.9055588262374,178.48208699464323,0.02
1377.0,18.842063617233407,175.96478046175062,0.02
1378.0,57.562095223626386,173.87221546565914,0.02
1379.0,66.43792112148677,171.65669437416986,0.02
1380.0,263.06086018221754,171.39181698268266,0.02
1381.0,157.25754659207945,170.53032161955252,0.02
1382.0,269.70796126566387,173.0692130398707,0.02
1383.0,-8.362713294063596,170.34651819773674,0.02
1384.0,74.73511482530782,168.0678521339058,0.02
1385.0,29.73391422405973,165.6651487518498,0.02
1386.0,312.8085915163446,165.81946670782585,0.02
1387.0,-11.285494054473887,162.70535304509815,0.02
1388.0,267.2857441667197,165.21747667904586,0.02
1389.0,67.00561001943774,165.32699800142564,0.02
1390.0,264.6734843314862,165.59693520939203,0.02
1391.0,95.56606784438208,172.10345051909337,0.02
1392.0,48.995652531786476,170.0779795921696,0.02
1393.0,286.3815551742749,170.15443750159366,0.02
1394.0,285.50511701775804,170.09214365829172,0.02
1395.0,281.4194391746339,170.1010395622316,0.02
1396.0,287.44160546506987,170.08422341320988,0.02
1397.0,59.828873824703464,168.35366772818162,0.02
1398.0,312.3954690779724,168.6717689751369,0.02
1399.0,60.70748707281467,166.50104270312778,0.02
1400.0,285.24428334643164,169.5906789184702,0.02
1401.0,277.4566313777757,169.83738400854,0.02
1402.0,245.23626760501347,169.5491455169897,0.02
1403.0,275.9914736651647,171.8988950360422,0.02
1404.0,269.7866142782188,174.92928627472128,0.02
1405.0,268.28482693102933,175.06209120697233,0.02
1406.0,266.43105785946057,174.94578179536754,0.02
1407.0,252.40651642950544,176.99289115168966,0.02
1408.0,7.633828023156028,176.37695268153806,0.02
1409.0,294.3617656306048,176.41679523084625,0.02
1410.0,278.0814609039582,182.00460347109185,0.02
1411.0,280.2395124951235,182.2460314955916,0.02
1412.0,273.89280342045697,182.37055937211161,0.02
1413.0,286.960901434367,182.38774066107982,0.02
1414.0,291.4334045427194,182.45094498841252,0.02
1415.0,247.39955995518721,184.5150784675492,0.02
1416.0,276.33332433392604,184.48506208653944,0.02
1417.0,245.38121097965833,186.29325802016908,0.02
1418.0,273.14322144454,188.44062427995001,0.02
1419.0,274.6142612156612,188.6911424897676,0.02
1420.0,53.336717592523485,188.55568786051288,0.02
1421.0,289.7198663847696,188.51022453531928,0.02
1422.0,21.37267884327335,188.40414525467853,0.02
1423.0,6.394421904810798,188.24440947367057,0.02
1424.0,242.64094630084838,190.20364656496554,0.02
1425.0,253.77149770384892,191.99554424744082,0.02
1426.0,279.0370808097646,194.5761560343722,0.02
1427.0,13.14522443857102,194.4757227111165,0.02
1428.0,268.3188207613926,196.61694049300743,0.02
1429.0,71.24608996491725,194.83087805225244,0.02
1430.0,27.37369270938197,192.38605511661785,0.02
1431.0,248.54325524325813,194.31233388962198,0.02
1432.0,12.30553524893513,193.9589157133807,0.02
1433.0,254.95126923665129,193.61268802190534,0.02
1434.0,264.9588608875803,193.72932547366378,0.02
1435.0,290.71878574839303,196.54848139841022,0.02
1436.0,59.11293239759351,194.3238725271644,0.02
1437.0,273.56576892571127,196.8129829888737,0.02
1438.0,253.01682140243582,200.66214043206,0.02
1439.0,272.29185882454163,200.56047616615066,0.02
1440.0,48.29418467258856,198.55447724802355,0.02
1441.0,273.9244271769718,198.5993950772124,0.02
1442.0,285.95664175422064,201.37562542714187,0.02
1443.0,51.205266083900455,201.3211287082639,0.02
1444.0,304.76377812921885,201.59011133040897,0.02
1445.0,278.88742556655734,203.86424917565049,0.02
1446.0,294.1083611404458,204.08308539234832,0.02
1447.0,241.03438442758548,203.5370426625211,0.02
1448.0,320.99959218398885,204.02689834531822,0.02
1449.0,280.5554504514041,207.1850652016549,0.02
1450.0,267.74426365846233,207.20517236120338,0.02
1451.0,28.080041501946738,206.99898542715005,0.02
1452.0,262.80232338525605,207.06772970137982,0.02
1453.0,281.90169800760486,207.1589870416693,0.02
1454.0,37.33227899583028,204.83141449075177,0.02
1455.0,256.2652956964756,204.5055062071407,0.02
1456.0,274.2560660680623,204.38051795368793,0.02
1457.0,84.21562084982551,202.54759295717278,0.02
1458.0,79.94279259017907,200.45084965357796,0.02
1459.0,260.0884756039102,200.28061123328345,0.02
1460.0,16.64124438708211,197.7851017584998,0.02
1461.0,283.71866834046887,200.08831023900592,0.02
1462.0,293.76455261554355,202.8283498386939,0.02
1463.0,267.7446159247231,202.48276605560633,0.02
1464.0,295.38076852432937,202.5967798844044,0.02
1465.0,55.31365032776088,204.58001211476233,0.02
1466.0,302.60185265127427,204.67572762700937,0.02
1467.0,318.5749520814769,204.9766867573825,0.02
1468.0,290.1344006064602,204.87838222856885,0.02
1469.0,269.9506830873232,204.78682054936152,0.02
1470.0,146.25352851156916,203.25250313756027,0.02
1471.0,294.88137628682136,203.45079877949075,0.02
1472.0,260.04499927668263,203.25088337407396,0.02
1473.0,308.733824556664,203.23943063213963,0.02
1474.0,281.42471999637644,203.30139383455608,0.02
1475.0,242.76734979151715,205.6303413185843,0.02
1476.0,254.15489003114465,205.68283463063332,0.02
1477.0,259.95412340436724,208.0939552285047,0.02
1478.0,49.212017557703376,208.0104544518455,0.02
1479.0,283.9478749050438,210.18555398968107,0.02
1480.0,62.95901036631915,208.18453549152204,0.02
1481.0,242.89677595898777,209.04092778519112,0.02
1482.0,313.67328890620433,209.48058106159652,0.02
1483.0,298.77333206762836,212.55194151521343,0.02
1484.0,271.71729633130576,214.5217633302734,0.02
1485.0,284.89350999509276,217.07335928798372,0.02
1486.0,-53.950839486982304,213.40576497795053,0.02
1487.0,285.6496970220407,216.37511688871564,0.02
1488.0,-12.798243660519333,213.57427701044327,0.02
1489.0,286.4961767798136,215.76918267804697,0.02
1490.0,19.882374813998382,213.32127158287207,0.02
1491.0,280.65679829783375,215.17217888740663,0.02
1492.0,263.41050202708345,217.3163273823596,0.02
1493.0,261.43168259232857,217.06682865654014,0.02
1494.0,256.8687858360463,216.780465344723,0.02
1495.0,255.58858188820358,216.5221567718587,0.02
1496.0,253.88237932666271,216.18656451047468,0.02
1497.0,249.34919989073407,218.081767771135,0.02
1498.0,20.537374455659247,215.16318682491186,0.02
1499.0,256.5597410550639,217.12170936473433,0.02
1500.0,37.18975409223566,214.6411640721924,0.02
1501.0,266.7339391157498,214.53393714957215,0.02
1502.0,56.72008545502854,212.64877532807225,0.02
1503.0,297.9354922181339,212.86821551360197,0.02
1504.0,-198.59853983612857,208.18436397245844,0.02
1505.0,253.90857409783752,208.04060144412654,0.02
1506.0,300.24684260947043,208.37875929162664,0.02
1507.0,52.0810359311873,206.37550448664348,0.02
1508.0,-8.38899470921261,206.21527625931975,0.02
1509.0,45.708379055774145,203.72874239357148,0.02
1510.0,253.7183572409811,203.4851113569417,0.02
1511.0,287.4915287823892,203.55763151981435,0.02
1512.0,278.1084615242812,203.59978810085258,0.02
1513.0,282.34978550119183,203.55367694152082,0.02
1514.0,36.30654384595718,201.00240833455322,0.02
1515.0,266.01635757337954,201.18857631073513,0.02
1516.0,64.35742033505164,199.0688172707464,0.02
1517.0,250.30911610305958,199.1180963219804,0.02
1518.0,261.3606862919637,199.0002709704546,0.02
1519.0,288.3957351530582,199.13808570982863,0.02
1520.0,60.726204123218395,199.21198057513556,0.02
1521.0,-21.56179730850343,196.09916393820285,0.02
1522.0,274.9097327495339,198.63453447726545,0.02
1523.0,31.3511917170502,198.88410217538785,0.02
1524.0,256.23154931097304,199.0200082054891,0.02
1525.0,285.1066948795048,199.33336017724562,0.02
1526.0,53.03487780087244,197.07333814715676,0.02
1527.0,74.0093799542926,197.68197970231395,0.02
1528.0,37.66429005406482,195.3754343952407,0.02
1529.0,304.0650477160923,197.70362397275244,0.02
1530.0,31.368416560952085,197.7435712112681,0.02
1531.0,276.38474457320274,198.02198610456756,0.02
1532.0,269.5727854346335,200.59465860642456,0.02
1533.0,31.20975862800711,198.35724350033811,0.02
1534.0,33.25799626317888,196.04023485409408,0.02
1535.0,323.2409871448149,196.3654568680583,0.02
1536.0,281.78533272273563,198.59218087130972,0.02
1537.0,58.05466873371577,196.43706986938975,0.02
1538.0,271.4205619731367,196.62110727509676,0.02
1539.0,-24.063408423374057,193.6575546026176,0.02
1540.0,51.67825092861244,193.69139526517785,0.02
1541.0,328.11558129949015,194.23330680640305,0.02
1542.0,21.94967388540232,191.5932371277149,0.02
1543.0,289.94626323466287,193.98064709922252,0.02
1544.0,280.96559975370224,193.74266531546732,0.02
1545.0,282.1552179054739,193.77534323885652,0.02
1546.0,43.704089591097016,191.27130052336304,0.02
1547.0,243.83074971891085,191.2992641762763,0.02
1548.0,293.170026183789,191.0209685162743,0.02
1549.0,278.36704912867293,190.999084503047,0.02
1550.0,-32.924241502676736,187.9923994514356,0.02
1551.0,273.4212773465272,190.44581180988135,0.02
1552.0,-16.9784498983213,187.64800407704556,0.02
1553.0,266.7578931694908,187.49656602866446,0.02
1554.0,277.30638815931155,189.89630712029927,0.02
1555.0,70.61207317916427,188.0397748951262,0.02
1556.0,-23.902670292613337,185.0581875315194,0.02
1557.0,279.68656942138466,187.01289701723496,0.02
1558.0,268.41713526934666,188.8976404440267,0.02
1559.0,280.3389108294723,189.10014479628228,0.02
1560.0,251.60151238070105,191.4497474762185,0.02
1561.0,-4.50846272380339,188.56747616557575,0.02
1562.0,28.194988617542037,185.91178052559576,0.02
1563.0,245.06307406843547,185.68496510703287,0.02
1564.0,293.4219438897139,185.6653768606867,0.02
1565.0,261.86301540523095,187.7308705114614,0.02
1566.0,264.9273760707905,187.35412574565652,0.02
1567.0,41.2153395439189,184.58052962028097,0.02
1568.0,310.1684773180129,184.78087038739653,0.02
1569.0,268.76130009469716,184.76897655747027,0.02
1570.0,297.17889063447683,186.27823017869937,0.02
1571.0,283.1002031878731,186.1604184477099,0.02
1572.0,287.45276915635793,186.43449614650663,0.02
1573.0,-25.112976741163763,183.09602813352834,0.02
1574.0,264.2456963464499,182.9242378970291,0.02
1575.0,236.7126607137201,182.8636910062511,0.02
1576.0,-22.985423530168347,180.092287870638,0.02
1577.0,-4.519989409287106,177.44754674250143,0.02
1578.0,257.10390590957627,179.52646562602015,0.02
1579.0,-7.284563119766773,176.614141245772,0.02
1580.0,-29.188633237385673,175.69266480973496,0.02
1581.0,274.88795669671566,176.01257661711225,0.02
1582.0,301.6751060573826,175.89259478862405,0.02
1583.0,305.08519400456305,175.9557134079934,0.02
1584.0,44.85733052847621,173.68711374996514,0.02
1585.0,293.90734869483106,173.77725213696252,0.02
1586.0,260.3555320574325,176.92031585240667,0.02
1587.0,259.2127552614214,176.6559464348005,0.02
1588.0,257.0395172502891,179.3543240439086,0.02
1589.0,254.98030778954785,179.03916535400592,0.02
1590.0,275.87851257360467,181.59912673160193,0.02
1591.0,40.0139584949398,179.192698333573,0.02
1592.0,53.1103637173544,177.0896969504757,0.02
1593.0,-26.942561272138136,174.205954511831,0.02
1594.0,-24.03220545112862,171.39694459895927,0.02
1595.0,302.8282407630022,171.86934118770728,0.02
1596.0,3.4348825084527164,169.36486621952517,0.02
1597.0,252.19154906648347,169.39328971128268,0.02
1598.0,268.502551333298,171.87294148005904,0.02
1599.0,260.12990412394674,171.9086431107479,0.02
1600.0,303.4776225507902,174.57152179533344,0.02
1601.0,-23.6324226136541,171.66785817803938,0.02
1602.0,-10.162235602398383,170.99903496746512,0.02
1603.0,248.40908654491835,170.50377091073292,0.02
1604.0,58.26044101018985,173.07236071919613,0.02
1605.0,-6.453381151947596,170.46874116669827,0.02
1606.0,277.33817393641027,170.2396544799677,0.02
1607.0,-40.32985830124652,169.31554553764335,0.02
1608.0,279.78724870029646,172.1973079717384,0.02
1609.0,-4.786558060673897,171.69235860057393,0.02
1610.0,249.81172799587097,171.65329230812287,0.02
1611.0,236.9636950399539,171.1480139706985,0.02
1612.0,-3.5878680944987735,168.33105067451072,0.02
1613.0,-42.0097411978344,165.08745540752045,0.02
1614.0,292.6204502145165,167.65059447120603,0.02
1615.0,-7.837922298619887,164.91205167248606,0.02
1616.0,-8.759627889049312,164.18088119024506,0.02
1617.0,271.47632197032704,164.3925532489177,0.02
1618.0,264.48167502668815,164.42376313626497,0.02
1619.0,257.09760447887146,164.11078182952312,0.02
1620.0,284.68910310481033,166.35041081933898,0.02
1621.0,-16.640454107924754,166.39962425134476,0.02
1622.0,291.941461230168,166.56994153615116,0.02
1623.0,253.38462061849538,168.7902758251656,0.02
1624.0,280.4376973391336,169.0323373054472,0.02
1625.0,260.1503255365524,168.7827736120177,0.02
1626.0,302.4567359306278,171.27699219331524,0.02
1627.0,-73.68514514389398,169.80004694233338,0.02
1628.0,283.6514629649482,172.25991867144222,0.02
1629.0,274.9908547086246,171.96917674136756,0.02
1630.0,5.581365490030436,171.71130623065835,0.02
1631.0,-44.41658917303715,168.50329289319586,0.02
1632.0,255.88322395792125,168.36639727842874,0.02
1633.0,-59.19812126026817,167.462318479546,0.02
1634.0,45.39762135372058,167.58371473045142,0.02
1635.0,-35.132425267758435,163.99998060632566,0.02
1636.0,-15.705713950836852,161.02507013958996,0.02
1637.0,295.7897868829581,163.40242132108241,0.02
1638.0,-43.703335256637786,160.25118234878468,0.02
1639.0,304.69813575232274,163.53879779054165,0.02
1640.0,58.758392952826256,163.60959921078376,0.02
1641.0,14.90000102957515,160.4774434080846,0.02
1642.0,-32.23967825945215,159.93554988663607,0.02
1643.0,-19.60305436028358,156.8400567106866,0.02
1644.0,-20.843258250467272,153.82196813064493,0.02
1645.0,3.249933766592619,151.03291528925612,0.02
1646.0,292.0705880219842,153.51658027356498,0.02
1647.0,1.0769128029897956,151.08904190440578,0.02
1648.0,307.02413431651934,151.22758298573308,0.02
1649.0,14.73793378675046,148.59129183231383,0.02
1650.0,265.41383081671154,151.5746725555077,0.02
1651.0,-38.05619616392569,148.4598978204032,0.02
1652.0,39.32355572511341,149.02291787663754,0.02
1653.0,271.8268672628973,149.0736076175716,0.02
1654.0,291.1834993360888,149.21237872933938,0.02
1655.0,-14.247664800436652,148.36378134954336,0.02
