episode,reward,avg_reward_100,epsilon
0.0,-158.8866831212311,-158.8866831212311,0.995
1.0,-143.46463311433132,-151.1756581177812,0.990025
2.0,-175.50142821635495,-159.28424815063912,0.985074875
3.0,-504.204523967381,-245.5143171048246,0.9801495006250001
4.0,-63.34435222293038,-209.08032412844577,0.9752487531218751
5.0,-310.09568977769936,-225.91621840332138,0.9703725093562657
6.0,-148.324424758897,-214.8316764541179,0.9655206468094844
7.0,-404.4713599360528,-238.53663688935973,0.960693043575437
8.0,-143.61114208316587,-227.9893596886715,0.9558895783575597
9.0,-79.82528063623448,-213.17295178342778,0.9511101304657719
10.0,-152.52573278047163,-207.6595682377045,0.946354579813443
11.0,-91.56292103177917,-197.98484763721072,0.9416228069143757
12.0,-217.07283474365795,-199.45315433770668,0.9369146928798039
13.0,-64.19715018823074,-189.79201118417268,0.9322301194154049
14.0,-165.34071769859364,-188.16192495180076,0.9275689688183278
15.0,-283.32923636069967,-194.10988191485694,0.9229311239742362
16.0,-93.19249206899254,-188.17356486510022,0.918316468354365
17.0,-60.78123161235624,-181.09621301772555,0.9137248860125932
18.0,-163.11637308549933,-180.14990565287152,0.9091562615825302
19.0,-270.7278450322575,-184.67880262184082,0.9046104802746175
20.0,-109.45674975093574,-181.09680010417867,0.9000874278732445
21.0,-81.75926998948165,-176.5814578262379,0.8955869907338783
22.0,-97.46148767110898,-173.141459123841,0.8911090557802088
23.0,-142.53919993244142,-171.86636499086603,0.8866535105013078
24.0,-83.25464999037617,-168.32189639084646,0.8822202429488013
25.0,-114.81316540248824,-166.2638682759096,0.8778091417340573
26.0,-48.256786159551055,-161.89323560493335,0.8734200960253871
27.0,-379.82079103135965,-169.67636258444855,0.8690529955452602
28.0,-128.05140319789552,-168.24101915732604,0.8647077305675338
29.0,-106.34784129634932,-166.17791322862684,0.8603841919146962
30.0,-76.96831358925692,-163.30018420800198,0.8560822709551227
31.0,-43.031955380466016,-159.54180205714147,0.851801859600347
32.0,-226.27561824719652,-161.56403891138555,0.8475428503023453
33.0,-309.5517378466255,-165.9166182918338,0.8433051360508336
34.0,-132.5949829653631,-164.96457156822035,0.8390886103705794
35.0,-52.53839185876862,-161.8416221318467,0.8348931673187264
36.0,-314.64727023447426,-165.9715045129988,0.8307187014821328
37.0,-15.364085667549475,-162.00815138548697,0.8265651079747222
38.0,-161.88064055012478,-162.00488187688794,0.8224322824348486
39.0,-127.67605523751119,-161.14666121090355,0.8183201210226743
40.0,-120.38602565991937,-160.1524993681966,0.8142285204175609
41.0,-76.28714599070639,-158.15570524016113,0.810157377815473
42.0,-117.4083159922171,-157.20809153672056,0.8061065909263957
43.0,-332.98679272456377,-161.20306201826247,0.8020760579717637
44.0,-129.6900603223175,-160.50277309168592,0.798065677681905
45.0,0.7205282691675592,-156.99791871427607,0.7940753492934954
46.0,-81.71850609938386,-155.39622908417198,0.7901049725470279
47.0,-90.42410108825874,-154.0426430842571,0.7861544476842928
48.0,-66.0507211570726,-152.24688957553903,0.7822236754458713
49.0,-67.71589414713607,-150.556269666971,0.778312557068642
50.0,-94.56202657328237,-149.45834333180062,0.7744209942832988
51.0,-84.30103708623011,-148.2053182116935,0.7705488893118823
52.0,-115.32624704747505,-147.58495837840636,0.7666961448653229
53.0,-71.36735110862563,-146.17352120674374,0.7628626641409962
54.0,-185.5367195767171,-146.88921572256143,0.7590483508202912
55.0,-191.47207361223775,-147.6853381848771,0.7552531090661897
56.0,-94.75059947546623,-146.75665855839623,0.7514768435208588
57.0,-73.61593223581339,-145.49561155283445,0.7477194593032545
58.0,-242.25454919531236,-147.13559354677474,0.7439808620067382
59.0,-209.72840658778114,-148.17880709745816,0.7402609576967045
60.0,-53.96624703110996,-146.63433889964918,0.736559652908221
61.0,-108.91645532873095,-146.02598593882792,0.7328768546436799
62.0,-115.52716931094969,-145.5418777383854,0.7292124703704616
63.0,-74.94316504377986,-144.4387728525322,0.7255664080186093
64.0,-122.72814850027518,-144.10476324711286,0.7219385759785162
65.0,-260.45252539710447,-145.86760812817332,0.7183288830986236
66.0,32.811573826475325,-143.20075466616365,0.7147372386831305
67.0,-55.515017943758465,-141.911258537893,0.7111635524897149
68.0,-85.74246084758238,-141.0972179916566,0.7076077347272662
69.0,-117.79772139478341,-140.7643680402727,0.7040696960536299
70.0,-88.12278610405221,-140.02293730877665,0.7005493475733617
71.0,-69.56720092168734,-139.0443854145115,0.697046600835495
72.0,-58.19849117245141,-137.93690741119562,0.6935613678313175
73.0,-55.78122742959639,-136.82669551955237,0.6900935609921609
74.0,-27.195695099296387,-135.3649488472823,0.6866430931872001
75.0,-135.56366875278877,-135.36756358288108,0.6832098777212641
76.0,-123.72385872491633,-135.21634663667373,0.6797938283326578
77.0,-60.84628117706846,-134.2628842589865,0.6763948591909945
78.0,-75.12139586037684,-133.51425782356105,0.6730128848950395
79.0,-72.21506095118177,-132.74801786265633,0.6696478204705644
80.0,-48.70541723271454,-131.7104548919163,0.6662995813682115
81.0,-79.27416715297818,-131.0709879682707,0.6629680834613705
82.0,-72.83634399212684,-130.36936575169068,0.6596532430440636
83.0,-63.27692209102298,-129.57064618430178,0.6563549768288433
84.0,-74.57481539488755,-128.92363641030866,0.653073201944699
85.0,-84.81565313828952,-128.41075288388984,0.6498078359349755
86.0,-77.52827170360379,-127.82589677836933,0.6465587967553006
87.0,-3.881148350312955,-126.41743372805048,0.6433260027715241
88.0,-34.79547530631869,-125.38797352106472,0.6401093727576664
89.0,-23.18424957655158,-124.25237658834793,0.6369088258938781
90.0,-100.24605533613882,-123.98857086030166,0.6337242817644086
91.0,-267.48999561099026,-125.54836895541784,0.6305556603555866
92.0,-88.90843583222893,-125.15439117989969,0.6274028820538087
93.0,-52.344599609085854,-124.37981892914634,0.6242658676435396
94.0,-78.50742353525999,-123.8969516092107,0.6211445383053219
95.0,-38.84972933066845,-123.01104304380921,0.6180388156137953
96.0,6.893763100815534,-121.67181823819452,0.6149486215357263
97.0,-80.32124332262259,-121.24987359619888,0.6118738784280476
98.0,-85.49567068892819,-120.88872003147897,0.6088145090359074
99.0,47.67665961439383,-119.20306623502024,0.6057704364907278
100.0,-88.98412756882338,-118.50404067949617,0.6027415843082742
101.0,-76.38478155707537,-117.83324216392363,0.5997278763867329
102.0,-18.123331160186765,-116.25946119336193,0.5967292370047992
103.0,-30.043123365967787,-111.5178471873478,0.5937455908197752
104.0,-17.735638706813432,-111.06176005218661,0.5907768628656763
105.0,-3.4397930553601412,-107.99520108496324,0.5878229785513479
106.0,-50.05007156493507,-107.01245755302364,0.5848838636585911
107.0,-27.869725740024293,-103.24644121106336,0.5819594443402982
108.0,60.41485557733682,-101.20618123445831,0.5790496471185967
109.0,-62.73350054964118,-101.03526343359238,0.5761543988830038
110.0,-48.57721087375019,-99.99577821452516,0.5732736268885887
111.0,-53.914569147746725,-99.61929469568484,0.5704072587541458
112.0,-61.086157792044254,-98.0594279261687,0.567555222460375
113.0,-20.93769226155662,-97.62683334690196,0.5647174463480732
114.0,-40.82747369594737,-96.38170090687548,0.5618938591163328
115.0,-91.49728142101588,-94.46338135747865,0.5590843898207511
116.0,-63.82218947582056,-94.16967833154695,0.5562889678716474
117.0,-284.5585536618672,-96.40745155204203,0.5535075230322891
118.0,-39.794596359695106,-95.17423378478401,0.5507399854171277
119.0,-30.26228334611976,-92.76957816792263,0.547986285490042
120.0,-2.39904707440607,-91.69900114115735,0.5452463540625918
121.0,30.015437572381188,-90.5812540655387,0.5425201222922789
122.0,-60.22339486503207,-90.20887313747794,0.5398075216808175
123.0,-43.33907847178296,-89.21687192287135,0.5371084840724134
124.0,-46.92463990278078,-88.85357182199542,0.5344229416520513
125.0,-38.63470456126612,-88.09178721358317,0.531750826943791
126.0,12.585913516661563,-87.48336021682105,0.5290920728090721
127.0,22.26941576525425,-83.4624581488549,0.5264466124450268
128.0,35.48425814324969,-81.82710153544345,0.5238143793828016
129.0,-53.920290790867654,-81.30282603038864,0.5211953074858876
130.0,28.442775185509248,-80.24871514264098,0.5185893309484582
131.0,-39.850513229507946,-80.2169007211314,0.5159963842937159
132.0,2.934548575424998,-77.92479905290517,0.5134164023722473
133.0,-39.23052252481122,-75.22158689968704,0.510849320360386
134.0,4.7670011229013625,-73.8479670588044,0.5082950737585841
135.0,-45.155134656998214,-73.7741344867867,0.5057535983897912
136.0,22.925736229162226,-70.39840442215034,0.5032248303978422
137.0,-29.56339849409207,-70.54039755041576,0.500708706245853
138.0,10.47592970159167,-68.8168318478986,0.4982051627146237
139.0,18.786303721393182,-67.35220825830956,0.49571413690105054
140.0,-7.410426917095393,-66.22245227088132,0.4932355662165453
141.0,-222.39621032201254,-67.68354291419439,0.4907693883854626
142.0,4.728246233702166,-66.46217729193519,0.4883155414435353
143.0,-121.91044355967284,-64.35141380028627,0.4858739637363176
144.0,53.23464602287957,-62.52216673683429,0.483444593917636
145.0,39.57435895924098,-62.13362842993356,0.4810273709480478
146.0,33.24296531807731,-60.984013715758955,0.47862223409330756
147.0,-87.4841122746675,-60.954613827623035,0.47622912292284103
148.0,40.59860228166579,-59.888120593235655,0.4738479773082268
149.0,-19.081504839417263,-59.401776700158464,0.47147873742168567
150.0,-28.040912952562408,-58.73656556395125,0.46912134373457726
151.0,93.32675570718794,-56.96028763601707,0.46677573701590436
152.0,-41.39647382808957,-56.22098990382323,0.46444185833082485
153.0,-29.462316162546507,-55.801939554362434,0.46211964903917074
154.0,-8.533456041905623,-54.031906919014325,0.4598090507939749
155.0,82.21201001106269,-51.295066082781325,0.457510005540005
156.0,-0.04103842913690414,-50.34797047231804,0.45522245551230495
157.0,16.013205910109534,-49.451679090858796,0.4529463432347434
158.0,2.278770952038929,-47.00634588938529,0.4506816115185697
159.0,34.18448168014123,-44.56721700670606,0.4484282034609769
160.0,-14.26009773117326,-44.17015551370669,0.446186062443672
161.0,-1.101546571716952,-43.09200642613655,0.4439551321314536
162.0,8.814198791365436,-41.84859274511341,0.4417353564707963
163.0,-59.865593892586546,-41.69781703360147,0.43952667968844233
164.0,-43.453318264299,-40.905068731241705,0.43732904629000013
165.0,-55.60507564939954,-38.85659423376466,0.4351424010585501
166.0,-208.25554137903953,-41.26726538581981,0.43296668905325736
167.0,-22.290495227681518,-40.93502015865904,0.43080185560799106
168.0,-162.26546421112036,-41.70025019229442,0.4286478463299511
169.0,-53.18661015817068,-41.054139079928284,0.42650460709830135
170.0,-97.73856076526422,-41.150296826540405,0.42437208406280985
171.0,-61.24372822697475,-41.06706209959328,0.4222502236424958
172.0,-13.185134018041106,-40.61692852804917,0.42013897252428334
173.0,2.9605275566569462,-40.02951097818664,0.4180382776616619
174.0,11.80130099963091,-39.639541017197374,0.4159480862733536
175.0,-45.732888961749666,-38.74123321928698,0.41386834584198684
176.0,41.8231650478827,-37.085762981558986,0.4117990041127769
177.0,-145.35686086519698,-37.93086877844028,0.40974000909221303
178.0,-97.91735190432254,-38.15882833887973,0.40769130904675194
179.0,48.857342454186465,-36.94810430482605,0.40565285250151817
180.0,-25.265062119764565,-36.71370075369655,0.4036245882390106
181.0,-145.53128254340052,-37.376271907600774,0.4016064652978155
182.0,55.0612120975807,-36.0972963467037,0.3995984329713264
183.0,-113.76855265610666,-36.60221265235454,0.3976004408064698
184.0,-69.70620544536557,-36.55352655285932,0.39561243860243744
185.0,12.652897720448536,-35.57884104427193,0.3936343764094253
186.0,5.163216571090962,-34.75192616152499,0.39166620452737816
187.0,-31.820668378219523,-35.03132136180405,0.3897078735047413
188.0,-19.37402000919566,-34.87710680883282,0.3877593341372176
189.0,-15.918948812945574,-34.80445380119676,0.3858205374665315
190.0,-23.153526723835853,-34.03352851507373,0.38389143477919885
191.0,-176.93069382910363,-33.12793549725487,0.3819719776053028
192.0,-0.9809417831703087,-32.24866055676428,0.3800621177172763
193.0,-253.37772765174654,-34.25899183719089,0.37816180712868996
194.0,3.3671001589517395,-33.44024660024877,0.37627099809304654
195.0,3.832757127282605,-33.013421735669255,0.3743896431025813
196.0,52.302598935903035,-32.55933337731838,0.37251769488706843
197.0,6.033970245822999,-31.695781241633927,0.3706551064126331
198.0,22.751662739476203,-30.61330790734988,0.36880183088056995
199.0,-85.73889286939509,-31.947463432187764,0.3669578217261671
200.0,-25.448661862199558,-31.31210877512153,0.36512303261753626
201.0,5.285547373182153,-30.49540548581896,0.3632974174544486
202.0,-39.62226784020247,-30.710394852619114,0.3614809303671764
203.0,63.184611957664345,-29.77811749938279,0.3596735257153405
204.0,-321.51958534633127,-32.81595696577797,0.3578751580867638
205.0,25.328298614812837,-32.52827604907625,0.35608578229633
206.0,-54.803919658851925,-32.575814530015414,0.3543053533848483
207.0,-247.97542906787012,-34.776871563293874,0.35253382661792404
208.0,-64.7982036490323,-36.02900215555756,0.3507711574848344
209.0,20.36846904196147,-35.19798245964154,0.34901730169741024
210.0,8.371901876439784,-34.62849133213963,0.3472722151889232
211.0,92.49957636309945,-33.16434987703117,0.3455358541129786
212.0,-35.297968667652555,-32.90646798578725,0.3438081748424137
213.0,10.540003293334609,-32.591691030238344,0.3420891339682016
214.0,22.822722333043256,-31.955189069948442,0.3403786882983606
215.0,-70.39372375994463,-31.74415349333773,0.3386767948568688
216.0,42.63506412998788,-30.679580957279644,0.33698341088258443
217.0,-39.10735942050226,-28.225069014865998,0.3352984938281715
218.0,21.036033046010342,-27.616762720808943,0.33362200135903064
219.0,12.839250038167371,-27.18574738696607,0.33195389135223546
220.0,-37.0694997252512,-27.53245191347452,0.3302941218954743
221.0,45.707944444686255,-27.375526844751466,0.32864265128599696
222.0,31.04156646740794,-26.462877231427072,0.326999438029567
223.0,-11.0510379651514,-26.139996826360754,0.3253644408394192
224.0,-30.169857539986715,-25.972449002732816,0.3237376186352221
225.0,-77.22676482215978,-26.358369605341746,0.322118930542046
226.0,-40.42902768144153,-26.88851901732278,0.32050833588933575
227.0,-77.61268381338591,-27.887340013109174,0.31890579420988907
228.0,-90.60740677223492,-29.14825666226402,0.3173112652388396
229.0,34.41918364317334,-28.264861917923614,0.3157247089126454
230.0,90.17539421746208,-27.64753572760409,0.3141460853680822
231.0,-16.871933760609593,-27.417749932915104,0.3125753549412418
232.0,56.533312959119186,-26.881762289078168,0.31101247816653554
233.0,-30.63918545386353,-26.795848918368687,0.30945741577570285
234.0,-257.13084372712353,-29.414827366868934,0.3079101286968243
235.0,45.229301581010695,-28.51098300448885,0.3063705780533402
236.0,-73.69994249752273,-29.4772397917557,0.30483872516307353
237.0,15.488520128340388,-29.026720605531377,0.3033145315372582
238.0,-100.39900840668982,-30.135469986614194,0.3017979588795719
239.0,-211.999295630503,-32.44332598013315,0.30028896908517405
240.0,-9.399005879700539,-32.463211769759205,0.2987875242397482
241.0,4.04627599019934,-30.198786906637082,0.29729358661854943
242.0,-209.61649323355735,-32.342234301309674,0.29580711868545667
243.0,6.777416190485394,-31.05535570380809,0.2943280830920294
244.0,-45.23841178421392,-32.04008628187903,0.29285644267656924
245.0,-238.4324076447424,-34.82015394791886,0.2913921604631864
246.0,-97.2366221551162,-36.12494982265079,0.28993519966087045
247.0,-140.113865843947,-36.65124735834359,0.2884855236625661
248.0,-205.00065482447664,-39.10723992940501,0.28704309604425327
249.0,-221.06795508551082,-41.12710443186595,0.285607880564032
250.0,-40.9691583467812,-41.25638688580813,0.28417984116121187
251.0,-11.955516692850903,-42.30920960980853,0.2827589419554058
252.0,-148.09434717875556,-43.3761883433152,0.28134514724562876
253.0,11.325332128928668,-42.96831186040045,0.2799384215094006
254.0,-61.12327627956718,-43.494210062777064,0.27853872940185365
255.0,-41.66268338851097,-44.7329569967728,0.27714603575484437
256.0,-158.6176878780413,-46.31872349126184,0.2757603055760701
257.0,-158.00952921816824,-48.05895084254462,0.2743815040481898
258.0,-3.5352584462856775,-48.11709113652786,0.2730095965279488
259.0,-73.74771765937093,-49.19641312992299,0.27164454854530906
260.0,-110.04577441661648,-50.15426989677741,0.2702863258025825
261.0,-218.6150052777346,-52.32940448383758,0.2689348941735696
262.0,-149.4425783005292,-53.91197225475653,0.26759021970270175
263.0,-137.55404108072926,-54.68885672663795,0.2662522686041882
264.0,-62.25550692571264,-54.87687861325208,0.2649210072611673
265.0,-176.3118077872719,-56.08394593463082,0.26359640222486147
266.0,-29.48213282997407,-54.29621184914016,0.26227842021373715
267.0,-40.082953836367764,-54.47413643522703,0.2609670281126685
268.0,-46.95715156551689,-53.321053308771,0.25966219297210513
269.0,-113.05973003785854,-53.919784507567876,0.2583638820072446
270.0,-158.9442103378579,-54.531841003293806,0.2570720625972084
271.0,-79.7623184895584,-54.717026905919646,0.25578670228422234
272.0,-45.538081239694506,-55.04055637813617,0.25450776877280124
273.0,-36.511358677483805,-55.435275240477594,0.2532352299289372
274.0,-111.75263218993983,-56.670814572373295,0.2519690537792925
275.0,-16.383932265697275,-56.37732500541278,0.2507092085103961
276.0,-113.07510553909918,-57.92630771128259,0.2494556624678441
277.0,-81.52664545372853,-57.28800555716791,0.24820838415550486
278.0,-122.23545125645921,-57.53118655068927,0.24696734223472733
279.0,-163.26557637296997,-59.65241573896083,0.2457325055235537
280.0,-21.474500226075115,-59.61451012002394,0.24450384299593592
281.0,-5.500900828807161,-58.214206302878004,0.24328132378095624
282.0,-105.82783368121922,-59.823096760666,0.24206491716205145
283.0,43.38357553488079,-58.25157547875612,0.2408545925762412
284.0,-101.9895113828154,-58.57440853813062,0.23965031961336
285.0,-149.09701232186836,-60.19190763855379,0.2384520680152932
286.0,-74.53125237706188,-60.98885232803532,0.23725980767521673
287.0,13.14739391163949,-60.53917170513673,0.23607350863684065
288.0,36.62922224267525,-59.97913928261803,0.23489314109365644
289.0,-5.899536906019776,-59.878945163548764,0.23371867538818816
290.0,13.506587479893097,-59.512344021511474,0.23255008201124722
291.0,-43.41573312452444,-58.17719441446568,0.231387331601191
292.0,-10.852210465565108,-58.27590710128963,0.23023039494318503
293.0,-161.09460933335004,-57.35307591810568,0.2290792429684691
294.0,-181.40062007012676,-59.20075312039645,0.22793384675362674
295.0,-107.64567357562237,-60.31553742742552,0.22679417751985861
296.0,-153.13011229994177,-62.36986453978397,0.22566020663225933
297.0,-157.36715690785928,-64.00387581132078,0.22453190559909803
298.0,-45.870423584912416,-64.69009667456467,0.22340924607110255
299.0,-155.58448845368503,-65.38855263040757,0.22229219984074702
300.0,-35.42945873903918,-65.48836059917598,0.2211807388415433
301.0,-14.43155308998999,-65.68553160380769,0.22007483514733558
302.0,-55.085922428588844,-65.84016814969155,0.2189744609715989
303.0,5.141549791253794,-66.42059877135566,0.2178795886667409
304.0,-4.3826458290976404,-63.24922937618331,0.2167901907234072
305.0,77.438143728672,-62.72813092504472,0.21570623976979014
306.0,-159.408292863876,-63.77417465709496,0.21462770857094118
307.0,-37.5337043051298,-61.669757409467564,0.21355457002808648
308.0,-52.88160391001572,-61.5505914120774,0.21248679717794605
309.0,16.694699325834552,-61.58732910923866,0.21142436319205632
310.0,-136.0390911474805,-63.03143903947787,0.21036724137609603
311.0,33.88580997573999,-63.61757670335146,0.20931540516921554
312.0,-38.38390765698899,-63.64843609324484,0.20826882814336947
313.0,-109.4934176736205,-64.84877030291437,0.20722748400265262
314.0,14.966686652125189,-64.92733065972357,0.20619134658263935
315.0,-99.86012572275442,-65.22199467935165,0.20516038984972615
316.0,-0.7483492212398142,-65.65582881286394,0.2041345879004775
317.0,-77.2766338661476,-66.03752155732039,0.2031139149609751
318.0,-265.0742974142991,-68.89862486192348,0.20209834538617025
319.0,-131.27856832298352,-70.33980304553498,0.2010878536592394
320.0,-58.27697155279224,-70.5518777638104,0.2000824143909432
321.0,5.940688792788099,-70.94955032032937,0.19908200231898848
322.0,-65.18014330675278,-71.91176741807098,0.19808659230739353
323.0,-15.421437612511284,-71.95547141454459,0.19709615934585656
324.0,-120.55964599257787,-72.85936929907051,0.19611067854912728
325.0,-7.1493399416070815,-72.15859505026496,0.19513012515638165
326.0,-20.64857072451239,-71.96079048069566,0.19415447453059972
327.0,-24.182692573034018,-71.42649056829215,0.19318370215794672
328.0,-31.17229264139431,-70.83213942698374,0.192217783647157
329.0,-2.4132323628324883,-71.2004635870438,0.1912566947289212
330.0,-42.49906340558623,-72.5272081632743,0.1903004112552766
331.0,-19.435751345361613,-72.55284633912181,0.18934890919900021
332.0,-12.19605992447116,-73.24014006795773,0.18840216465300522
333.0,25.697803163961105,-72.67677018177947,0.18746015382974018
334.0,-4.502558489762217,-70.15048732940586,0.1865228530605915
335.0,-107.07168433560868,-71.67349718857206,0.18559023879528855
336.0,-12.66706457590441,-71.06316840935585,0.1846622876013121
337.0,3.578615880301035,-71.18226745183625,0.18373897616330553
338.0,-30.790096897993273,-70.48617833674929,0.182820281282489
339.0,-26.83535003156257,-68.63453888075988,0.18190617987607657
340.0,-185.0850470798636,-70.39139929276152,0.18099664897669618
341.0,-42.270816553202664,-70.85457021819553,0.1800916657318127
342.0,-64.41514824198345,-69.40255676827981,0.17919120740315364
343.0,6.704728326743419,-69.40328364691722,0.17829525136613786
344.0,-92.48884766260626,-69.87578800570117,0.17740377510930716
345.0,-67.61758668003826,-68.1676397960541,0.17651675623376062
346.0,-315.33772029300223,-70.34865077743297,0.1756341724525918
347.0,-48.929452850286175,-69.43680664749635,0.17475600159032884
348.0,-10.01156683727612,-67.48691576762435,0.17388222158237718
349.0,-29.822337115955264,-65.5744595879288,0.1730128104744653
350.0,21.640480669436016,-64.94836319776662,0.17214774642209296
351.0,162.03047704576102,-63.20850326038051,0.1712870076899825
352.0,-81.68242460814152,-62.544384034674366,0.17043057265153258
353.0,-53.47359443911553,-63.19237330035481,0.16957841978827493
354.0,195.58637304766347,-60.6252768070825,0.16873052768933355
355.0,-20.753751324915505,-60.416187486446546,0.1678868750508869
356.0,38.92201429557679,-58.440790464710375,0.16704744067563246
357.0,73.04913362489556,-56.13020383627973,0.1662122034722543
358.0,12.680120424596529,-55.96805004757091,0.16538114245489302
359.0,-44.25131919865417,-55.67308606296375,0.16455423674261854
360.0,30.762703209988672,-54.26500128669769,0.16373146555890544
361.0,58.814443792318066,-51.49070679599715,0.16291280823111093
362.0,-9.434329215902773,-50.0906243051509,0.16209824418995536
363.0,31.648447217283433,-48.39859942217076,0.16128775296900558
364.0,176.74022897760256,-46.00864206313762,0.16048131420416054
365.0,13.366939945126216,-44.11185458581363,0.15967890763313974
366.0,105.02133820764548,-42.76681987543744,0.15888051309497406
367.0,57.12219274155413,-41.79476840965822,0.1580861105294992
368.0,56.53881146720829,-40.75980877933097,0.1572956799768517
369.0,-22.101299218272903,-39.85022447113512,0.15650920157696743
370.0,-21.372945838129336,-38.47451182613783,0.1557266555690826
371.0,-29.21192515117576,-37.96900789275401,0.1549480222912372
372.0,-68.25196618924492,-38.19614674224951,0.15417328217978102
373.0,25.59628642600712,-37.575070291214594,0.1534024157688821
374.0,243.9188027624151,-34.01835594169104,0.1526354036900377
375.0,217.89172640136053,-31.675599355020466,0.1518722266715875
376.0,258.54939899302104,-27.959354309699265,0.15111286553822956
377.0,138.38189588411996,-25.76026889632078,0.15035730121053842
378.0,-76.11293030884782,-25.29904368684467,0.14960551470448571
379.0,217.92622454555342,-21.48712567765944,0.14885748713096328
380.0,141.21024152707264,-19.86027826012796,0.14811319969530845
381.0,221.20600971146519,-17.593209154725233,0.1473726336968319
382.0,-74.93445766577194,-17.284275394570763,0.14663577052834775
383.0,41.90176224174171,-17.299093527502155,0.14590259167570602
384.0,126.03711193227912,-15.018827294351208,0.1451730787173275
385.0,251.90666924666564,-11.008790478665867,0.14444721332374086
386.0,171.50680144193927,-8.548409940475857,0.14372497725712216
387.0,-299.1963619361283,-11.671847498953534,0.14300635237083656
388.0,8.227894982512339,-11.955860771555162,0.14229132060898236
389.0,67.99949358403325,-11.216870466654631,0.14157986400593744
390.0,-125.09267706606721,-12.602863112114237,0.14087196468590776
391.0,-94.89453257864723,-13.117651106655462,0.14016760486247823
392.0,228.59408844663176,-10.723188117533496,0.13946676683816583
393.0,-72.93989056387215,-9.841640929838714,0.138769433003975
394.0,198.43766712907714,-6.0432580578466775,0.13807558583895513
395.0,19.82656724832047,-4.768535649607245,0.13738520790976036
396.0,-80.31790739629386,-4.040413600570767,0.13669828187021155
397.0,127.66560199893111,-1.1900860115028622,0.13601479046086049
398.0,267.7280537462385,1.9458987618086452,0.1353347165085562
399.0,247.2714110295793,5.974457756641289,0.1346580429260134
400.0,-21.032527696724927,6.118427067064431,0.13398475271138335
401.0,-99.68980429388735,5.265844555025458,0.13331482894782642
402.0,182.00215962619237,7.636725375573269,0.13264825480308728
403.0,43.681709415284594,8.022126971813575,0.13198501352907185
404.0,-206.06751201563839,6.005278309948168,0.1313250884614265
405.0,260.1687517694693,7.832584390356142,0.13066846301911936
406.0,-73.62973578280054,8.690369961166896,0.13001512070402377
407.0,118.33111989932273,10.249018203211422,0.12936504510050365
408.0,214.99669818567003,12.92780122416828,0.12871821987500112
409.0,243.32063230959727,15.194060554005905,0.12807462877562611
410.0,-4.017958039764146,16.51427188508307,0.12743425563174798
411.0,164.35326846018165,17.818946469927486,0.12679708435358925
412.0,-43.88397783761165,17.76394576812126,0.1261630989318213
413.0,-159.69924118927065,17.26188753296476,0.1255322834371622
414.0,-226.41128165460884,14.848107849897415,0.12490462201997637
415.0,229.70044637283175,18.14371357085328,0.1242800989098765
416.0,269.64914358387546,20.847688498904425,0.12365869841532712
417.0,227.51343682324506,23.895589205798355,0.12304040492325048
418.0,56.51251905032068,27.11145737044456,0.12242520289863423
419.0,217.05238596456041,30.594766913319994,0.12181307688414106
420.0,93.58770875156699,32.11341371636359,0.12120401149972035
421.0,244.60889610682025,34.50009578950391,0.12059799144222175
422.0,266.25967569277117,37.81449397949915,0.11999500148501063
423.0,-118.1275297525279,36.78743305809898,0.11939502647758558
424.0,-159.96435365860134,36.39338598143875,0.11879805134519765
425.0,-76.68084613187987,35.69807091953602,0.11820406108847166
426.0,-8.941922173219353,35.81513740504895,0.1176130407830293
427.0,-145.33437394253016,34.603620591353994,0.11702497557911415
428.0,-75.26797615976264,34.16266375617031,0.11643985070121858
429.0,253.024182693646,36.717037906735094,0.11585765144771248
430.0,-89.16833953203265,36.25034514547062,0.11527836319047392
431.0,-99.7623804856979,35.44707885406726,0.11470197137452155
432.0,273.13855973165926,38.30042505062856,0.11412846151764894
433.0,-45.24127350466938,37.591034283942264,0.1135578192100607
434.0,5.666582846848478,37.69272569730837,0.11299003011401039
435.0,255.62101754885094,41.31965271615298,0.11242507996344034
436.0,-109.21870434438853,40.35413631846813,0.11186295456362313
437.0,62.768519224888564,40.946035351914006,0.11130363979080501
438.0,193.70418912331303,43.190978212127064,0.11074712159185099
439.0,192.8145760208982,45.387477472651675,0.11019338598389174
440.0,-56.865541113471444,46.66967253231559,0.10964241905397228
441.0,-77.59370269062588,46.316443670941354,0.10909420695870241
442.0,202.44599667783865,48.98505512013958,0.1085487359239089
443.0,-11.286987742900951,48.80513795944314,0.10800599224428936
444.0,138.39461314199954,51.11397256748919,0.10746596228306791
445.0,-67.73836475920302,51.11276478669755,0.10692863247165257
446.0,-76.80478761976863,53.49809411342988,0.1063939893092943
447.0,-42.13465119407722,53.56604212999196,0.10586201936274783
448.0,87.71235135218373,54.54328131188657,0.10533270926593409
449.0,61.6768301311656,55.45827298435777,0.10480604571960442
450.0,-97.65304987724215,54.265337678891,0.1042820154910064
451.0,137.64438374840958,54.02147674591749,0.10376060541355137
452.0,234.99124344883845,57.188213426487295,0.1032418023864836
453.0,31.534168149814803,58.03829105237659,0.10272559337455119
454.0,-76.6397971399949,55.31602935050001,0.10221196540767843
455.0,267.87219647400576,58.20228882848923,0.10170090558064004
456.0,262.3358638718049,60.4364273242515,0.10119240105273684
457.0,-26.12696893504838,59.444666298652066,0.10068643904747315
458.0,273.1318142865963,62.04918323727206,0.10018300685223579
459.0,260.3182460369917,65.0948788896285,0.0996820918179746
460.0,246.52080135305417,67.25245987105917,0.09918368135888474
461.0,19.37891565458007,66.8581045896818,0.09868776295209031
462.0,-37.02769956684803,66.58217088617234,0.09819432413732986
463.0,23.928811391371724,66.50497452791322,0.09770335251664321
464.0,244.48438803713398,67.18241611850853,0.09721483575406
465.0,159.88734142646007,68.64762013332187,0.09672876157528969
466.0,-71.99496046506106,66.87745714659481,0.09624511776741324
467.0,187.59764416375572,68.18221166081682,0.09576389217857617
468.0,184.15770683965462,69.45840061454129,0.09528507271768329
469.0,-46.395705096924615,69.21545655575477,0.09480864735409487
470.0,261.6567855500438,72.04575386963648,0.0943346041173244
471.0,230.75861196581002,74.64545924080635,0.09386293109673778
472.0,-366.19907549250115,71.6659881477738,0.09339361644125409
473.0,-178.02170851154392,69.62980819839828,0.09292664835904782
474.0,0.3017662744739198,67.19363783351888,0.09246201511725258
475.0,257.2580579140857,67.58730114864613,0.09199970504166631
476.0,-43.839814909432604,64.5634090096216,0.09153970651645797
477.0,-44.20782974624154,62.73751175331799,0.09108200798387568
478.0,244.63041667725332,65.94494522317899,0.0906265979439563
479.0,-57.68583137177089,63.18882466400574,0.09017346495423652
480.0,219.3567228745278,63.9702894774803,0.08972259762946533
481.0,-153.87020221135072,60.21952735825212,0.089273984641318
482.0,212.6957635062745,63.0958295699726,0.0888276147181114
483.0,279.71514335382557,65.47396338109343,0.08838347664452084
484.0,210.23103590723258,66.31590262084298,0.08794155926129824
485.0,278.71268169977407,66.58396274537407,0.08750185146499175
486.0,247.21335290666937,67.34102826002136,0.08706434220766679
487.0,274.70101869840755,73.08000206636672,0.08662902049662846
488.0,270.6721246799214,75.70444436334081,0.08619587539414532
489.0,215.80624184437985,77.18251184594428,0.08576489601717459
490.0,235.97372220115795,80.79317583861652,0.08533607153708872
491.0,230.1555638152114,84.04367680255513,0.08490939117940327
492.0,66.96704424246329,82.42740636051343,0.08448484422350626
493.0,-8.710100472387115,83.0697042614283,0.08406242000238873
494.0,-79.14508291989624,80.29387676093853,0.08364210790237678
495.0,45.33213030513529,80.54893239150668,0.0832238973628649
496.0,213.1385204341302,83.48349666981092,0.08280777787605056
497.0,-9.243209080213347,82.11440855901948,0.08239373898667031
498.0,237.41059167669357,81.81123393832404,0.08198177029173696
499.0,4.577642397804158,79.3842962520063,0.08157186144027828
500.0,235.48963161719246,81.94951784514545,0.0811640021330769
501.0,-18.78330202970176,82.75858286778731,0.08075818212241151
502.0,-42.01786769954546,80.51838259452994,0.08035439121179945
503.0,-64.02427648905916,79.4413227354865,0.07995261925574046
504.0,211.0237734838835,83.6122355904817,0.07955285615946175
505.0,-22.648221263421,80.78406586015281,0.07915509187866444
506.0,204.37431543070824,83.5641063722879,0.07875931641927113
507.0,166.60893788247756,84.04688455211947,0.07836551983717477
508.0,251.9818023724276,84.41673559398703,0.07797369223798889
509.0,238.0479949381896,84.36400922027295,0.07758382377679894
510.0,-21.075235970796257,84.19343644096263,0.07719590465791494
511.0,213.97159724763125,84.68961972883712,0.07680992513462537
512.0,217.5692780049447,87.3041522872627,0.07642587550895225
513.0,-61.67765332002037,88.28436816595519,0.07604374613140748
514.0,4.1716525465146646,90.59019750796644,0.07566352740075044
515.0,228.22194614269435,90.57541250566504,0.07528520976374668
516.0,-29.585503125859525,87.58306603856771,0.07490878371492794
517.0,242.0485145161816,87.72841681549706,0.0745342397963533
518.0,194.3836760680183,89.10712838567406,0.07416156859737154
519.0,220.46183589908577,89.1412228850193,0.07379076075438468
520.0,220.57156581412738,90.41106145564493,0.07342180695061275
521.0,214.5993250582723,90.11096574515943,0.07305469791585968
522.0,263.41426679289225,90.08251165616065,0.07268942442628039
523.0,-57.71303991634683,90.68665655452243,0.07232597730414898
524.0,-31.8957220866545,91.96734287024192,0.07196434741762824
525.0,-98.32765992875547,91.75087473227318,0.0716045256805401
526.0,246.34731545563508,94.30376710856173,0.0712465030521374
527.0,234.23011232426876,98.09941197122971,0.0708902705368767
528.0,242.62781232105067,101.27836985603784,0.07053581918419231
529.0,-92.24171045051699,97.82571092459621,0.07018314008827135
530.0,-298.2561830824162,95.73483248909235,0.06983222438783
531.0,0.2157604323290485,96.73461389827264,0.06948306326589085
532.0,257.1921091776078,96.57514939273213,0.0691356479495614
533.0,-43.1954718653282,96.59560740912553,0.06878996970981359
534.0,-76.15109628809876,95.77743061777605,0.06844601986126451
535.0,287.6335037171458,96.097555479459,0.06810378976195819
536.0,40.95554417506296,97.59929796465353,0.0677632708131484
537.0,223.88959114823967,99.21050868388706,0.06742445445908266
538.0,225.87422214211304,99.53220901407504,0.06708733218678724
539.0,0.20085226502659737,97.60607177651632,0.0667518955258533
540.0,-17.12950668733218,98.0034321207777,0.06641813604822402
541.0,-8.312436218351381,98.69624478550044,0.0660860453679829
542.0,23.735626368906637,96.90914108241114,0.06575561514114299
543.0,-90.5327650647205,96.11668330919294,0.06542683706543727
544.0,-6.920609576474214,94.66353108200818,0.06509970288011008
545.0,228.02297301147863,97.621144459715,0.06477420436570952
546.0,-8.782042729253291,98.30137190862015,0.06445033334388098
547.0,232.47486296081215,101.04746705016908,0.06412808167716157
548.0,6.058710998721068,100.23093064663445,0.06380744126877576
549.0,245.22042260416953,102.06636657136448,0.06348840406243188
550.0,-50.99320984766351,102.53296497166028,0.06317096204211972
551.0,212.53502580772272,103.28187139225342,0.06285510723190912
552.0,165.65799942332066,102.58853895199822,0.06254083169574957
553.0,242.2948667381312,104.69614593788137,0.062228127537270826
554.0,273.1941790905116,108.19448570018645,0.06191698689958447
555.0,253.4635784441732,108.0503995198881,0.061607401965086545
556.0,236.68619881781612,107.79390286934822,0.06129936495526111
557.0,-50.22673424075149,107.55290521629117,0.0609928681304848
558.0,277.843245436675,107.60001952779199,0.060687903789832374
559.0,247.81521599203683,107.47498922734243,0.06038446427088321
560.0,-12.66028767335122,104.8831783370784,0.06008254194952879
561.0,207.69438814335388,106.76633306196617,0.05978212923978115
562.0,239.60550032059243,109.53266506084056,0.05948321859358224
563.0,-51.12785426355547,108.78209840429128,0.05918580250061433
564.0,-30.021738052756096,106.03703714339237,0.058889873488111255
565.0,87.97830810348388,105.31794681016261,0.058595424120670696
566.0,34.23428180976529,106.38023923291087,0.05830244700006734
567.0,185.98759462123093,106.36413873748563,0.058010934765067
568.0,260.3117075065601,107.12567874415467,0.05772088009124167
569.0,288.21404723889646,110.4717762675129,0.05743227569078546
570.0,273.3799232266696,110.58900764427914,0.05714511431233153
571.0,-40.62637107115587,107.8751578139095,0.05685938874076987
572.0,252.17724239898516,114.05892099282435,0.056575091797066025
573.0,36.87818207892931,116.20791989872909,0.056292216338080694
574.0,270.6675693466202,118.91157792945056,0.05601075525639029
575.0,-86.35226613548066,115.47547468895489,0.05573070148010834
576.0,239.5278190910677,118.30915102895989,0.0554520479727078
577.0,239.90904740359252,121.15031980045822,0.05517478773284426
578.0,232.71826011243002,121.03119823481,0.05489891379418004
579.0,255.38677035735176,124.16192425210122,0.05462441922520914
580.0,247.00245331982143,124.43838155655416,0.0543512971290831
581.0,276.47610281397624,128.7418446068074,0.05407954064343768
582.0,249.66640488934783,129.11155102063813,0.05380914294022049
583.0,261.52754069369684,128.92967499403684,0.05354009722551939
584.0,256.1738498351514,129.38910313331604,0.05327239673939179
585.0,204.02105489322543,128.64218686525055,0.053006034755694834
586.0,-85.51650580806393,125.31488827810323,0.052741004581916356
587.0,281.3900795943719,125.38177888706286,0.052477299559006776
588.0,162.96595104157478,124.30471715067941,0.052214913061211746
589.0,-57.008832168834914,121.57656641054727,0.05195383849590569
590.0,251.80812410005325,121.73491042953623,0.05169406930342616
591.0,-69.62633004038234,118.73709149098028,0.05143559895690903
592.0,-52.22356905594543,117.54518535799617,0.051178420962124486
593.0,247.83266605865117,120.11061302330658,0.05092252885731386
594.0,249.27603939786218,123.39482424648416,0.05066791621302729
595.0,246.57836154000935,125.4072865588329,0.05041457663196215
596.0,229.70642446152263,125.57296559910682,0.050162503748802344
597.0,259.6973795370655,128.2623714852796,0.049911691230058335
598.0,238.8626171236751,128.2768917397494,0.04966213277390804
599.0,3.3805239611886293,128.26492055538324,0.0494138221100385
600.0,-358.62108852181905,122.32381335399316,0.04916675299948831
601.0,252.648043076773,125.03812680505791,0.04892091923449087
602.0,160.95385222861236,127.06784400433949,0.04867631463831842
603.0,231.06213482477597,130.01870811747784,0.048432933065126825
604.0,215.76318975891866,130.0661022802282,0.048190768399801194
605.0,266.6110046644098,132.9586945395065,0.04794981455780219
606.0,35.66148489250233,131.2715662341244,0.04771006548501318
607.0,-22.238916777938982,129.38308768752026,0.047471515157588115
608.0,252.3297309169074,129.38656697296506,0.047234157581800176
609.0,-181.49953626341,125.19109166094906,0.046997986793891174
610.0,9.17315445891866,125.49357556524619,0.04676299685992172
611.0,282.1502755867068,126.17536234863695,0.04652918187562211
612.0,234.39622793102996,126.34363184789783,0.046296535966244
613.0,-142.33240043063904,125.53708437679164,0.046065053286412784
614.0,278.7827301673117,128.2831951529996,0.04583472801998072
615.0,203.96248902571546,128.0406005818298,0.045605554379880814
616.0,209.94751643904863,130.43593077747886,0.04537752660798141
617.0,283.0099390397599,130.84554502271465,0.0451506389749415
618.0,280.90399031555046,131.71074816518995,0.044924885780066794
619.0,214.84744980548925,131.654604304254,0.04470026135116646
620.0,-77.00985090109779,128.67879013710174,0.04447676004441063
621.0,29.43187191818683,126.82711560570091,0.04425437624418858
622.0,256.52192361594666,126.75819217393146,0.04403310436296763
623.0,243.95231103015448,129.77484568339648,0.043812938841152796
624.0,-51.72595575710706,129.57654334669195,0.04359387414694703
625.0,259.7357793665846,133.15717773964536,0.043375904776212296
626.0,245.063305196581,133.14433763705483,0.043159025252331236
627.0,-4.394535533388819,130.75809115847827,0.04294323012606958
628.0,256.1003944668905,130.89281697993664,0.04272851397543923
629.0,271.55611067321047,134.53079519117392,0.04251487140556204
630.0,226.6461486990175,139.77981850898826,0.04230229704853423
631.0,262.0773320547471,142.39843422521244,0.04209078556329156
632.0,263.6182710153795,142.46269584359015,0.0418803316354751
633.0,240.82502825798608,145.3029008448233,0.041670929977297724
634.0,96.93184847935157,147.0337302924978,0.04146257532741124
635.0,-17.506630164867232,143.98232895367767,0.04125526245077418
636.0,248.40395934482802,146.05681310537534,0.04104898613852031
637.0,246.4930116025311,146.28284730991825,0.04084374120782771
638.0,17.624014579861026,144.20034523429572,0.04063952250178857
639.0,271.07492703481455,146.9090859819936,0.04043632488927963
640.0,248.17244227993228,149.56210547166623,0.04023414326483323
641.0,242.212900148465,152.0673588353344,0.040032972548509065
642.0,197.62443702350453,153.8062469418804,0.03983280768576652
643.0,168.64706986908155,156.3980452912184,0.03963364364733769
644.0,242.20280064354,158.88927939341852,0.039435475429100995
645.0,253.86425741061072,159.14769223740987,0.03923829805195549
646.0,-11.515900893375346,159.12035365576864,0.03904210656169572
647.0,263.3351615719439,159.42895664187995,0.03884689602888724
648.0,258.94562203020956,161.95782575219485,0.0386526615487428
649.0,260.56706296483185,162.11129215580146,0.03845939824099909
650.0,240.12706953044386,165.02249494958255,0.03826710124979409
651.0,-35.17438281124649,162.54540086339287,0.038075765743545126
652.0,25.32529652417395,161.14207383440137,0.0378853869148274
653.0,251.9042383427511,161.2381675504476,0.03769595998025326
654.0,-30.830555801480283,158.1979202015277,0.03750748018035199
655.0,14.439293059948625,155.80767734768543,0.037319942779450235
656.0,294.5706013325071,156.38652137283233,0.037133343065552986
657.0,29.145200768813254,157.180240722928,0.03694767635022522
658.0,43.9237226518303,154.84104549507956,0.036762937968474095
659.0,237.4943814375893,154.73783714953507,0.03657912327863173
660.0,-55.33500840837503,154.31108994218482,0.036396227662238566
661.0,-13.252388167207371,152.10162217907921,0.03621424652392737
662.0,8.190956127977387,149.78747673715304,0.036033175291307735
663.0,210.8188296324645,152.40694357611324,0.03585300941485119
664.0,292.1298544991504,155.6284595016323,0.035673744367776934
665.0,14.821810822237296,154.89689452881987,0.03549537564593805
666.0,243.8366071388313,156.9929177821105,0.035317898767708356
667.0,242.4431617232626,157.55747345313083,0.03514130927386981
668.0,211.28717139946377,157.06722809205988,0.03496560272750046
669.0,21.51238010721127,154.40021142074303,0.03479077471386296
670.0,215.45368625839862,153.82094905106032,0.03461682084029365
671.0,242.69854166960044,156.65419817846788,0.034443736736092176
672.0,213.21695877685258,156.26459534224657,0.034271518052411715
673.0,240.07773340798207,158.29659085553706,0.034100160462149656
674.0,264.4177198364458,158.2340923604353,0.03392965965983891
675.0,97.87949830950531,160.07641000488516,0.033760011361539714
676.0,217.10739949995673,159.85220580897405,0.03359121130473201
677.0,260.46524765320953,160.05776781147023,0.033423255248208356
678.0,28.497886171609167,158.01556407206203,0.03325613897196732
679.0,126.23199681845236,156.72401633667306,0.03308985827710748
680.0,16.63426972918461,154.42033450076667,0.032924408985721944
681.0,35.99247819347332,152.01549825456166,0.03275978694079333
682.0,251.55079401888943,152.03434214585707,0.032595988006089364
683.0,8.706499443636375,149.50613173335645,0.032433008066058915
684.0,270.5668440993667,149.65006167599861,0.03227084302572862
685.0,17.481591812908363,147.78466704519545,0.032109488810599975
686.0,27.65567788427478,148.91638888211884,0.031948941366546975
687.0,237.95484625557242,148.48203654873083,0.03178919665971424
688.0,265.4272528570011,149.5066495668851,0.03163025067641567
689.0,-6.608232183261683,150.01065556674084,0.03147209942303359
690.0,-0.8212904266168835,147.48436142147412,0.03131473892591842
691.0,29.689280190026068,148.47751752377823,0.031158165231288826
692.0,15.796193951692146,149.1577151538546,0.03100237440513238
693.0,266.6930643555978,149.34631913682406,0.030847362533106718
694.0,230.23911775908857,149.1559499204363,0.030693125720441184
695.0,181.9965024585792,148.51013132962203,0.030539660091838977
696.0,261.64372739974203,148.8295043590042,0.03038696179137978
697.0,89.49191654817623,147.1274497291153,0.030235026982422884
698.0,259.7503368479099,147.33632692635769,0.030083851847510768
699.0,233.2061454428269,149.63458314117406,0.029933432588273214
700.0,244.28176116302643,155.66361163802253,0.029783765425331846
701.0,262.44773975453535,155.76160860480016,0.029634846598205186
702.0,283.53158043396525,156.98738588685367,0.02948667236521416
703.0,233.60016007958217,157.01276613940172,0.029339239003388088
704.0,-5.32342807552322,154.8018999610573,0.029192542808371146
705.0,260.55452180011594,154.74133513241435,0.02904658009432929
706.0,272.2769099158425,157.10748938264777,0.028901347193857643
707.0,254.40476276591932,159.87392617808635,0.028756840457888354
708.0,27.810842292083084,157.62873729183812,0.02861305625559891
709.0,51.011349474030965,159.95384614921252,0.028469990974320916
710.0,243.5499426416645,162.29761403103998,0.02832764101944931
711.0,207.23776578381597,161.54848893301104,0.028186002814352063
712.0,-25.84970021280699,158.94602965157267,0.0280450728002803
713.0,247.59476167157678,162.84530127259484,0.0279048474362789
714.0,11.548895212473184,160.17296292304644,0.027765323199097504
715.0,271.7556394772404,160.85089442756168,0.027626496583102015
716.0,49.723971711819246,159.2486589802894,0.027488364100186506
717.0,212.12188553616852,158.53977844525352,0.027350922279685573
718.0,64.15753403595534,156.37231388245758,0.027214167668287145
719.0,241.95133257653714,156.64335271016805,0.02707809682994571
720.0,235.05994457227666,159.76405066490182,0.02694270634579598
721.0,229.85546724053688,161.76828661812527,0.026807992814067
722.0,248.18778001192362,161.68494518208504,0.026673952849996664
723.0,27.036435290583725,159.51578642468934,0.02654058308574668
724.0,259.3708732446363,162.62675471470678,0.026407880170317945
725.0,255.04661292951047,162.57986305033603,0.026275840769466357
726.0,198.89267444624693,162.1181567428327,0.026144461565619025
727.0,229.69187787879045,164.4590208769545,0.02601373925779093
728.0,246.9196616019692,164.36721354830527,0.025883670561501974
729.0,276.2956322736652,164.4146087643098,0.025754252208694463
730.0,274.90772358430286,164.89722451316266,0.02562548094765099
731.0,2.5722118443501927,162.3021733110587,0.025497353542912736
732.0,298.62045852357005,162.6521951861406,0.02536986677519817
733.0,273.3721752113403,162.97766665567414,0.02524301744132218
734.0,-9.718482362552592,161.9111633472551,0.025116802354115567
735.0,141.25665037372528,163.49879615264103,0.024991218342344988
736.0,249.95125159097486,163.5142690751025,0.024866262250633264
737.0,238.18219903732546,163.43116094945046,0.024741930939380097
738.0,-83.96451469414288,162.4152756567104,0.024618221284683196
739.0,268.04904586749217,162.3850168450372,0.02449513017825978
740.0,-2.032536361699755,159.88296705862086,0.02437265452736848
741.0,-45.05427207131949,157.010295336423,0.024250791254731636
742.0,268.85905760660575,157.72264154225402,0.024129537298457977
743.0,261.90167773098636,158.65518762087308,0.024008889611965685
744.0,235.45187715191128,158.58767838595676,0.023888845163905856
745.0,299.14593777003677,159.04049518955105,0.023769400938086327
746.0,260.1709949396921,161.75736414788173,0.023650553933395897
747.0,236.9356089745184,161.49336862190748,0.023532301163728918
748.0,261.632936321742,161.5202417648228,0.023414639657910272
749.0,-164.69675510905404,157.26760358408393,0.023297566459620722
750.0,160.4110915611539,156.47044380439104,0.023181078627322618
751.0,236.5834547705391,159.1880221802089,0.023065173234186005
752.0,25.139351206650005,159.18616272703363,0.022949847368015076
753.0,233.23632744694092,158.99948361807554,0.022835098131175
754.0,256.66129172265926,161.87440209331695,0.022720922640519125
755.0,261.6273192869472,164.3462823555869,0.02260731802731653
756.0,1.9433299636732357,161.4200096418986,0.022494281437179946
757.0,-111.17250091433948,160.01683262506708,0.022381810029994047
758.0,248.06639484193434,162.05825934696813,0.022269900979844076
759.0,244.23326430061528,162.12564817559837,0.022158551474944856
760.0,270.7901944326816,165.38690020400895,0.022047758717570132
761.0,-25.34642631528173,165.2659598225282,0.021937519923982282
762.0,279.16303843035814,167.975680645552,0.021827832324362372
763.0,263.191324646534,168.4994055956927,0.02171869316274056
764.0,-44.52274487244972,165.1328796019767,0.021610099696926857
765.0,78.87500316240043,165.77341152537832,0.021502049198442223
766.0,-48.080279456102076,162.854242659429,0.021394538952450012
767.0,231.1785273023758,162.74159631522014,0.02128756625768776
768.0,37.87522171296354,161.00747681835512,0.021181128426399323
769.0,-46.06055493626339,160.3317474679204,0.021075222784267326
770.0,204.14436854261365,160.21865429076254,0.020969846670345987
771.0,-1.7619084811535686,157.77404978925497,0.020864997436994256
772.0,254.00673820485804,158.18194758353505,0.020760672449809284
773.0,272.950977353952,158.51068002299473,0.020656869087560238
774.0,266.7310236925764,158.53381306155606,0.020553584742122436
775.0,284.65974560857705,160.40161553454675,0.020450816818411825
776.0,-134.18032211925737,156.88873831835463,0.020348562734319765
777.0,4.599516241310923,154.33008100423564,0.020246819920648168
778.0,251.45375687073468,156.5596397112269,0.020145585821044927
779.0,19.665160868426526,155.49397135172663,0.020044857891939702
780.0,-105.75465055910423,154.27008214884373,0.02
781.0,261.7859260171564,156.52801662708055,0.02
782.0,256.29264416339834,156.57543512852567,0.02
783.0,-114.93601056343984,155.3390100284549,0.02
784.0,291.75328724492863,155.55087445991052,0.02
785.0,212.0600587954587,157.49665912973603,0.02
786.0,235.63665028336916,159.57646885372696,0.02
787.0,253.40380300510233,159.73095842122228,0.02
788.0,-119.03630950504571,155.8863227976018,0.02
789.0,38.661163927590934,156.33901675871033,0.02
790.0,266.8671165589909,159.0159008285664,0.02
791.0,250.98949418337023,161.22890296849985,0.02
792.0,21.92075352123726,161.29014856419528,0.02
793.0,8.492158448281756,158.70813950512215,0.02
794.0,-9.311317174010696,156.31263515579113,0.02
795.0,259.24287733718575,157.0850989045772,0.02
796.0,213.71320062808488,156.60579363686062,0.02
797.0,275.1424757565901,158.46229922894474,0.02
798.0,69.74885023343614,156.56228436280003,0.02
799.0,244.24107296862968,156.67263363805807,0.02
800.0,44.75255664561911,154.67734159288398,0.02
801.0,263.0122100855941,154.68298629619457,0.02
802.0,13.614705951474335,151.98381755136964,0.02
803.0,260.54145988696746,152.25323054944351,0.02
804.0,274.8250127574499,155.05471495777326,0.02
805.0,276.0821221613246,155.20999096138533,0.02
806.0,275.42390473926076,155.24146090961952,0.02
807.0,244.3496924524314,155.14091020648465,0.02
808.0,254.67330876842422,157.40953487124804,0.02
809.0,-196.7096484155378,154.93232489235234,0.02
810.0,-8.073839603207404,152.41608706990365,0.02
811.0,0.3575353963128691,150.34728476602862,0.02
812.0,249.08158812584455,153.09659764941514,0.02
813.0,262.8904742546444,153.24955477524583,0.02
814.0,233.57119664440748,155.46977778956514,0.02
815.0,67.29147896347104,153.42513618442746,0.02
816.0,25.722118947713085,153.1851176567864,0.02
817.0,265.54498571243107,153.71934865854902,0.02
818.0,11.244227135324891,153.19021558954273,0.02
819.0,234.49057139482642,153.11560797772563,0.02
820.0,261.2339381711008,153.37734791371386,0.02
821.0,226.27681263452558,153.34156136765375,0.02
822.0,262.5439515598574,153.4851230831331,0.02
823.0,203.8783532762572,155.2535422629898,0.02
824.0,96.31800857898763,153.62301361633334,0.02
825.0,263.9975216835134,153.71252270387336,0.02
826.0,134.78201442746672,153.07141610368555,0.02
827.0,248.3080415295206,153.25757774019286,0.02
828.0,-160.2414108078765,149.1859670160944,0.02
829.0,271.810024263493,149.14111093599269,0.02
830.0,248.3214289982838,148.8752479901325,0.02
831.0,259.9573227267334,151.4490990989563,0.02
832.0,262.9480658072413,151.09237517179304,0.02
833.0,250.8392639987802,150.86704605966742,0.02
834.0,218.89930317048834,153.15322391499782,0.02
835.0,308.7717732922874,154.82837514418344,0.02
836.0,282.7992065851078,155.15685469412475,0.02
837.0,288.0215051068892,155.65524775482044,0.02
838.0,48.538641508821854,156.98027931685007,0.02
839.0,259.85541234788593,156.898342981654,0.02
840.0,218.26621288418806,159.10133047411287,0.02
841.0,268.8771889129997,162.24064508395608,0.02
842.0,252.00998200887256,162.07215432797875,0.02
843.0,40.563238433145585,159.85876993500034,0.02
844.0,252.52000579597387,160.02945122144095,0.02
845.0,-193.27524421611685,155.1052394015794,0.02
846.0,267.2420729300507,155.17595018148302,0.02
847.0,284.28034430822987,155.64939753482014,0.02
848.0,281.73296846896903,155.85039785629237,0.02
849.0,241.890338566515,159.91626879304806,0.02
850.0,285.6380136720712,161.16853801415726,0.02
851.0,31.897568292309757,159.12167914937496,0.02
852.0,235.659724302874,161.22688288033723,0.02
853.0,285.5528914739274,161.75004852060707,0.02
854.0,59.133104144741424,159.77476664482788,0.02
855.0,289.94097759155886,160.057903227874,0.02
856.0,221.81938358252862,162.25666376406255,0.02
857.0,244.51034320911515,165.81349220529708,0.02
858.0,259.0216223360456,165.92304448023822,0.02
859.0,280.0799000571684,166.28151083780372,0.02
860.0,224.07873852883296,165.81439627876523,0.02
861.0,281.6225155460878,168.88408569737896,0.02
862.0,273.69749515532624,168.82943026462866,0.02
863.0,292.1513786654692,169.11903080481798,0.02
864.0,56.96842692804594,170.13394252282293,0.02
865.0,288.163116988133,172.22682366108026,0.02
866.0,246.9294228509603,175.1769206841509,0.02
867.0,254.16619078826926,175.40679731900983,0.02
868.0,27.560011628169605,175.30364521816193,0.02
869.0,284.99945410705544,178.61424530859512,0.02
870.0,262.91491835584355,179.20195080672744,0.02
871.0,273.0103129128539,181.94967302066752,0.02
872.0,32.10202741102751,179.73062591272918,0.02
873.0,268.13847113822754,179.68250085057193,0.02
874.0,276.34583754611884,179.77864898910735,0.02
875.0,35.15769938807813,177.28362852690236,0.02
876.0,266.300972612752,181.28844147422242,0.02
877.0,234.52249040706891,183.58767121588,0.02
878.0,243.15643258911263,183.50469797306377,0.02
879.0,56.83076239367705,183.87635398831628,0.02
880.0,268.17604779385886,187.61566097184593,0.02
881.0,17.32974433600218,185.1710991550344,0.02
882.0,-21.370279860419203,182.39446991479622,0.02
883.0,249.946781454339,186.04329783497397,0.02
884.0,273.45764912140964,185.8603414537388,0.02
885.0,235.05643172820288,186.09030518306622,0.02
886.0,37.245747495933244,184.1063961551919,0.02
887.0,77.55998221026158,182.34795794724351,0.02
888.0,62.78180353129261,184.16613907760689,0.02
889.0,259.2514841670802,186.37204228000178,0.02
890.0,258.18127860785324,186.2851839004904,0.02
891.0,19.91723575913244,183.974461316248,0.02
892.0,29.72743009950105,184.05252808203065,0.02
893.0,259.03498774927596,186.5579563750406,0.02
894.0,280.85075341842924,189.459577080965,0.02
895.0,42.57310313904199,187.29287933898354,0.02
896.0,-20.228380035326154,184.95346353234945,0.02
897.0,-41.20241869179014,181.7900145878656,0.02
898.0,60.51776329566866,181.697703718488,0.02
899.0,263.81219487386215,181.89341493754029,0.02
900.0,40.969350745963936,181.85558287854371,0.02
901.0,276.59675918866833,181.9914283695745,0.02
902.0,271.4036211309441,184.56931752136916,0.02
903.0,5.366292798038913,182.01756585047988,0.02
904.0,34.65818948009152,179.6158976177063,0.02
905.0,50.14422834163571,177.35651867950943,0.02
906.0,2.5150222434281915,174.62742985455108,0.02
907.0,279.4303559867707,174.97823648989447,0.02
908.0,218.4427447606358,174.61593084981658,0.02
909.0,58.18680381281658,177.16489537210012,0.02
910.0,25.862152715454528,177.50425529528673,0.02
911.0,278.71470246697936,180.28782696599342,0.02
912.0,273.0260751469182,180.52727183620414,0.02
913.0,20.503667935969986,178.1034037730174,0.02
914.0,252.5176021018434,178.29286782759175,0.02
915.0,253.47139648605017,180.15466700281755,0.02
916.0,248.05804458055553,182.378026259146,0.02
917.0,249.41602146566305,182.21673661667836,0.02
918.0,247.34590875750845,184.57775343290018,0.02
919.0,285.3960887305944,185.08680860625785,0.02
920.0,289.4342160533064,185.36881138507985,0.02
921.0,28.66928988872948,183.39273615762195,0.02
922.0,277.6988636552461,183.5442852785758,0.02
923.0,207.0289487690232,183.57579123350348,0.02
924.0,256.24917849156236,185.17510293262924,0.02
925.0,309.14265599515386,185.62655427574563,0.02
926.0,262.54038572730644,186.904137988744,0.02
927.0,20.971550369669302,184.6307730771455,0.02
928.0,264.2073383607903,188.87526056883212,0.02
929.0,267.80949931905076,188.83525531938773,0.02
930.0,255.0562584534201,188.9026036139391,0.02
931.0,271.1692170742082,189.01472255741388,0.02
932.0,-37.22223952040318,186.01301950413742,0.02
933.0,269.49006669123565,186.19952753106202,0.02
934.0,250.78615255298195,186.5183960248869,0.02
935.0,23.908431508109786,183.66976260704513,0.02
936.0,-11.970065152917698,180.72206988966485,0.02
937.0,-29.979272475947468,177.54206211383652,0.02
938.0,291.87757463387504,179.97545144508706,0.02
939.0,254.66069025405878,179.92350422414881,0.02
940.0,264.44591313767967,180.3853012266837,0.02
941.0,33.73935246635696,178.03392286221725,0.02
942.0,258.32015616454566,178.097024603774,0.02
943.0,288.85504491475035,180.5799426685901,0.02
944.0,254.57751162082485,180.60051772683858,0.02
945.0,251.58319678168812,185.04910213681663,0.02
946.0,24.861464437882972,182.62529605189494,0.02
947.0,18.502181408171992,179.9675144228944,0.02
948.0,17.95017457840045,177.3296864839887,0.02
949.0,280.69758224870213,177.71775892081055,0.02
950.0,270.0655621628093,177.56203440571792,0.02
951.0,213.88915024205215,179.38195022521538,0.02
952.0,-39.58254935551406,176.6295274886315,0.02
953.0,281.81250096060484,176.59212358349825,0.02
954.0,-37.022872341771716,175.63056381863314,0.02
955.0,271.8420642913178,175.44957468563072,0.02
956.0,266.86560445579465,175.90003689436335,0.02
957.0,272.2765193302736,176.17769865557494,0.02
958.0,-3.034719131113974,173.55713524090334,0.02
959.0,244.75063295151136,173.20384256984676,0.02
960.0,-19.478258908837276,170.76827259547005,0.02
961.0,253.85241207551206,170.49057156076432,0.02
962.0,250.05170622300943,170.25411367144116,0.02
963.0,259.0478435867392,169.92307832065387,0.02
964.0,286.9913770011244,172.22330782138465,0.02
965.0,38.76701459951997,169.72934679749852,0.02
966.0,55.9252000060996,167.8193045690499,0.02
967.0,266.5434924294083,167.9430775854613,0.02
968.0,13.877944402680242,167.80625691320643,0.02
969.0,44.56360090622411,165.40189838119807,0.02
970.0,285.7763400055977,165.6305125976956,0.02
971.0,253.46021788916022,165.43501164745868,0.02
972.0,-35.54731294708438,164.75851824387755,0.02
973.0,292.8287577238236,165.00542110973348,0.02
974.0,310.35252721657935,165.34548800643813,0.02
975.0,10.83610985945505,165.10227211115188,0.02
976.0,271.1138752718585,165.15040113774296,0.02
977.0,292.3712319579678,165.72888855325192,0.02
978.0,229.0381124418275,165.58770535177908,0.02
979.0,247.2992243015977,167.4923899708583,0.02
980.0,23.89511740575375,165.04958066697725,0.02
981.0,28.235828585711005,165.15864150947434,0.02
982.0,253.72904780858423,167.9096347861644,0.02
983.0,253.6693115526333,167.94686008714731,0.02
984.0,253.2748408560507,167.74503200449374,0.02
985.0,54.40039206735855,165.9384716078853,0.02
986.0,255.3419103158109,168.11943323608403,0.02
987.0,249.62320281667752,169.84006544214822,0.02
988.0,251.92172267169525,171.73146463355224,0.02
989.0,273.46085790373274,171.8735583709188,0.02
990.0,56.446775900821876,169.85621334384848,0.02
991.0,280.86580476067377,172.4656990338639,0.02
992.0,258.9625343834502,174.75805007670337,0.02
993.0,78.95802794793309,172.95728047868994,0.02
994.0,273.45301668266205,172.88330311133225,0.02
995.0,-64.05928191245384,171.8169792608173,0.02
996.0,257.486066259511,174.59412372376565,0.02
997.0,265.17705014248475,177.65791841210842,0.02
998.0,293.31393116307356,179.98588009078242,0.02
999.0,246.71994842932787,179.8149576263371,0.02
1000.0,40.28547538505802,179.80811887272802,0.02
1001.0,-59.76175353033087,176.44453374553805,0.02
1002.0,0.3985633120590961,173.73448316734917,0.02
1003.0,280.43123167241765,176.48513255609296,0.02
1004.0,282.22233368840375,178.96077399817608,0.02
1005.0,261.37898658370267,181.07312158059682,0.02
1006.0,301.687287657692,184.06484423473947,0.02
1007.0,282.08419102095957,184.09138258508136,0.02
1008.0,194.2296274122832,183.8492514115978,0.02
1009.0,269.0077174262676,185.9574605477323,0.02
1010.0,267.2258946268703,188.37109796684646,0.02
1011.0,-13.304894660845846,185.4509019955682,0.02
1012.0,189.34944996612947,184.61413574376027,0.02
1013.0,200.44436722225686,186.41354273662316,0.02
1014.0,272.87097649529824,186.61707648055773,0.02
1015.0,266.9420177412258,186.75178269310948,0.02
1016.0,43.4105164657679,184.7053074119616,0.02
1017.0,263.53661601222416,184.84651335742726,0.02
1018.0,267.45498558364613,185.04760412568862,0.02
1019.0,60.667310618709195,182.80031634456972,0.02
1020.0,230.9216258090905,182.21519044212758,0.02
1021.0,274.6476306198331,184.6749738494386,0.02
1022.0,-96.76258431049766,180.93035936978117,0.02
1023.0,282.4666572643961,181.68473645473492,0.02
1024.0,279.2432940136764,181.9146776099561,0.02
1025.0,41.60027249000902,179.2392537749046,0.02
1026.0,268.6255777883624,179.30010569551516,0.02
1027.0,261.7590468210698,181.70798066002916,0.02
1028.0,269.8713268840297,181.7646205452616,0.02
1029.0,299.6432823846501,182.08295837591763,0.02
1030.0,-173.96680955409647,177.79272769584242,0.02
1031.0,269.474817090805,177.77578369600843,0.02
1032.0,24.48343678511769,178.39284045906362,0.02
1033.0,31.412467219058072,176.01206446434185,0.02
1034.0,298.26873997871564,176.4868903385992,0.02
1035.0,31.76923354028287,176.56549835892093,0.02
1036.0,6.8220261199286085,176.75341927164936,0.02
1037.0,19.786764711423018,177.25107964352304,0.02
1038.0,257.2503850266213,176.9048077474505,0.02
1039.0,17.747909212757023,174.5356799370375,0.02
1040.0,-28.36171212198154,171.60760368444087,0.02
1041.0,-97.98215123437397,170.2903886474336,0.02
1042.0,30.0741895524898,168.00792898131306,0.02
1043.0,246.82859334867513,167.58766446565227,0.02
1044.0,159.32963744877736,166.63518572393178,0.02
1045.0,300.49108910485603,167.12426464716344,0.02
1046.0,270.03705928784433,169.57602059566307,0.02
1047.0,258.89907877910946,171.9799895693724,0.02
1048.0,-21.336556447013294,171.58712225911825,0.02
1049.0,14.176265949344739,168.9219090961247,0.02
1050.0,238.7190669786034,168.60844414428263,0.02
1051.0,-0.8201822330511703,166.46135081953162,0.02
1052.0,-11.947636376311081,166.73769994932366,0.02
1053.0,252.31686872257427,166.44274362694338,0.02
1054.0,-38.561235184648204,166.42735999851462,0.02
1055.0,275.55389646199063,166.46447832022136,0.02
1056.0,213.83971448151826,165.93421942047854,0.02
1057.0,286.1105256468586,166.07255948364443,0.02
1058.0,286.51863715765546,168.96809304653215,0.02
1059.0,229.41083523893286,168.81469506940633,0.02
1060.0,1.1465602252339977,169.0209432607471,0.02
1061.0,23.54152282519118,166.71783436824387,0.02
1062.0,177.83372618499567,165.99565456786374,0.02
1063.0,224.93706346416448,165.65454676663794,0.02
1064.0,47.42619334746598,163.25889493010135,0.02
1065.0,261.82224387860595,165.48944722289224,0.02
1066.0,268.9056429483213,167.61925165231446,0.02
1067.0,260.239040567141,167.55620713369174,0.02
1068.0,21.95689711442644,167.6369966608092,0.02
1069.0,255.63318454356812,169.74769249718264,0.02
1070.0,283.73409796725133,169.7272700767992,0.02
1071.0,263.5505188637243,169.82817308654484,0.02
1072.0,39.59241206325058,170.5795703366482,0.02
1073.0,268.143441547288,170.33271717488284,0.02
1074.0,292.79694362942234,170.15716133901128,0.02
1075.0,260.31505001409437,172.65195074055765,0.02
1076.0,23.99570432262513,170.18076903106532,0.02
1077.0,26.77598205455189,167.52481653203114,0.02
1078.0,297.00764916677065,168.2045118992806,0.02
1079.0,-3.4299533231170756,165.69722012303347,0.02
1080.0,277.7940895368443,168.2362098443444,0.02
1081.0,295.155716842925,170.9054087269165,0.02
1082.0,5.51841353848927,168.42330238421553,0.02
1083.0,237.2429802746509,168.25903907143575,0.02
1084.0,250.61936498474492,168.23248431272268,0.02
1085.0,277.4655429337807,170.46313582138689,0.02
1086.0,36.237071475625896,168.27208743298502,0.02
1087.0,32.53024400406764,166.10115784485896,0.02
1088.0,255.7350474149437,166.13929109229142,0.02
1089.0,288.28383938225284,166.28752090707664,0.02
1090.0,274.1996205083935,168.46504935315235,0.02
1091.0,284.21803129133025,168.49857161845893,0.02
1092.0,39.881801951595975,166.30776429414038,0.02
1093.0,276.37014757516937,168.28188549041275,0.02
1094.0,277.749279491508,168.32484811850122,0.02
1095.0,252.40818956373352,171.48952283326307,0.02
1096.0,268.35165503646135,171.59817872103255,0.02
1097.0,254.66460514800875,171.49305427108783,0.02
1098.0,257.41188353710044,171.1340337948281,0.02
1099.0,280.48379071799206,171.47167221771477,0.02
1100.0,275.8226290542555,173.82704375440673,0.02
1101.0,295.06456673941386,177.37530695710416,0.02
1102.0,288.3018921774046,180.25434024575762,0.02
1103.0,11.470464270049533,177.5647325717339,0.02
1104.0,249.9998523728981,177.24250775857888,0.02
1105.0,-24.683686364186727,174.38188102909996,0.02
1106.0,-63.88315708922261,170.72617658163082,0.02
1107.0,257.7627794227036,170.48296246564823,0.02
1108.0,298.46729997569844,171.52533919128243,0.02
1109.0,256.36597935513487,171.39892181057104,0.02
1110.0,32.07486361094749,169.04741150041184,0.02
1111.0,300.96540352091233,172.19011448222946,0.02
1112.0,267.4849656359141,172.97146963892735,0.02
1113.0,301.1254841640468,173.97828080834523,0.02
1114.0,257.94460357349567,173.82901707912714,0.02
1115.0,-146.35379799863745,169.69605892172854,0.02
1116.0,10.165316284868297,169.36360691991956,0.02
1117.0,-74.6350825684201,165.98188993411307,0.02
1118.0,304.25578890923686,166.349897967369,0.02
1119.0,9.513449894982116,165.83835936013173,0.02
1120.0,251.39772703178318,166.0431203723587,0.02
1121.0,-103.8561821846992,162.25808224431333,0.02
1122.0,9.733019294288795,163.3230382803612,0.02
1123.0,275.34924375720567,163.25186414528926,0.02
1124.0,-29.145077427790795,160.16798043087462,0.02
1125.0,283.0558842782892,162.5825365487574,0.02
1126.0,59.01481378910367,160.48642890876482,0.02
1127.0,246.58805914539923,160.3347190320081,0.02
1128.0,283.0456127017452,160.4664618901853,0.02
1129.0,20.25316580280044,157.67256072436675,0.02
1130.0,273.3641806907174,162.14587062681494,0.02
1131.0,286.9769100153476,162.32089155606036,0.02
1132.0,258.0675945886626,164.65673313409582,0.02
1133.0,279.5957349560068,167.1385658114653,0.02
1134.0,282.0171438534607,166.97604985021277,0.02
1135.0,258.6868801942458,169.24522631675237,0.02
1136.0,267.7566733216609,171.85457278876973,0.02
1137.0,289.8155183791515,174.554860325447,0.02
1138.0,259.32635698739784,174.57562004505473,0.02
1139.0,233.90897483512717,176.7372307012785,0.02
1140.0,285.2235888419592,179.87308371091788,0.02
1141.0,266.4728189867375,183.51763341312898,0.02
1142.0,286.3217865391995,186.08010938299608,0.02
1143.0,230.84592624290534,185.92028271193837,0.02
1144.0,40.88396888028788,184.73582602625348,0.02
1145.0,236.2342992035039,184.09325812723998,0.02
1146.0,49.705660793997026,181.88994414230146,0.02
1147.0,-91.71480778806038,178.3838052766298,0.02
1148.0,253.56715031583065,181.1328423442582,0.02
1149.0,12.94675341943676,181.12054721895913,0.02
1150.0,-170.5545076456957,177.02781147271617,0.02
1151.0,32.4754235405069,177.3607675304517,0.02
1152.0,26.79755944571022,177.74821948867194,0.02
1153.0,272.57081803061016,177.95075898175227,0.02
1154.0,223.31783602953425,180.5695496938941,0.02
1155.0,5.317783727045523,177.86718856654466,0.02
1156.0,236.42608450307705,178.09305226676025,0.02
1157.0,310.16378294416893,178.33358483973336,0.02
1158.0,-208.8405026798756,173.37999344135807,0.02
1159.0,247.07706697668874,173.55665575873562,0.02
1160.0,265.850804574281,176.20369820222606,0.02
1161.0,297.51025263981944,178.9433855003724,0.02
1162.0,-43.16117526489391,176.7334364858735,0.02
1163.0,250.4032200414184,176.988098051646,0.02
1164.0,245.16902962391364,178.96552641441048,0.02
1165.0,284.92515443551304,179.1965555199796,0.02
1166.0,270.12955098987675,179.20879460039512,0.02
1167.0,-113.43958848576375,175.47200830986606,0.02
1168.0,49.57012455530693,175.7481405842749,0.02
1169.0,285.60133855548327,176.04782212439403,0.02
1170.0,294.4855992614626,176.15533713733615,0.02
1171.0,261.4942930364245,176.1347748790631,0.02
1172.0,254.88601571809048,178.28771091561148,0.02
1173.0,238.99075375964125,177.996184037735,0.02
1174.0,276.874609275048,177.83696069419125,0.02
1175.0,25.985099653406806,175.49366119058442,0.02
1176.0,28.82076921640345,175.54191183952224,0.02
1177.0,264.6847394381598,177.9209994133583,0.02
1178.0,257.5897359295299,177.52682028098587,0.02
1179.0,63.48271543507357,178.1959469685678,0.02
1180.0,27.60597504413967,175.69406582364073,0.02
1181.0,303.3686800700676,175.77619545591216,0.02
1182.0,28.059718860677066,176.00160850913406,0.02
1183.0,295.7211210632832,176.58638991702034,0.02
1184.0,43.4633830117412,174.51483009729031,0.02
1185.0,13.742765700566537,171.87760232495825,0.02
1186.0,35.26392623691581,171.86787087257116,0.02
1187.0,26.669119453975327,171.80925962707022,0.02
1188.0,0.17008729479759666,169.25361002586874,0.02
1189.0,-23.777486963328982,166.13299676241292,0.02
1190.0,240.43438803775342,165.79534443770652,0.02
1191.0,289.9510802377789,165.85267492717097,0.02
1192.0,51.06832084881381,165.96454011614316,0.02
1193.0,267.65124939824085,165.87735113437387,0.02
1194.0,35.28969006913718,163.45275524015017,0.02
1195.0,226.40557886688208,163.19272913318164,0.02
1196.0,270.1628615256218,163.21084119807327,0.02
1197.0,249.35179352782805,163.15771308187146,0.02
1198.0,273.5757817042338,163.3193520635428,0.02
1199.0,21.127344589573852,160.7257876022586,0.02
1200.0,244.8018369302367,160.41557968101844,0.02
1201.0,46.85536587641744,157.93348767238848,0.02
1202.0,-3.823100748377156,155.01223774313064,0.02
1203.0,258.30578098061517,157.48059091023632,0.02
1204.0,272.61788991856497,157.70677128569298,0.02
1205.0,76.93026306006198,158.72291077993546,0.02
1206.0,-69.85369891177734,158.66320536170994,0.02
1207.0,-53.69151625945399,155.54866240488835,0.02
1208.0,270.39815082071664,155.26797091333853,0.02
1209.0,281.7243892280947,155.52155501206812,0.02
1210.0,33.796970642029976,155.53877608237894,0.02
1211.0,254.31407404849074,155.07226278765472,0.02
1212.0,269.80998941284906,155.09551302542408,0.02
1213.0,-14.946687320920006,151.93479131057435,0.02
1214.0,283.84001382473264,152.19374541308673,0.02
1215.0,61.61850057217677,154.2734683987949,0.02
1216.0,289.86540686025546,157.07046930454877,0.02
1217.0,283.11108168215776,160.64793094705453,0.02
1218.0,43.84156018188028,158.04378865978097,0.02
1219.0,-7.690914864456161,157.8717450121866,0.02
1220.0,76.25257560450692,156.12029349791385,0.02
1221.0,23.289221650102007,157.39174753626185,0.02
1222.0,292.9485168925094,160.22390251224408,0.02
1223.0,267.270943676446,160.14311951143645,0.02
1224.0,-5.078385702883281,160.38378642868554,0.02
1225.0,294.34505262318737,160.49667811213453,0.02
1226.0,282.8587927250581,162.73511790149405,0.02
1227.0,13.973189862816369,160.40896920866825,0.02
1228.0,52.87784815819674,158.10729156323276,0.02
1229.0,59.96933444208591,158.5044532496256,0.02
1230.0,279.5050584569337,158.56586202728778,0.02
1231.0,268.8337577933084,158.38443050506743,0.02
1232.0,1.1584135529367643,155.81533869471016,0.02
1233.0,40.345101170254026,153.42283235685264,0.02
1234.0,261.27551145019777,153.21541603282,0.02
1235.0,-151.5493130231696,149.11305410064583,0.02
1236.0,64.10576025454503,147.07654496997463,0.02
1237.0,256.1700457830087,146.7400902440132,0.02
1238.0,297.93872406136535,147.12621391475287,0.02
1239.0,-9.098699238612696,144.6961371740155,0.02
1240.0,286.0977234212427,144.70487851980832,0.02
1241.0,268.6450445429077,144.72660077537,0.02
1242.0,-152.3213821729978,140.34016908824805,0.02
1243.0,-8.460452630279221,137.94710529951624,0.02
1244.0,12.740845811753246,137.6656740688309,0.02
1245.0,48.53277169503946,135.78865879374624,0.02
1246.0,276.2759954920652,138.05436214072694,0.02
1247.0,-3.8723305641868393,138.93278691296567,0.02
1248.0,49.78474304941926,136.89496284030153,0.02
1249.0,31.379658586751162,137.07929189197466,0.02
1250.0,10.14037691152214,138.88624073754687,0.02
1251.0,266.5299663595008,141.2267861657368,0.02
1252.0,22.500846954734968,141.18381904082705,0.02
1253.0,278.6074804772687,141.24418566529366,0.02
1254.0,65.36542249417369,139.66466152994005,0.02
1255.0,34.231857607685356,139.95380226874641,0.02
1256.0,249.3625723411722,140.08316714712734,0.02
1257.0,259.1580702023846,139.5731100197095,0.02
1258.0,283.5713146526551,144.49722819303486,0.02
1259.0,14.23704337253021,142.16882795699325,0.02
1260.0,264.01640677650994,142.15048397901555,0.02
1261.0,301.85079603782145,142.19388941299553,0.02
1262.0,281.26629015759636,145.43816406722047,0.02
1263.0,41.32817338978481,143.34741360070416,0.02
1264.0,31.966962241877468,141.21539292688377,0.02
1265.0,272.9155117393696,141.09529649992234,0.02
1266.0,272.2645450236971,141.11664644026052,0.02
1267.0,16.393374676026212,142.41497607187844,0.02
1268.0,51.98104303782537,142.43908525670363,0.02
1269.0,52.8003555713054,140.11107542686185,0.02
1270.0,18.992385670126183,137.35614329094847,0.02
1271.0,264.5696041835002,137.38689640241924,0.02
1272.0,286.847238744067,137.706508632679,0.02
1273.0,267.5167176956492,137.99176827203905,0.02
1274.0,256.6149131732204,137.7891713110208,0.02
1275.0,14.824178202766788,137.6775620965144,0.02
1276.0,50.63633262238196,137.89571773057418,0.02
1277.0,4.481946363206291,135.29368979982465,0.02
1278.0,24.099628096336062,132.9587887214927,0.02
1279.0,59.748421573860014,132.9214457828806,0.02
1280.0,253.54679801905303,135.1808540126297,0.02
1281.0,7.7706995550044695,132.2248742074791,0.02
1282.0,1.5880277382341887,131.96015729625466,0.02
1283.0,-26.106609458129995,128.74187999104055,0.02
1284.0,273.73533459872084,131.04459950691034,0.02
1285.0,41.90604299789467,131.3262322798836,0.02
1286.0,275.3667821023463,133.72726083853792,0.02
1287.0,262.9569214685759,136.09013885868393,0.02
1288.0,278.2544072613874,138.87098205834982,0.02
1289.0,49.90885209407412,139.60784544892385,0.02
1290.0,20.07683235632736,137.4042698921096,0.02
1291.0,316.87718713964153,137.67353096112822,0.02
1292.0,34.674289720803074,137.5095906498481,0.02
1293.0,-33.82958916369185,134.49478226422877,0.02
1294.0,261.5760839233723,136.75764620277113,0.02
1295.0,257.86716658013245,137.07226207990362,0.02
1296.0,256.6802774207746,136.93743623885516,0.02
1297.0,261.50217651123614,137.05894006868922,0.02
1298.0,277.9092909929903,137.10227516157678,0.02
1299.0,283.3267982481366,139.72426969816243,0.02
1300.0,286.4198458204911,140.14044978706497,0.02
1301.0,27.243276424115876,139.94432889254196,0.02
1302.0,64.32262421944435,140.6257861422202,0.02
1303.0,150.99762390240107,139.55270457143806,0.02
1304.0,223.8844640566776,139.06537031281917,0.02
1305.0,26.479129698742128,138.56085897920596,0.02
1306.0,41.341935236239635,139.67281532068614,0.02
1307.0,13.21015482100347,140.3418320314907,0.02
1308.0,22.861341550979503,137.86646393879334,0.02
1309.0,67.80366014315226,135.72725664794388,0.02
1310.0,36.2075039899386,135.75136198142297,0.02
1311.0,-60.509490779445535,132.60312633314362,0.02
1312.0,8.878774469911903,129.99381418371425,0.02
1313.0,0.6986986681989578,130.15026804360542,0.02
1314.0,289.56756012503513,130.20754350660846,0.02
1315.0,45.25400821244031,130.0438985830111,0.02
1316.0,27.25600147248562,127.41780452913339,0.02
1317.0,303.32900729192477,127.61998378523107,0.02
1318.0,40.41988908574359,127.58576707426971,0.02
1319.0,40.13756539284569,128.06405187684274,0.02
1320.0,31.960013935488178,127.62112626015254,0.02
1321.0,28.25330180048013,127.67076706165632,0.02
1322.0,282.7655378546375,127.56893727127759,0.02
1323.0,41.99306094430858,125.31615844395621,0.02
1324.0,31.180616699135385,125.6787484679764,0.02
1325.0,39.53461679859208,123.13064410973045,0.02
1326.0,263.1679478352644,122.9337356608325,0.02
1327.0,283.2333073575661,125.62633683578001,0.02
1328.0,40.48856550283341,125.50244400922637,0.02
1329.0,52.39276235893564,125.42667828839487,0.02
1330.0,10.540416700995365,122.7370318708355,0.02
1331.0,281.803303824075,122.86672733114315,0.02
1332.0,31.743491133940665,123.17257810695318,0.02
1333.0,26.851412222123585,123.0376412174719,0.02
1334.0,254.45365325460313,122.96942263551597,0.02
1335.0,5.556906589414638,124.54048483164179,0.02
1336.0,25.888700534594008,124.15831423444226,0.02
1337.0,41.126060301990975,122.00787437963209,0.02
1338.0,45.36187943010077,119.48210593331946,0.02
1339.0,64.80203458077455,120.22111327151332,0.02
1340.0,25.354986319447576,117.61368590049537,0.02
1341.0,36.664961540597346,115.29388507047226,0.02
1342.0,279.99505892015674,119.61704948140382,0.02
1343.0,16.82520616577112,119.86990606936432,0.02
1344.0,253.84927152620398,122.28099032650881,0.02
1345.0,301.0589183703486,124.80625179326192,0.02
1346.0,255.2797873460919,124.59628971180219,0.02
1347.0,278.10940878126314,127.41610710525669,0.02
1348.0,40.97762364420939,127.32803591120457,0.02
1349.0,258.22284374987805,129.59646776283586,0.02
1350.0,38.60677918976384,129.88113178561827,0.02
1351.0,268.7178817371496,129.90301093939476,0.02
1352.0,44.072564472435516,130.11872811457178,0.02
1353.0,52.658715530452184,127.8592404651036,0.02
1354.0,266.04301342366443,129.8660163743985,0.02
1355.0,274.4152275702246,132.2678500740239,0.02
1356.0,8.619464879615876,129.86041899940835,0.02
1357.0,-3.631651821863059,127.23252177916588,0.02
1358.0,8.87359994248925,124.4855446320642,0.02
1359.0,290.0976176902386,127.24415037524128,0.02
1360.0,36.08009090977956,124.96478721657401,0.02
1361.0,40.67764722062333,122.35305572840201,0.02
1362.0,267.97649611472457,122.22015778797329,0.02
1363.0,252.7616149602294,124.33449220367774,0.02
1364.0,279.5709324233439,126.81053190549238,0.02
1365.0,276.5385419131892,126.84676220723058,0.02
1366.0,75.54995386154499,124.87961629560907,0.02
1367.0,266.8084466341681,127.38376701519047,0.02
1368.0,24.459030436910453,127.10854688918134,0.02
1369.0,20.23152985843012,126.78285863205261,0.02
1370.0,7.5034129274177985,126.66796890462551,0.02
1371.0,269.36913361946176,126.71596419898513,0.02
1372.0,-12.023705066103432,123.72725476088343,0.02
1373.0,272.4530306259044,123.77661789018597,0.02
1374.0,40.37343517066245,121.6142031101604,0.02
1375.0,256.4664552627696,124.03062588076041,0.02
1376.0,15.762316864897699,123.68188572318554,0.02
1377.0,266.9743289611617,126.30680954916512,0.02
1378.0,41.101347622707465,126.47682674442882,0.02
1379.0,38.67354017141054,126.26607793040434,0.02
1380.0,7.393571097385646,123.80454566118767,0.02
1381.0,-4.290824273133509,123.6839304229063,0.02
1382.0,288.74525324243655,126.5555026779483,0.02
1383.0,221.18613923521804,129.0284301648818,0.02
1384.0,271.3634573329906,129.00471139222452,0.02
1385.0,249.07062146998425,131.0763571769454,0.02
1386.0,263.7712416769757,130.96040177269168,0.02
1387.0,78.02280523879719,129.11106061039393,0.02
1388.0,60.56487385696613,126.93416527634969,0.02
1389.0,267.2853073949521,129.10792982935848,0.02
1390.0,282.62993357126857,131.73346084150788,0.02
1391.0,267.2474009197222,131.2371629793087,0.02
1392.0,-37.73845913762217,130.51303549072443,0.02
1393.0,269.12566458853485,133.5425880282467,0.02
1394.0,292.14563982890786,133.8482835873021,0.02
1395.0,279.6137351769351,134.06574927327011,0.02
1396.0,-12.417427887425987,131.3747722201881,0.02
1397.0,270.1168881452809,131.46091933652858,0.02
1398.0,30.963509963751164,128.99146152623615,0.02
1399.0,-5.317863840997589,126.1050149053448,0.02
1400.0,17.52689789429627,123.41608542608286,0.02
1401.0,266.2953100078448,125.80660576192012,0.02
1402.0,-83.52459806468406,124.32813353907886,0.02
1403.0,-71.65620990255036,122.10159520102935,0.02
1404.0,282.60932519601823,122.68884381242275,0.02
1405.0,-17.35900349355755,122.25046248049975,0.02
1406.0,274.0887283533779,124.57793041167112,0.02
1407.0,-36.146655041081644,124.08436231305028,0.02
1408.0,249.2391154630498,126.34814005217096,0.02
1409.0,277.6567694283474,128.44667114502295,0.02
1410.0,-55.12039150440931,127.53339219007945,0.02
1411.0,-387.1602348713986,124.26688474915993,0.02
1412.0,247.13174939540505,126.64941449841486,0.02
1413.0,250.24707505679683,129.14489826230084,0.02
1414.0,38.69834577709264,126.6362061188214,0.02
1415.0,291.4251304809652,129.09791734150664,0.02
1416.0,250.69100610942607,131.33226738787607,0.02
1417.0,273.1843661785784,131.0308209767426,0.02
1418.0,-1.350480615026953,130.6131172797349,0.02
1419.0,253.3227834108245,132.74496945991467,0.02
1420.0,-28.522858648930693,132.14014073407048,0.02
1421.0,41.31760781897762,132.27078379425546,0.02
1422.0,8.887769728446827,129.53200611299354,0.02
1423.0,22.486831112454823,129.336943814675,0.02
1424.0,308.28298235447664,132.10796747122842,0.02
1425.0,274.13115195170434,134.45393282275955,0.02
1426.0,45.24847869023745,132.27473813130928,0.02
1427.0,-34.40234719332366,129.0983815858004,0.02
1428.0,28.517457477773974,128.9786705055498,0.02
1429.0,-21.33507232438882,128.24139215871656,0.02
1430.0,32.77389871655237,128.4637269788721,0.02
1431.0,13.75131507502114,125.7832070913816,0.02
1432.0,24.606731494429013,125.71183949498646,0.02
1433.0,268.84002677375355,128.13172564050276,0.02
1434.0,272.7876891316247,128.315065999273,0.02
1435.0,30.717086603380096,128.5666677994126,0.02
1436.0,25.602024943316138,128.56380104349986,0.02
1437.0,5.2386144640552885,128.2049265851205,0.02
1438.0,307.37862572862764,130.82509404810574,0.02
1439.0,265.6618198057961,132.833691900356,0.02
1440.0,244.17784524652802,135.02192048962678,0.02
1441.0,282.156531208998,137.4768361863108,0.02
1442.0,32.65748934868543,135.00346049059607,0.02
1443.0,12.02511843300357,134.95545961326837,0.02
1444.0,13.434437817312315,132.55131127617946,0.02
1445.0,245.62421932035264,131.9969642856795,0.02
1446.0,21.66955937098122,129.66086200592838,0.02
1447.0,263.5624658818611,129.5153925769344,0.02
1448.0,269.4589000415431,131.80020534090775,0.02
1449.0,210.73279418407458,131.3253048452497,0.02
1450.0,29.8268514998187,131.23750556835023,0.02
1451.0,256.6927625892766,131.11725437687153,0.02
1452.0,287.9624344023264,133.55615307617043,0.02
1453.0,257.57836211460847,135.60534954201202,0.02
1454.0,290.7246950260141,135.8521663580355,0.02
1455.0,263.6998497660438,135.7450125799937,0.02
1456.0,15.119247033209504,135.81001040152964,0.02
1457.0,231.58668613705592,138.16219378111882,0.02
1458.0,246.46105245323233,140.53806830622625,0.02
1459.0,40.5729068616304,138.04282119794019,0.02
1460.0,49.519972266200824,138.17722001150437,0.02
1461.0,278.7281469423633,140.5577250087218,0.02
1462.0,0.9584047556590463,137.88754409513112,0.02
1463.0,281.5612017496058,138.17553996302485,0.02
1464.0,15.342510526771221,135.53325574405915,0.02
1465.0,18.414431432042917,132.9520146392477,0.02
1466.0,300.6606789972509,135.20312189060476,0.02
1467.0,24.572450297321353,132.78076192723628,0.02
1468.0,29.03614837104857,132.82653310657767,0.02
1469.0,257.19054296711437,135.1961232376645,0.02
1470.0,273.5404925000436,137.85649403339076,0.02
1471.0,278.6018917128969,137.94882161432514,0.02
1472.0,282.0997147949496,140.89005581293566,0.02
1473.0,48.580697866795106,138.65133248534457,0.02
1474.0,320.6833700656283,141.4544318342942,0.02
1475.0,-1.8633368966248156,138.87113391270026,0.02
1476.0,305.20433579991044,141.7655541020504,0.02
1477.0,265.98376898769567,141.75564850231572,0.02
1478.0,42.032516371062,141.76496018979927,0.02
1479.0,6.402653253693245,141.44225132062212,0.02
1480.0,56.25576292616091,141.93087323890987,0.02
1481.0,296.1785967491254,144.93556744913246,0.02
1482.0,38.38040932367895,142.4319190099449,0.02
1483.0,268.59720734132037,142.9060296910059,0.02
1484.0,299.9611439792692,143.1920065574687,0.02
1485.0,283.87068841438827,143.54000722691273,0.02
1486.0,272.68172630158097,143.6291120731588,0.02
1487.0,139.33233478341472,144.24220736860497,0.02
1488.0,26.835547981494287,143.90491410985024,0.02
1489.0,275.64065108590586,143.98846754675978,0.02
1490.0,25.003866664681937,141.4122068776939,0.02
1491.0,283.5129522318281,141.57486239081496,0.02
1492.0,28.602068321091878,142.2382676654021,0.02
1493.0,33.27595028294314,139.87977052234618,0.02
1494.0,320.4834203037302,140.1631483270944,0.02
1495.0,17.644656741073675,137.5434575427358,0.02
1496.0,252.23631303860026,140.18999495199606,0.02
1497.0,265.5460006091691,140.14428607663496,0.02
1498.0,260.17261225929235,142.43637709959035,0.02
1499.0,257.38854794534257,145.06344121745374,0.02
1500.0,31.593651118889824,145.20410874969969,0.02
1501.0,270.0525936776995,145.24168158639822,0.02
1502.0,303.7580282818345,149.11450784986343,0.02
1503.0,49.258974824026325,150.32365969712922,0.02
1504.0,3.7626581295040467,147.53519302646407,0.02
1505.0,260.67129826803966,150.31549604408002,0.02
1506.0,281.37966162127486,150.388405376759,0.02
1507.0,263.35822826668755,153.3834542098367,0.02
1508.0,-19.338383878422405,150.69767921642196,0.02
1509.0,45.18263738974696,148.37293789603595,0.02
1510.0,237.48705685749968,151.29901237965504,0.02
1511.0,-13.375408001957567,155.03686064834946,0.02
1512.0,-41.548643669359194,152.1500567177018,0.02
1513.0,42.44966045253548,150.07208257165922,0.02
1514.0,275.4731032095492,152.4398301459838,0.02
1515.0,294.24437921348687,152.468022633309,0.02
1516.0,262.4458666748661,152.5855712389634,0.02
1517.0,250.13443519562168,152.35507192913386,0.02
1518.0,313.5266242245145,155.50384297752925,0.02
1519.0,1.650851405770581,152.9871236574787,0.02
1520.0,297.4794919726007,156.247147163694,0.02
1521.0,263.19373773996494,158.46590846290388,0.02
1522.0,258.2421163330864,160.95945192895024,0.02
1523.0,208.54540813995726,162.82003769922528,0.02
1524.0,-191.86422940602844,157.81856558162025,0.02
1525.0,31.830261405989376,155.3955566761631,0.02
1526.0,-0.39330537430215884,154.93913883551767,0.02
1527.0,-352.43260258212007,151.75883628162973,0.02
1528.0,285.55384893297907,154.3292001961818,0.02
1529.0,-39.124744627415126,154.15130347315153,0.02
1530.0,15.92807121390777,153.9828451981251,0.02
1531.0,49.88679190474238,154.34419996642228,0.02
1532.0,308.072864554778,157.1788612970258,0.02
1533.0,227.39609394415567,156.7644219687298,0.02
1534.0,254.0108937721016,156.57665401513458,0.02
1535.0,30.974309343382714,156.57922624253462,0.02
1536.0,21.817487562794412,156.54138086872936,0.02
1537.0,-24.031109739204965,156.2486836266968,0.02
1538.0,243.3801777626445,155.60869914703696,0.02
1539.0,22.500018220215665,153.17708113118115,0.02
1540.0,297.44434073180685,153.70974608603396,0.02
1541.0,38.658124691148544,151.27476202085543,0.02
1542.0,24.49759032057294,151.19316303057428,0.02
1543.0,30.70911876363644,151.38000303388063,0.02
1544.0,30.113682929768288,151.5467954850052,0.02
1545.0,328.22354291436466,152.37278872094532,0.02
1546.0,146.31607852053205,153.61925391244083,0.02
1547.0,28.264140131263872,151.26627065493486,0.02
1548.0,-483.50578200136766,143.73662383450574,0.02
1549.0,49.302857729118784,142.1223244699562,0.02
1550.0,268.4191482667368,144.50824743762533,0.02
1551.0,282.8069446406462,144.76938925813909,0.02
1552.0,40.58235887363446,142.29558850285213,0.02
1553.0,-34.62737992434661,139.3735310824626,0.02
1554.0,14.750160558437429,136.61378573778683,0.02
1555.0,268.05660825336827,136.65735332266007,0.02
1556.0,263.7224014360992,139.14338486668896,0.02
1557.0,258.9539473830606,139.417057479149,0.02
1558.0,252.33694741661247,139.47581642878285,0.02
1559.0,25.385388065563006,139.32394124082214,0.02
1560.0,19.596224559463636,139.02470376375476,0.02
1561.0,41.77300660511108,136.65515236038226,0.02
1562.0,291.6371608039241,139.56193992086492,0.02
1563.0,184.57855601047328,138.5921134634736,0.02
1564.0,279.0431244876728,141.2291196030826,0.02
1565.0,292.83874748581513,143.97336276362034,0.02
1566.0,23.022251877355345,141.19697849242138,0.02
1567.0,-25.53850536186441,140.6958689358295,0.02
1568.0,262.10026944892735,143.0265101466083,0.02
1569.0,54.26048670644363,140.99720958400158,0.02
1570.0,272.98507753012245,140.99165543430234,0.02
1571.0,2.077027325557154,138.22640679042897,0.02
1572.0,24.573140308530398,135.65114104556477,0.02
1573.0,-260.28608538719993,132.56247321302482,0.02
1574.0,25.91344687106377,129.61477398107917,0.02
1575.0,262.85997630822214,132.26200711312765,0.02
1576.0,41.79799809212798,129.62794373604982,0.02
1577.0,285.53725562901343,129.823478602463,0.02
1578.0,322.5894801996883,132.62904824074926,0.02
1579.0,293.7428556607378,135.50245026481971,0.02
1580.0,251.34224102316665,137.45331504578976,0.02
1581.0,255.97741845431185,137.0513032628416,0.02
1582.0,286.762039280682,139.53511956241167,0.02
1583.0,9.59962199598506,136.9451437089583,0.02
1584.0,-76.05733709991348,133.18495889816649,0.02
1585.0,294.11469468372894,133.2873989608599,0.02
1586.0,264.4393908229425,133.2049756060735,0.02
1587.0,43.39385310721741,132.24559078931156,0.02
1588.0,262.3067174963645,134.60030248446026,0.02
1589.0,278.5135114003767,134.62903108760497,0.02
1590.0,-1.0762439932003218,134.36822998102613,0.02
1591.0,21.729257402949784,131.75039303273738,0.02
1592.0,-0.9510353312508499,131.4548619962139,0.02
1593.0,19.426797017118545,131.3163704635557,0.02
1594.0,-19.18375159646088,127.91969874455377,0.02
1595.0,29.733307917408496,128.0405852563171,0.02
1596.0,-267.17335845976925,122.8464885413334,0.02
1597.0,14.069901472764357,120.33172754996936,0.02
1598.0,240.6253433652077,120.13625486102852,0.02
1599.0,36.24788259684047,117.9248482075435,0.02
1600.0,15.711453922191282,117.76602623557652,0.02
1601.0,274.46706331467146,117.81017093194623,0.02
1602.0,14.405833354176792,114.91664898266964,0.02
1603.0,26.082303670329708,114.68488227113266,0.02
1604.0,-34.93743668469685,114.29788132299068,0.02
1605.0,28.346601320317262,111.97463435351347,0.02
1606.0,14.019040452429408,109.30102814182501,0.02
1607.0,283.0508534401128,109.49795439355927,0.02
1608.0,-88.89061272696782,108.8024321050738,0.02
1609.0,18.714782361806783,108.53775355479442,0.02
1610.0,-119.77070692452247,104.96517591697416,0.02
1611.0,46.8346951372512,105.56727694836628,0.02
1612.0,-15.081743624148416,105.83194594881837,0.02
1613.0,-612.1565940026552,99.28588340426646,0.02
1614.0,50.714674523889215,97.03829911740986,0.02
1615.0,269.739967945826,96.79325500473327,0.02
1616.0,274.2799813662522,96.9115961516471,0.02
1617.0,14.929850706106905,94.55955030675197,0.02
1618.0,312.5027585347707,94.54931164985453,0.02
1619.0,-11.095118533547492,94.42185195046135,0.02
1620.0,228.37538405741233,93.73081087130946,0.02
1621.0,63.785643192208084,91.73672992583191,0.02
1622.0,258.77705671885224,91.74207932968957,0.02
1623.0,252.94820592163111,92.1861073075063,0.02
1624.0,7.052417751190859,94.1752737790785,0.02
1625.0,252.0334941455224,96.37730610647382,0.02
1626.0,28.986773319715326,96.67110689341398,0.02
1627.0,261.5017544574366,102.81045046380956,0.02
1628.0,3.6552653864150813,99.9914646283439,0.02
1629.0,13.589725973195229,100.51860933435002,0.02
1630.0,30.54413280876389,100.66476995029858,0.02
1631.0,13.133619722457524,100.29723822847572,0.02
1632.0,255.32904308194583,99.76980001374741,0.02
1633.0,-66.1780877956707,96.83405819634916,0.02
1634.0,277.09099509213786,97.06485920954951,0.02
1635.0,-33.305242911677574,96.42206368699891,0.02
1636.0,37.309333383421745,96.5769821452052,0.02
1637.0,286.07559854114174,99.67804922800866,0.02
1638.0,47.45174674986825,97.71876491788088,0.02
1639.0,0.7626419383410763,97.50139115506214,0.02
1640.0,39.23627251926837,94.91931047293676,0.02
1641.0,42.66611392310833,94.95939036525637,0.02
1642.0,19.668776704515096,94.91110222909579,0.02
1643.0,40.629630213211584,95.01030734359153,0.02
1644.0,4.343883209088631,94.75260934638474,0.02
1645.0,265.36309046880706,94.12400482192916,0.02
1646.0,273.49692158861404,95.39581325260997,0.02
1647.0,299.09088881506466,98.10408073944798,0.02
1648.0,30.113607372235123,103.240274633184,0.02
1649.0,-192.51886979544327,100.82205735793839,0.02
1650.0,25.499365189136512,98.39285952716239,0.02
1651.0,270.05028546240743,98.26529293538,0.02
1652.0,36.304805001330294,98.22251739665695,0.02
1653.0,250.55132328624308,101.07430442876286,0.02
1654.0,289.395750143295,103.82076032461141,0.02
1655.0,16.62665949290617,101.3064608370068,0.02
1656.0,25.03200559761116,98.91955687862192,0.02
1657.0,249.93094843044105,98.82932688909574,0.02
1658.0,272.6918567026138,99.03287598195575,0.02
1659.0,72.33256708319087,99.50234777213204,0.02
1660.0,277.3672259868042,102.08005778640542,0.02
1661.0,296.7730920495527,104.63005864084984,0.02
1662.0,57.93586642466539,102.29304569705724,0.02
1663.0,265.8832637185833,103.10609277413835,0.02
1664.0,265.7452687349994,102.97311421661163,0.02
1665.0,266.33018614190144,102.70802860317252,0.02
1666.0,-3.383715096616868,102.44396893343279,0.02
1667.0,293.6830982380396,105.63618496943181,0.02
1668.0,272.4718212107491,105.73990048705004,0.02
1669.0,292.0520602980282,108.11781622296589,0.02
1670.0,271.55177063545057,108.10348315401917,0.02
1671.0,237.8547242832223,110.46126012359582,0.02
1672.0,49.39631212362991,110.70949184174683,0.02
1673.0,37.23313385268102,113.68468403414562,0.02
1674.0,18.344467780065855,113.60899424323564,0.02
1675.0,246.61060762971175,113.44650055645052,0.02
1676.0,292.3072217289804,115.95159279281903,0.02
1677.0,30.8961912685825,113.40518214921472,0.02
1678.0,29.647966913273024,110.47576701635059,0.02
1679.0,10.747258288804929,107.64581104263127,0.02
1680.0,34.02895162939802,105.47267814869357,0.02
1681.0,224.58367828909766,105.15874074704145,0.02
1682.0,297.8328339587513,105.26944869382214,0.02
1683.0,265.33136278742955,107.8267661017366,0.02
1684.0,293.4172511743114,111.52151198447882,0.02
1685.0,235.20051373855358,110.93237017502707,0.02
1686.0,276.4749900852901,111.05272616765055,0.02
1687.0,-23.172891707060217,110.38705871950775,0.02
1688.0,291.4534317949032,110.67852586249315,0.02
1689.0,45.756432975882944,108.35095507824822,0.02
1690.0,40.274304082422276,108.76446055900446,0.02
1691.0,260.52180421806435,111.15238602715559,0.02
1692.0,-162.43514132177114,109.53754496725038,0.02
1693.0,257.4233121106806,111.917510118186,0.02
1694.0,50.44918063317584,112.61383944048235,0.02
1695.0,122.95306774610943,113.54603703876938,0.02
1696.0,300.6926235974532,119.22469685934162,0.02
1697.0,255.75734136923774,121.64157125830634,0.02
1698.0,291.2710237019692,122.14802806167394,0.02
1699.0,26.536256417670558,122.05091179988226,0.02
1700.0,37.61626727523432,122.26995993341266,0.02
1701.0,271.5728024995847,122.2410173252618,0.02
1702.0,288.1870834773653,124.9788298264937,0.02
1703.0,135.29867896616068,126.07099357945201,0.02
1704.0,0.5111872624565308,126.42547981892353,0.02
1705.0,-51.70726633554568,125.62494114236492,0.02
1706.0,259.0659537772956,128.07541027561356,0.02
1707.0,273.43882286755934,127.97928996988804,0.02
1708.0,35.77840439401473,129.22598014109786,0.02
1709.0,256.94640107860926,131.6082963282659,0.02
1710.0,285.35682611667073,135.65957165867786,0.02
1711.0,23.345074514673144,135.42467545245208,0.02
1712.0,13.295264381400614,135.7084455325075,0.02
1713.0,29.64171060802005,142.1264285786143,0.02
1714.0,263.30919013115766,144.25237373468698,0.02
1715.0,274.5198539706592,144.30017259493533,0.02
1716.0,-92.07628156704315,140.6366099656024,0.02
1717.0,47.12108708712506,140.95852232941255,0.02
1718.0,53.18019614664718,138.36529670553134,0.02
1719.0,258.07422379469756,141.05699012881377,0.02
1720.0,15.59257505811307,138.92916203882078,0.02
1721.0,276.13980210192335,141.05270362791794,0.02
1722.0,257.4262113914242,141.03919517464365,0.02
1723.0,5.617983801416003,138.56589295344148,0.02
1724.0,42.19012930767255,138.9172700690063,0.02
1725.0,272.96721104533174,139.12660723800437,0.02
1726.0,240.0624518891089,141.23736402369832,0.02
1727.0,279.7044098256733,141.41939057738068,0.02
1728.0,215.59391617792772,143.53877708529583,0.02
1729.0,26.099207634528057,143.66387190190915,0.02
1730.0,-261.2246725192974,140.7461838486285,0.02
1731.0,46.79829630180183,141.08283061442197,0.02
1732.0,114.61689331489991,139.6757091167515,0.02
1733.0,22.307941203141624,140.56056940673963,0.02
1734.0,257.48179835422496,140.3644774393605,0.02
1735.0,-18.960337098082505,140.50792649749647,0.02
1736.0,44.25984345087741,140.57743159817102,0.02
1737.0,24.87012579838411,137.96537687074346,0.02
1738.0,220.20254262674803,139.69288482951225,0.02
1739.0,287.86123829751995,142.56387079310406,0.02
1740.0,-10.276355515151295,142.06874451275985,0.02
1741.0,61.846089138992085,142.26054426491868,0.02
1742.0,53.14754041993993,142.59533190207293,0.02
1743.0,-14.85083596038354,142.04052724033693,0.02
1744.0,270.77392227365306,144.70482763098258,0.02
1745.0,278.53057377889263,144.83650246408345,0.02
1746.0,260.2143727552177,144.7036769757495,0.02
1747.0,-56.132536246540155,141.15144272513345,0.02
1748.0,14.402415605490205,140.99433080746599,0.02
1749.0,41.17261272486533,143.3312456326691,0.02
1750.0,53.719841714039035,143.61345039791814,0.02
1751.0,254.95545950514838,143.4625021383455,0.02
1752.0,293.78468118291636,146.0373009001614,0.02
1753.0,264.5208605377792,146.17699627267675,0.02
1754.0,-200.0332071188831,141.28270670005497,0.02
1755.0,251.01180377147057,143.62655814284062,0.02
1756.0,266.4760874738571,146.04099896160307,0.02
1757.0,13.39304722537743,143.67561994955244,0.02
1758.0,24.44120238592201,141.19311340638552,0.02
1759.0,27.4703979313487,140.7444917148671,0.02
1760.0,267.5128900579141,140.6459483555782,0.02
1761.0,283.7957942673196,140.51617537775587,0.02
1762.0,7.546450799807886,140.0122812215073,0.02
1763.0,221.37699503940547,139.56721853471552,0.02
1764.0,262.8033005565545,139.53779885293105,0.02
1765.0,15.059742195696543,137.02509441346902,0.02
1766.0,40.99847364816401,137.46891630091682,0.02
1767.0,-25.85625578691827,134.27352276066722,0.02
1768.0,45.52776896748122,132.00408223823456,0.02
1769.0,272.6731918686528,131.8102935539408,0.02
1770.0,60.89668811496719,129.70374272873593,0.02
1771.0,-40.19395908803601,126.92325589502337,0.02
1772.0,-24.702805188322287,126.18226472190386,0.02
1773.0,270.59875530483407,128.5159209364254,0.02
1774.0,271.06547834499264,131.04313104207466,0.02
1775.0,36.90798424403894,128.94610480821794,0.02
1776.0,290.5898311955453,128.9289309028836,0.02
1777.0,64.10779753374496,129.26104696553523,0.02
1778.0,270.2661337112021,131.66722863351453,0.02
1779.0,291.0702564557927,134.47045861518438,0.02
1780.0,47.5271433161011,134.60544053205143,0.02
1781.0,61.18978342168219,132.97150158337726,0.02
1782.0,275.2497390188155,132.7456706339779,0.02
1783.0,274.4245169005025,132.83660217510862,0.02
1784.0,283.72802139148155,132.73970987728035,0.02
1785.0,275.45108898832996,133.14221562977812,0.02
1786.0,270.69638623130186,133.08442959123823,0.02
1787.0,286.6460531697366,136.1826190400062,0.02
1788.0,7.2001474144149284,133.34008619620127,0.02
1789.0,36.974214102858895,133.25226400747107,0.02
1790.0,-242.13002272673208,130.4282207393795,0.02
1791.0,59.34549025725164,128.41645759977138,0.02
1792.0,33.97652607090427,130.38057427369816,0.02
1793.0,28.472626039357237,128.09106741298493,0.02
1794.0,49.503825771847886,128.0816138643716,0.02
1795.0,47.36688251139532,127.32575201202448,0.02
1796.0,-59.35769171080949,123.72524885894185,0.02
1797.0,238.05390837708296,123.54821452902031,0.02
1798.0,-7.039778310108602,120.56510650889953,0.02
1799.0,281.9250936066679,123.11899488078953,0.02
1800.0,25.385061163978335,122.99668281967695,0.02
1801.0,12.211033103154932,120.40306512571266,0.02
1802.0,-7.497666014656673,117.44621763079243,0.02
1803.0,282.103949550498,118.9142703366358,0.02
1804.0,275.1662049820344,121.66082051383157,0.02
1805.0,7.450798587608759,122.25240116306311,0.02
1806.0,-26.22494453990251,119.39949217989113,0.02
1807.0,262.7888047062508,119.29299199827807,0.02
1808.0,276.7540523748517,121.70274847808643,0.02
1809.0,-40.88474669647559,118.72443700033558,0.02
